digraph Tree {
node [shape=box, style="filled", color="black"] ;
0 [label="hematokrit <= 6.925\ngini = 0.452\nsamples = 4056\nvalue = [2231, 4249]\nclass = true", fillcolor="#a1d0f3"] ;
1 [label="leukocyty <= 7.79\ngini = 0.42\nsamples = 740\nvalue = [814, 348]\nclass = false", fillcolor="#f0b78e"] ;
0 -> 1 [labeldistance=2.5, labelangle=45, headlabel="True"] ;
2 [label="state <= 1.5\ngini = 0.178\nsamples = 201\nvalue = [30, 274]\nclass = true", fillcolor="#4fa8e8"] ;
1 -> 2 ;
3 [label="hbver <= 7.098\ngini = 0.5\nsamples = 7\nvalue = [6, 6]\nclass = false", fillcolor="#ffffff"] ;
2 -> 3 ;
4 [label="gini = 0.0\nsamples = 2\nvalue = [6, 0]\nclass = false", fillcolor="#e58139"] ;
3 -> 4 ;
5 [label="gini = 0.0\nsamples = 5\nvalue = [0, 6]\nclass = true", fillcolor="#399de5"] ;
3 -> 5 ;
6 [label="hbver <= 5.86\ngini = 0.151\nsamples = 194\nvalue = [24, 268]\nclass = true", fillcolor="#4ba6e7"] ;
2 -> 6 ;
7 [label="etytr <= 6.053\ngini = 0.49\nsamples = 6\nvalue = [3, 4]\nclass = true", fillcolor="#cee6f8"] ;
6 -> 7 ;
8 [label="gini = 0.0\nsamples = 2\nvalue = [3, 0]\nclass = false", fillcolor="#e58139"] ;
7 -> 8 ;
9 [label="gini = 0.0\nsamples = 4\nvalue = [0, 4]\nclass = true", fillcolor="#399de5"] ;
7 -> 9 ;
10 [label="weight <= 15.752\ngini = 0.137\nsamples = 188\nvalue = [21, 264]\nclass = true", fillcolor="#49a5e7"] ;
6 -> 10 ;
11 [label="trombocyty <= 8.003\ngini = 0.363\nsamples = 15\nvalue = [5, 16]\nclass = true", fillcolor="#77bced"] ;
10 -> 11 ;
12 [label="etytr <= 6.809\ngini = 0.494\nsamples = 7\nvalue = [5, 4]\nclass = false", fillcolor="#fae6d7"] ;
11 -> 12 ;
13 [label="relationship <= 5.5\ngini = 0.278\nsamples = 4\nvalue = [5, 1]\nclass = false", fillcolor="#ea9a61"] ;
12 -> 13 ;
14 [label="gini = 0.0\nsamples = 3\nvalue = [5, 0]\nclass = false", fillcolor="#e58139"] ;
13 -> 14 ;
15 [label="gini = 0.0\nsamples = 1\nvalue = [0, 1]\nclass = true", fillcolor="#399de5"] ;
13 -> 15 ;
16 [label="gini = 0.0\nsamples = 3\nvalue = [0, 3]\nclass = true", fillcolor="#399de5"] ;
12 -> 16 ;
17 [label="gini = 0.0\nsamples = 8\nvalue = [0, 12]\nclass = true", fillcolor="#399de5"] ;
11 -> 17 ;
18 [label="hemoglobin <= 10.625\ngini = 0.114\nsamples = 173\nvalue = [16, 248]\nclass = true", fillcolor="#46a3e7"] ;
10 -> 18 ;
19 [label="hemoglobin <= 4.302\ngini = 0.079\nsamples = 156\nvalue = [10, 232]\nclass = true", fillcolor="#42a1e6"] ;
18 -> 19 ;
20 [label="gini = 0.0\nsamples = 1\nvalue = [1, 0]\nclass = false", fillcolor="#e58139"] ;
19 -> 20 ;
21 [label="etytr <= 6.077\ngini = 0.072\nsamples = 155\nvalue = [9, 232]\nclass = true", fillcolor="#41a1e6"] ;
19 -> 21 ;
22 [label="blood_group <= 5.5\ngini = 0.272\nsamples = 27\nvalue = [6, 31]\nclass = true", fillcolor="#5fb0ea"] ;
21 -> 22 ;
23 [label="hbver <= 7.701\ngini = 0.375\nsamples = 15\nvalue = [5, 15]\nclass = true", fillcolor="#7bbeee"] ;
22 -> 23 ;
24 [label="ast <= 55.187\ngini = 0.496\nsamples = 9\nvalue = [5, 6]\nclass = true", fillcolor="#deeffb"] ;
23 -> 24 ;
25 [label="etytr <= 4.405\ngini = 0.32\nsamples = 5\nvalue = [4, 1]\nclass = false", fillcolor="#eca06a"] ;
24 -> 25 ;
26 [label="gini = 0.0\nsamples = 1\nvalue = [0, 1]\nclass = true", fillcolor="#399de5"] ;
25 -> 26 ;
27 [label="gini = 0.0\nsamples = 4\nvalue = [4, 0]\nclass = false", fillcolor="#e58139"] ;
25 -> 27 ;
28 [label="ast <= 63.504\ngini = 0.278\nsamples = 4\nvalue = [1, 5]\nclass = true", fillcolor="#61b1ea"] ;
24 -> 28 ;
29 [label="gini = 0.0\nsamples = 3\nvalue = [0, 5]\nclass = true", fillcolor="#399de5"] ;
28 -> 29 ;
30 [label="gini = 0.0\nsamples = 1\nvalue = [1, 0]\nclass = false", fillcolor="#e58139"] ;
28 -> 30 ;
31 [label="gini = 0.0\nsamples = 6\nvalue = [0, 9]\nclass = true", fillcolor="#399de5"] ;
23 -> 31 ;
32 [label="age <= 66.0\ngini = 0.111\nsamples = 12\nvalue = [1, 16]\nclass = true", fillcolor="#45a3e7"] ;
22 -> 32 ;
33 [label="gini = 0.0\nsamples = 8\nvalue = [0, 13]\nclass = true", fillcolor="#399de5"] ;
32 -> 33 ;
34 [label="ast <= 59.064\ngini = 0.375\nsamples = 4\nvalue = [1, 3]\nclass = true", fillcolor="#7bbeee"] ;
32 -> 34 ;
35 [label="gini = 0.0\nsamples = 3\nvalue = [0, 3]\nclass = true", fillcolor="#399de5"] ;
34 -> 35 ;
36 [label="gini = 0.0\nsamples = 1\nvalue = [1, 0]\nclass = false", fillcolor="#e58139"] ;
34 -> 36 ;
37 [label="weight <= 68.078\ngini = 0.029\nsamples = 128\nvalue = [3, 201]\nclass = true", fillcolor="#3c9ee5"] ;
21 -> 37 ;
38 [label="gini = 0.0\nsamples = 71\nvalue = [0, 112]\nclass = true", fillcolor="#399de5"] ;
37 -> 38 ;
39 [label="hbver <= 7.051\ngini = 0.063\nsamples = 57\nvalue = [3, 89]\nclass = true", fillcolor="#40a0e6"] ;
37 -> 39 ;
40 [label="hemoglobin <= 6.481\ngini = 0.147\nsamples = 15\nvalue = [2, 23]\nclass = true", fillcolor="#4aa6e7"] ;
39 -> 40 ;
41 [label="gini = 0.0\nsamples = 1\nvalue = [1, 0]\nclass = false", fillcolor="#e58139"] ;
40 -> 41 ;
42 [label="state <= 21.0\ngini = 0.08\nsamples = 14\nvalue = [1, 23]\nclass = true", fillcolor="#42a1e6"] ;
40 -> 42 ;
43 [label="weight <= 70.457\ngini = 0.245\nsamples = 4\nvalue = [1, 6]\nclass = true", fillcolor="#5aade9"] ;
42 -> 43 ;
44 [label="gini = 0.0\nsamples = 1\nvalue = [1, 0]\nclass = false", fillcolor="#e58139"] ;
43 -> 44 ;
45 [label="gini = 0.0\nsamples = 3\nvalue = [0, 6]\nclass = true", fillcolor="#399de5"] ;
43 -> 45 ;
46 [label="gini = 0.0\nsamples = 10\nvalue = [0, 17]\nclass = true", fillcolor="#399de5"] ;
42 -> 46 ;
47 [label="relationship <= 5.5\ngini = 0.029\nsamples = 42\nvalue = [1, 66]\nclass = true", fillcolor="#3c9ee5"] ;
39 -> 47 ;
48 [label="gini = 0.0\nsamples = 36\nvalue = [0, 59]\nclass = true", fillcolor="#399de5"] ;
47 -> 48 ;
49 [label="erytrocyty <= 8.2\ngini = 0.219\nsamples = 6\nvalue = [1, 7]\nclass = true", fillcolor="#55abe9"] ;
47 -> 49 ;
50 [label="gini = 0.0\nsamples = 4\nvalue = [0, 6]\nclass = true", fillcolor="#399de5"] ;
49 -> 50 ;
51 [label="hemoglobin <= 9.225\ngini = 0.5\nsamples = 2\nvalue = [1, 1]\nclass = false", fillcolor="#ffffff"] ;
49 -> 51 ;
52 [label="gini = 0.0\nsamples = 1\nvalue = [0, 1]\nclass = true", fillcolor="#399de5"] ;
51 -> 52 ;
53 [label="gini = 0.0\nsamples = 1\nvalue = [1, 0]\nclass = false", fillcolor="#e58139"] ;
51 -> 53 ;
54 [label="alp <= 40.984\ngini = 0.397\nsamples = 17\nvalue = [6, 16]\nclass = true", fillcolor="#83c2ef"] ;
18 -> 54 ;
55 [label="hemoglobin <= 10.707\ngini = 0.444\nsamples = 4\nvalue = [4, 2]\nclass = false", fillcolor="#f2c09c"] ;
54 -> 55 ;
56 [label="gini = 0.0\nsamples = 2\nvalue = [4, 0]\nclass = false", fillcolor="#e58139"] ;
55 -> 56 ;
57 [label="gini = 0.0\nsamples = 2\nvalue = [0, 2]\nclass = true", fillcolor="#399de5"] ;
55 -> 57 ;
58 [label="etytr <= 6.724\ngini = 0.219\nsamples = 13\nvalue = [2, 14]\nclass = true", fillcolor="#55abe9"] ;
54 -> 58 ;
59 [label="gini = 0.0\nsamples = 2\nvalue = [2, 0]\nclass = false", fillcolor="#e58139"] ;
58 -> 59 ;
60 [label="gini = 0.0\nsamples = 11\nvalue = [0, 14]\nclass = true", fillcolor="#399de5"] ;
58 -> 60 ;
61 [label="hematokrit <= 6.639\ngini = 0.158\nsamples = 539\nvalue = [784, 74]\nclass = false", fillcolor="#e78d4c"] ;
1 -> 61 ;
62 [label="alp <= 13.911\ngini = 0.109\nsamples = 433\nvalue = [651, 40]\nclass = false", fillcolor="#e78945"] ;
61 -> 62 ;
63 [label="ast <= 49.42\ngini = 0.453\nsamples = 12\nvalue = [17, 9]\nclass = false", fillcolor="#f3c4a2"] ;
62 -> 63 ;
64 [label="er-cv <= 60.405\ngini = 0.188\nsamples = 9\nvalue = [17, 2]\nclass = false", fillcolor="#e89050"] ;
63 -> 64 ;
65 [label="gini = 0.0\nsamples = 6\nvalue = [15, 0]\nclass = false", fillcolor="#e58139"] ;
64 -> 65 ;
66 [label="weight <= 67.36\ngini = 0.5\nsamples = 3\nvalue = [2, 2]\nclass = false", fillcolor="#ffffff"] ;
64 -> 66 ;
67 [label="gini = 0.0\nsamples = 2\nvalue = [0, 2]\nclass = true", fillcolor="#399de5"] ;
66 -> 67 ;
68 [label="gini = 0.0\nsamples = 1\nvalue = [2, 0]\nclass = false", fillcolor="#e58139"] ;
66 -> 68 ;
69 [label="gini = 0.0\nsamples = 3\nvalue = [0, 7]\nclass = true", fillcolor="#399de5"] ;
63 -> 69 ;
70 [label="leukocyty <= 8.323\ngini = 0.089\nsamples = 421\nvalue = [634, 31]\nclass = false", fillcolor="#e68743"] ;
62 -> 70 ;
71 [label="leukocyty <= 8.308\ngini = 0.307\nsamples = 43\nvalue = [60, 14]\nclass = false", fillcolor="#eb9e67"] ;
70 -> 71 ;
72 [label="hemoglobin <= 7.455\ngini = 0.245\nsamples = 41\nvalue = [60, 10]\nclass = false", fillcolor="#e9965a"] ;
71 -> 72 ;
73 [label="gini = 0.0\nsamples = 23\nvalue = [40, 0]\nclass = false", fillcolor="#e58139"] ;
72 -> 73 ;
74 [label="etytr <= 5.169\ngini = 0.444\nsamples = 18\nvalue = [20, 10]\nclass = false", fillcolor="#f2c09c"] ;
72 -> 74 ;
75 [label="gini = 0.0\nsamples = 5\nvalue = [0, 8]\nclass = true", fillcolor="#399de5"] ;
74 -> 75 ;
76 [label="leukocyty <= 8.009\ngini = 0.165\nsamples = 13\nvalue = [20, 2]\nclass = false", fillcolor="#e88e4d"] ;
74 -> 76 ;
77 [label="gini = 0.0\nsamples = 7\nvalue = [13, 0]\nclass = false", fillcolor="#e58139"] ;
76 -> 77 ;
78 [label="hemoglobin <= 9.013\ngini = 0.346\nsamples = 6\nvalue = [7, 2]\nclass = false", fillcolor="#eca572"] ;
76 -> 78 ;
79 [label="gini = 0.0\nsamples = 2\nvalue = [0, 2]\nclass = true", fillcolor="#399de5"] ;
78 -> 79 ;
80 [label="gini = 0.0\nsamples = 4\nvalue = [7, 0]\nclass = false", fillcolor="#e58139"] ;
78 -> 80 ;
81 [label="gini = 0.0\nsamples = 2\nvalue = [0, 4]\nclass = true", fillcolor="#399de5"] ;
71 -> 81 ;
82 [label="state <= 27.5\ngini = 0.056\nsamples = 378\nvalue = [574, 17]\nclass = false", fillcolor="#e6853f"] ;
70 -> 82 ;
83 [label="hbver <= 8.016\ngini = 0.11\nsamples = 189\nvalue = [274, 17]\nclass = false", fillcolor="#e78945"] ;
82 -> 83 ;
84 [label="weight <= 64.9\ngini = 0.17\nsamples = 123\nvalue = [155, 16]\nclass = false", fillcolor="#e88e4d"] ;
83 -> 84 ;
85 [label="trombocyty <= 7.806\ngini = 0.287\nsamples = 49\nvalue = [57, 12]\nclass = false", fillcolor="#ea9c63"] ;
84 -> 85 ;
86 [label="trombocyty <= 6.608\ngini = 0.124\nsamples = 32\nvalue = [42, 3]\nclass = false", fillcolor="#e78a47"] ;
85 -> 86 ;
87 [label="alp <= 44.245\ngini = 0.32\nsamples = 11\nvalue = [12, 3]\nclass = false", fillcolor="#eca06a"] ;
86 -> 87 ;
88 [label="ast <= 48.408\ngini = 0.444\nsamples = 3\nvalue = [1, 2]\nclass = true", fillcolor="#9ccef2"] ;
87 -> 88 ;
89 [label="gini = 0.0\nsamples = 2\nvalue = [0, 2]\nclass = true", fillcolor="#399de5"] ;
88 -> 89 ;
90 [label="gini = 0.0\nsamples = 1\nvalue = [1, 0]\nclass = false", fillcolor="#e58139"] ;
88 -> 90 ;
91 [label="etytr <= 9.171\ngini = 0.153\nsamples = 8\nvalue = [11, 1]\nclass = false", fillcolor="#e78c4b"] ;
87 -> 91 ;
92 [label="gini = 0.0\nsamples = 7\nvalue = [11, 0]\nclass = false", fillcolor="#e58139"] ;
91 -> 92 ;
93 [label="gini = 0.0\nsamples = 1\nvalue = [0, 1]\nclass = true", fillcolor="#399de5"] ;
91 -> 93 ;
94 [label="gini = 0.0\nsamples = 21\nvalue = [30, 0]\nclass = false", fillcolor="#e58139"] ;
86 -> 94 ;
95 [label="trombocyty <= 8.832\ngini = 0.469\nsamples = 17\nvalue = [15, 9]\nclass = false", fillcolor="#f5cdb0"] ;
85 -> 95 ;
96 [label="er-cv <= 53.967\ngini = 0.5\nsamples = 14\nvalue = [9, 9]\nclass = false", fillcolor="#ffffff"] ;
95 -> 96 ;
97 [label="gini = 0.0\nsamples = 5\nvalue = [5, 0]\nclass = false", fillcolor="#e58139"] ;
96 -> 97 ;
98 [label="erytrocyty <= 7.621\ngini = 0.426\nsamples = 9\nvalue = [4, 9]\nclass = true", fillcolor="#91c9f1"] ;
96 -> 98 ;
99 [label="gini = 0.0\nsamples = 4\nvalue = [0, 7]\nclass = true", fillcolor="#399de5"] ;
98 -> 99 ;
100 [label="hbver <= 7.156\ngini = 0.444\nsamples = 5\nvalue = [4, 2]\nclass = false", fillcolor="#f2c09c"] ;
98 -> 100 ;
101 [label="gini = 0.0\nsamples = 2\nvalue = [3, 0]\nclass = false", fillcolor="#e58139"] ;
100 -> 101 ;
102 [label="state <= 4.5\ngini = 0.444\nsamples = 3\nvalue = [1, 2]\nclass = true", fillcolor="#9ccef2"] ;
100 -> 102 ;
103 [label="gini = 0.0\nsamples = 2\nvalue = [0, 2]\nclass = true", fillcolor="#399de5"] ;
102 -> 103 ;
104 [label="gini = 0.0\nsamples = 1\nvalue = [1, 0]\nclass = false", fillcolor="#e58139"] ;
102 -> 104 ;
105 [label="gini = 0.0\nsamples = 3\nvalue = [6, 0]\nclass = false", fillcolor="#e58139"] ;
95 -> 105 ;
106 [label="etytr <= 4.697\ngini = 0.075\nsamples = 74\nvalue = [98, 4]\nclass = false", fillcolor="#e68641"] ;
84 -> 106 ;
107 [label="hemoglobin <= 6.347\ngini = 0.298\nsamples = 15\nvalue = [18, 4]\nclass = false", fillcolor="#eb9d65"] ;
106 -> 107 ;
108 [label="gini = 0.0\nsamples = 14\nvalue = [18, 0]\nclass = false", fillcolor="#e58139"] ;
107 -> 108 ;
109 [label="gini = 0.0\nsamples = 1\nvalue = [0, 4]\nclass = true", fillcolor="#399de5"] ;
107 -> 109 ;
110 [label="gini = 0.0\nsamples = 59\nvalue = [80, 0]\nclass = false", fillcolor="#e58139"] ;
106 -> 110 ;
111 [label="age <= 3.5\ngini = 0.017\nsamples = 66\nvalue = [119, 1]\nclass = false", fillcolor="#e5823b"] ;
83 -> 111 ;
112 [label="leukocyty <= 8.837\ngini = 0.32\nsamples = 4\nvalue = [4, 1]\nclass = false", fillcolor="#eca06a"] ;
111 -> 112 ;
113 [label="gini = 0.0\nsamples = 1\nvalue = [0, 1]\nclass = true", fillcolor="#399de5"] ;
112 -> 113 ;
114 [label="gini = 0.0\nsamples = 3\nvalue = [4, 0]\nclass = false", fillcolor="#e58139"] ;
112 -> 114 ;
115 [label="gini = 0.0\nsamples = 62\nvalue = [115, 0]\nclass = false", fillcolor="#e58139"] ;
111 -> 115 ;
116 [label="gini = 0.0\nsamples = 189\nvalue = [300, 0]\nclass = false", fillcolor="#e58139"] ;
82 -> 116 ;
117 [label="alp <= 20.362\ngini = 0.324\nsamples = 106\nvalue = [133, 34]\nclass = false", fillcolor="#eca16c"] ;
61 -> 117 ;
118 [label="blood_group <= 1.5\ngini = 0.444\nsamples = 9\nvalue = [5, 10]\nclass = true", fillcolor="#9ccef2"] ;
117 -> 118 ;
119 [label="gini = 0.0\nsamples = 2\nvalue = [2, 0]\nclass = false", fillcolor="#e58139"] ;
118 -> 119 ;
120 [label="hematokrit <= 6.692\ngini = 0.355\nsamples = 7\nvalue = [3, 10]\nclass = true", fillcolor="#74baed"] ;
118 -> 120 ;
121 [label="gini = 0.0\nsamples = 2\nvalue = [3, 0]\nclass = false", fillcolor="#e58139"] ;
120 -> 121 ;
122 [label="gini = 0.0\nsamples = 5\nvalue = [0, 10]\nclass = true", fillcolor="#399de5"] ;
120 -> 122 ;
123 [label="hbver <= 8.516\ngini = 0.266\nsamples = 97\nvalue = [128, 24]\nclass = false", fillcolor="#ea995e"] ;
117 -> 123 ;
124 [label="etytr <= 11.412\ngini = 0.198\nsamples = 81\nvalue = [112, 14]\nclass = false", fillcolor="#e89152"] ;
123 -> 124 ;
125 [label="leukocyty <= 9.801\ngini = 0.186\nsamples = 80\nvalue = [112, 13]\nclass = false", fillcolor="#e89050"] ;
124 -> 125 ;
126 [label="alt <= 1.273\ngini = 0.15\nsamples = 79\nvalue = [112, 10]\nclass = false", fillcolor="#e78c4b"] ;
125 -> 126 ;
127 [label="gini = 0.0\nsamples = 1\nvalue = [0, 1]\nclass = true", fillcolor="#399de5"] ;
126 -> 127 ;
128 [label="erytrocyty <= 8.954\ngini = 0.138\nsamples = 78\nvalue = [112, 9]\nclass = false", fillcolor="#e78b49"] ;
126 -> 128 ;
129 [label="leukocyty <= 8.623\ngini = 0.115\nsamples = 71\nvalue = [107, 7]\nclass = false", fillcolor="#e78946"] ;
128 -> 129 ;
130 [label="blood_group <= 6.5\ngini = 0.254\nsamples = 27\nvalue = [40, 7]\nclass = false", fillcolor="#ea975c"] ;
129 -> 130 ;
131 [label="leukocyty <= 8.562\ngini = 0.358\nsamples = 19\nvalue = [23, 7]\nclass = false", fillcolor="#eda775"] ;
130 -> 131 ;
132 [label="ast <= 34.737\ngini = 0.165\nsamples = 14\nvalue = [20, 2]\nclass = false", fillcolor="#e88e4d"] ;
131 -> 132 ;
133 [label="trombocyty <= 7.152\ngini = 0.444\nsamples = 3\nvalue = [4, 2]\nclass = false", fillcolor="#f2c09c"] ;
132 -> 133 ;
134 [label="gini = 0.0\nsamples = 1\nvalue = [0, 2]\nclass = true", fillcolor="#399de5"] ;
133 -> 134 ;
135 [label="gini = 0.0\nsamples = 2\nvalue = [4, 0]\nclass = false", fillcolor="#e58139"] ;
133 -> 135 ;
136 [label="gini = 0.0\nsamples = 11\nvalue = [16, 0]\nclass = false", fillcolor="#e58139"] ;
132 -> 136 ;
137 [label="trombocyty <= 7.687\ngini = 0.469\nsamples = 5\nvalue = [3, 5]\nclass = true", fillcolor="#b0d8f5"] ;
131 -> 137 ;
138 [label="hemoglobin <= 7.7\ngini = 0.375\nsamples = 3\nvalue = [3, 1]\nclass = false", fillcolor="#eeab7b"] ;
137 -> 138 ;
139 [label="gini = 0.0\nsamples = 2\nvalue = [3, 0]\nclass = false", fillcolor="#e58139"] ;
138 -> 139 ;
140 [label="gini = 0.0\nsamples = 1\nvalue = [0, 1]\nclass = true", fillcolor="#399de5"] ;
138 -> 140 ;
141 [label="gini = 0.0\nsamples = 2\nvalue = [0, 4]\nclass = true", fillcolor="#399de5"] ;
137 -> 141 ;
142 [label="gini = 0.0\nsamples = 8\nvalue = [17, 0]\nclass = false", fillcolor="#e58139"] ;
130 -> 142 ;
143 [label="gini = 0.0\nsamples = 44\nvalue = [67, 0]\nclass = false", fillcolor="#e58139"] ;
129 -> 143 ;
144 [label="hbver <= 6.998\ngini = 0.408\nsamples = 7\nvalue = [5, 2]\nclass = false", fillcolor="#efb388"] ;
128 -> 144 ;
145 [label="gini = 0.0\nsamples = 2\nvalue = [0, 2]\nclass = true", fillcolor="#399de5"] ;
144 -> 145 ;
146 [label="gini = 0.0\nsamples = 5\nvalue = [5, 0]\nclass = false", fillcolor="#e58139"] ;
144 -> 146 ;
147 [label="gini = 0.0\nsamples = 1\nvalue = [0, 3]\nclass = true", fillcolor="#399de5"] ;
125 -> 147 ;
148 [label="gini = 0.0\nsamples = 1\nvalue = [0, 1]\nclass = true", fillcolor="#399de5"] ;
124 -> 148 ;
149 [label="leukocyty <= 8.301\ngini = 0.473\nsamples = 16\nvalue = [16, 10]\nclass = false", fillcolor="#f5d0b5"] ;
123 -> 149 ;
150 [label="gini = 0.0\nsamples = 4\nvalue = [0, 7]\nclass = true", fillcolor="#399de5"] ;
149 -> 150 ;
151 [label="erytrocyty <= 8.382\ngini = 0.266\nsamples = 12\nvalue = [16, 3]\nclass = false", fillcolor="#ea995e"] ;
149 -> 151 ;
152 [label="gini = 0.0\nsamples = 10\nvalue = [15, 0]\nclass = false", fillcolor="#e58139"] ;
151 -> 152 ;
153 [label="hemoglobin <= 7.845\ngini = 0.375\nsamples = 2\nvalue = [1, 3]\nclass = true", fillcolor="#7bbeee"] ;
151 -> 153 ;
154 [label="gini = 0.0\nsamples = 1\nvalue = [0, 3]\nclass = true", fillcolor="#399de5"] ;
153 -> 154 ;
155 [label="gini = 0.0\nsamples = 1\nvalue = [1, 0]\nclass = false", fillcolor="#e58139"] ;
153 -> 155 ;
156 [label="leukocyty <= 7.784\ngini = 0.391\nsamples = 3316\nvalue = [1417, 3901]\nclass = true", fillcolor="#81c1ee"] ;
0 -> 156 [labeldistance=2.5, labelangle=-45, headlabel="False"] ;
157 [label="etytr <= 5.684\ngini = 0.087\nsamples = 1335\nvalue = [100, 2094]\nclass = true", fillcolor="#42a2e6"] ;
156 -> 157 ;
158 [label="erytrocyty <= 9.541\ngini = 0.485\nsamples = 85\nvalue = [55, 78]\nclass = true", fillcolor="#c5e2f7"] ;
157 -> 158 ;
159 [label="age <= 17.5\ngini = 0.472\nsamples = 81\nvalue = [48, 78]\nclass = true", fillcolor="#b3d9f5"] ;
158 -> 159 ;
160 [label="gini = 0.0\nsamples = 11\nvalue = [0, 22]\nclass = true", fillcolor="#399de5"] ;
159 -> 160 ;
161 [label="leukocyty <= 6.859\ngini = 0.497\nsamples = 70\nvalue = [48, 56]\nclass = true", fillcolor="#e3f1fb"] ;
159 -> 161 ;
162 [label="gini = 0.0\nsamples = 13\nvalue = [0, 19]\nclass = true", fillcolor="#399de5"] ;
161 -> 162 ;
163 [label="blood_group <= 3.5\ngini = 0.492\nsamples = 57\nvalue = [48, 37]\nclass = false", fillcolor="#f9e2d2"] ;
161 -> 163 ;
164 [label="trombocyty <= 6.409\ngini = 0.271\nsamples = 22\nvalue = [26, 5]\nclass = false", fillcolor="#ea995f"] ;
163 -> 164 ;
165 [label="alp <= 17.967\ngini = 0.49\nsamples = 5\nvalue = [3, 4]\nclass = true", fillcolor="#cee6f8"] ;
164 -> 165 ;
166 [label="gini = 0.0\nsamples = 2\nvalue = [3, 0]\nclass = false", fillcolor="#e58139"] ;
165 -> 166 ;
167 [label="gini = 0.0\nsamples = 3\nvalue = [0, 4]\nclass = true", fillcolor="#399de5"] ;
165 -> 167 ;
168 [label="state <= 40.5\ngini = 0.08\nsamples = 17\nvalue = [23, 1]\nclass = false", fillcolor="#e68642"] ;
164 -> 168 ;
169 [label="gini = 0.0\nsamples = 14\nvalue = [19, 0]\nclass = false", fillcolor="#e58139"] ;
168 -> 169 ;
170 [label="age <= 91.0\ngini = 0.32\nsamples = 3\nvalue = [4, 1]\nclass = false", fillcolor="#eca06a"] ;
168 -> 170 ;
171 [label="gini = 0.0\nsamples = 2\nvalue = [4, 0]\nclass = false", fillcolor="#e58139"] ;
170 -> 171 ;
172 [label="gini = 0.0\nsamples = 1\nvalue = [0, 1]\nclass = true", fillcolor="#399de5"] ;
170 -> 172 ;
173 [label="alp <= 30.453\ngini = 0.483\nsamples = 35\nvalue = [22, 32]\nclass = true", fillcolor="#c1e0f7"] ;
163 -> 173 ;
174 [label="leukocyty <= 6.96\ngini = 0.188\nsamples = 12\nvalue = [17, 2]\nclass = false", fillcolor="#e89050"] ;
173 -> 174 ;
175 [label="gini = 0.0\nsamples = 1\nvalue = [0, 1]\nclass = true", fillcolor="#399de5"] ;
174 -> 175 ;
176 [label="etytr <= 4.009\ngini = 0.105\nsamples = 11\nvalue = [17, 1]\nclass = false", fillcolor="#e78845"] ;
174 -> 176 ;
177 [label="gini = 0.0\nsamples = 1\nvalue = [0, 1]\nclass = true", fillcolor="#399de5"] ;
176 -> 177 ;
178 [label="gini = 0.0\nsamples = 10\nvalue = [17, 0]\nclass = false", fillcolor="#e58139"] ;
176 -> 178 ;
179 [label="state <= 7.0\ngini = 0.245\nsamples = 23\nvalue = [5, 30]\nclass = true", fillcolor="#5aade9"] ;
173 -> 179 ;
180 [label="trombocyty <= 8.602\ngini = 0.375\nsamples = 4\nvalue = [3, 1]\nclass = false", fillcolor="#eeab7b"] ;
179 -> 180 ;
181 [label="gini = 0.0\nsamples = 3\nvalue = [3, 0]\nclass = false", fillcolor="#e58139"] ;
180 -> 181 ;
182 [label="gini = 0.0\nsamples = 1\nvalue = [0, 1]\nclass = true", fillcolor="#399de5"] ;
180 -> 182 ;
183 [label="alp <= 60.035\ngini = 0.121\nsamples = 19\nvalue = [2, 29]\nclass = true", fillcolor="#47a4e7"] ;
179 -> 183 ;
184 [label="etytr <= 3.849\ngini = 0.375\nsamples = 5\nvalue = [2, 6]\nclass = true", fillcolor="#7bbeee"] ;
183 -> 184 ;
185 [label="ast <= 54.757\ngini = 0.444\nsamples = 2\nvalue = [2, 1]\nclass = false", fillcolor="#f2c09c"] ;
184 -> 185 ;
186 [label="gini = 0.0\nsamples = 1\nvalue = [2, 0]\nclass = false", fillcolor="#e58139"] ;
185 -> 186 ;
187 [label="gini = 0.0\nsamples = 1\nvalue = [0, 1]\nclass = true", fillcolor="#399de5"] ;
185 -> 187 ;
188 [label="gini = 0.0\nsamples = 3\nvalue = [0, 5]\nclass = true", fillcolor="#399de5"] ;
184 -> 188 ;
189 [label="gini = 0.0\nsamples = 14\nvalue = [0, 23]\nclass = true", fillcolor="#399de5"] ;
183 -> 189 ;
190 [label="gini = 0.0\nsamples = 4\nvalue = [7, 0]\nclass = false", fillcolor="#e58139"] ;
158 -> 190 ;
191 [label="etytr <= 6.345\ngini = 0.043\nsamples = 1250\nvalue = [45, 2016]\nclass = true", fillcolor="#3d9fe6"] ;
157 -> 191 ;
192 [label="alp <= 21.167\ngini = 0.221\nsamples = 44\nvalue = [10, 69]\nclass = true", fillcolor="#56abe9"] ;
191 -> 192 ;
193 [label="er-cv <= 57.781\ngini = 0.463\nsamples = 13\nvalue = [8, 14]\nclass = true", fillcolor="#aad5f4"] ;
192 -> 193 ;
194 [label="leukocyty <= 6.562\ngini = 0.305\nsamples = 9\nvalue = [3, 13]\nclass = true", fillcolor="#67b4eb"] ;
193 -> 194 ;
195 [label="gini = 0.0\nsamples = 6\nvalue = [0, 13]\nclass = true", fillcolor="#399de5"] ;
194 -> 195 ;
196 [label="gini = 0.0\nsamples = 3\nvalue = [3, 0]\nclass = false", fillcolor="#e58139"] ;
194 -> 196 ;
197 [label="ast <= 64.934\ngini = 0.278\nsamples = 4\nvalue = [5, 1]\nclass = false", fillcolor="#ea9a61"] ;
193 -> 197 ;
198 [label="gini = 0.0\nsamples = 3\nvalue = [5, 0]\nclass = false", fillcolor="#e58139"] ;
197 -> 198 ;
199 [label="gini = 0.0\nsamples = 1\nvalue = [0, 1]\nclass = true", fillcolor="#399de5"] ;
197 -> 199 ;
200 [label="alp <= 90.249\ngini = 0.068\nsamples = 31\nvalue = [2, 55]\nclass = true", fillcolor="#40a1e6"] ;
192 -> 200 ;
201 [label="hemoglobin <= 8.1\ngini = 0.035\nsamples = 30\nvalue = [1, 55]\nclass = true", fillcolor="#3d9fe5"] ;
200 -> 201 ;
202 [label="gini = 0.0\nsamples = 25\nvalue = [0, 45]\nclass = true", fillcolor="#399de5"] ;
201 -> 202 ;
203 [label="erytrocyty <= 9.056\ngini = 0.165\nsamples = 5\nvalue = [1, 10]\nclass = true", fillcolor="#4da7e8"] ;
201 -> 203 ;
204 [label="gini = 0.0\nsamples = 4\nvalue = [0, 10]\nclass = true", fillcolor="#399de5"] ;
203 -> 204 ;
205 [label="gini = 0.0\nsamples = 1\nvalue = [1, 0]\nclass = false", fillcolor="#e58139"] ;
203 -> 205 ;
206 [label="gini = 0.0\nsamples = 1\nvalue = [1, 0]\nclass = false", fillcolor="#e58139"] ;
200 -> 206 ;
207 [label="hemoglobin <= 9.056\ngini = 0.035\nsamples = 1206\nvalue = [35, 1947]\nclass = true", fillcolor="#3d9fe5"] ;
191 -> 207 ;
208 [label="state <= 12.5\ngini = 0.021\nsamples = 753\nvalue = [13, 1224]\nclass = true", fillcolor="#3b9ee5"] ;
207 -> 208 ;
209 [label="hemoglobin <= 3.439\ngini = 0.054\nsamples = 162\nvalue = [8, 282]\nclass = true", fillcolor="#3fa0e6"] ;
208 -> 209 ;
210 [label="gini = 0.0\nsamples = 1\nvalue = [1, 0]\nclass = false", fillcolor="#e58139"] ;
209 -> 210 ;
211 [label="weight <= 95.11\ngini = 0.047\nsamples = 161\nvalue = [7, 282]\nclass = true", fillcolor="#3e9fe6"] ;
209 -> 211 ;
212 [label="gini = 0.0\nsamples = 118\nvalue = [0, 213]\nclass = true", fillcolor="#399de5"] ;
211 -> 212 ;
213 [label="relationship <= 4.5\ngini = 0.167\nsamples = 43\nvalue = [7, 69]\nclass = true", fillcolor="#4da7e8"] ;
211 -> 213 ;
214 [label="gini = 0.0\nsamples = 29\nvalue = [0, 52]\nclass = true", fillcolor="#399de5"] ;
213 -> 214 ;
215 [label="sex_F <= 0.5\ngini = 0.413\nsamples = 14\nvalue = [7, 17]\nclass = true", fillcolor="#8bc5f0"] ;
213 -> 215 ;
216 [label="weight <= 105.559\ngini = 0.42\nsamples = 7\nvalue = [7, 3]\nclass = false", fillcolor="#f0b78e"] ;
215 -> 216 ;
217 [label="gini = 0.0\nsamples = 3\nvalue = [6, 0]\nclass = false", fillcolor="#e58139"] ;
216 -> 217 ;
218 [label="state <= 11.5\ngini = 0.375\nsamples = 4\nvalue = [1, 3]\nclass = true", fillcolor="#7bbeee"] ;
216 -> 218 ;
219 [label="gini = 0.0\nsamples = 3\nvalue = [0, 3]\nclass = true", fillcolor="#399de5"] ;
218 -> 219 ;
220 [label="gini = 0.0\nsamples = 1\nvalue = [1, 0]\nclass = false", fillcolor="#e58139"] ;
218 -> 220 ;
221 [label="gini = 0.0\nsamples = 7\nvalue = [0, 14]\nclass = true", fillcolor="#399de5"] ;
215 -> 221 ;
222 [label="hematokrit <= 7.045\ngini = 0.011\nsamples = 591\nvalue = [5, 942]\nclass = true", fillcolor="#3a9ee5"] ;
208 -> 222 ;
223 [label="erytrocyty <= 6.79\ngini = 0.153\nsamples = 9\nvalue = [1, 11]\nclass = true", fillcolor="#4ba6e7"] ;
222 -> 223 ;
224 [label="gini = 0.0\nsamples = 1\nvalue = [1, 0]\nclass = false", fillcolor="#e58139"] ;
223 -> 224 ;
225 [label="gini = 0.0\nsamples = 8\nvalue = [0, 11]\nclass = true", fillcolor="#399de5"] ;
223 -> 225 ;
226 [label="etytr <= 7.958\ngini = 0.009\nsamples = 582\nvalue = [4, 931]\nclass = true", fillcolor="#3a9de5"] ;
222 -> 226 ;
227 [label="weight <= 31.619\ngini = 0.029\nsamples = 177\nvalue = [4, 269]\nclass = true", fillcolor="#3c9ee5"] ;
226 -> 227 ;
228 [label="ast <= 48.103\ngini = 0.117\nsamples = 21\nvalue = [2, 30]\nclass = true", fillcolor="#46a4e7"] ;
227 -> 228 ;
229 [label="leukocyty <= 6.124\ngini = 0.375\nsamples = 7\nvalue = [2, 6]\nclass = true", fillcolor="#7bbeee"] ;
228 -> 229 ;
230 [label="gini = 0.0\nsamples = 2\nvalue = [2, 0]\nclass = false", fillcolor="#e58139"] ;
229 -> 230 ;
231 [label="gini = 0.0\nsamples = 5\nvalue = [0, 6]\nclass = true", fillcolor="#399de5"] ;
229 -> 231 ;
232 [label="gini = 0.0\nsamples = 14\nvalue = [0, 24]\nclass = true", fillcolor="#399de5"] ;
228 -> 232 ;
233 [label="state <= 44.5\ngini = 0.016\nsamples = 156\nvalue = [2, 239]\nclass = true", fillcolor="#3b9ee5"] ;
227 -> 233 ;
234 [label="gini = 0.0\nsamples = 130\nvalue = [0, 205]\nclass = true", fillcolor="#399de5"] ;
233 -> 234 ;
235 [label="state <= 45.5\ngini = 0.105\nsamples = 26\nvalue = [2, 34]\nclass = true", fillcolor="#45a3e7"] ;
233 -> 235 ;
236 [label="relationship <= 4.0\ngini = 0.444\nsamples = 3\nvalue = [1, 2]\nclass = true", fillcolor="#9ccef2"] ;
235 -> 236 ;
237 [label="gini = 0.0\nsamples = 1\nvalue = [1, 0]\nclass = false", fillcolor="#e58139"] ;
236 -> 237 ;
238 [label="gini = 0.0\nsamples = 2\nvalue = [0, 2]\nclass = true", fillcolor="#399de5"] ;
236 -> 238 ;
239 [label="alp <= 15.05\ngini = 0.059\nsamples = 23\nvalue = [1, 32]\nclass = true", fillcolor="#3fa0e6"] ;
235 -> 239 ;
240 [label="gini = 0.0\nsamples = 1\nvalue = [1, 0]\nclass = false", fillcolor="#e58139"] ;
239 -> 240 ;
241 [label="gini = 0.0\nsamples = 22\nvalue = [0, 32]\nclass = true", fillcolor="#399de5"] ;
239 -> 241 ;
242 [label="gini = 0.0\nsamples = 405\nvalue = [0, 662]\nclass = true", fillcolor="#399de5"] ;
226 -> 242 ;
243 [label="hemoglobin <= 9.062\ngini = 0.057\nsamples = 453\nvalue = [22, 723]\nclass = true", fillcolor="#3fa0e6"] ;
207 -> 243 ;
244 [label="gini = 0.0\nsamples = 2\nvalue = [3, 0]\nclass = false", fillcolor="#e58139"] ;
243 -> 244 ;
245 [label="erytrocyty <= 6.996\ngini = 0.05\nsamples = 451\nvalue = [19, 723]\nclass = true", fillcolor="#3ea0e6"] ;
243 -> 245 ;
246 [label="leukocyty <= 7.679\ngini = 0.126\nsamples = 119\nvalue = [13, 180]\nclass = true", fillcolor="#47a4e7"] ;
245 -> 246 ;
247 [label="er-cv <= 37.828\ngini = 0.117\nsamples = 118\nvalue = [12, 180]\nclass = true", fillcolor="#46a4e7"] ;
246 -> 247 ;
248 [label="race <= 2.0\ngini = 0.375\nsamples = 11\nvalue = [6, 18]\nclass = true", fillcolor="#7bbeee"] ;
247 -> 248 ;
249 [label="erytrocyty <= 6.718\ngini = 0.198\nsamples = 8\nvalue = [2, 16]\nclass = true", fillcolor="#52a9e8"] ;
248 -> 249 ;
250 [label="gini = 0.0\nsamples = 7\nvalue = [0, 16]\nclass = true", fillcolor="#399de5"] ;
249 -> 250 ;
251 [label="gini = 0.0\nsamples = 1\nvalue = [2, 0]\nclass = false", fillcolor="#e58139"] ;
249 -> 251 ;
252 [label="relationship <= 2.5\ngini = 0.444\nsamples = 3\nvalue = [4, 2]\nclass = false", fillcolor="#f2c09c"] ;
248 -> 252 ;
253 [label="gini = 0.0\nsamples = 1\nvalue = [0, 2]\nclass = true", fillcolor="#399de5"] ;
252 -> 253 ;
254 [label="gini = 0.0\nsamples = 2\nvalue = [4, 0]\nclass = false", fillcolor="#e58139"] ;
252 -> 254 ;
255 [label="erytrocyty <= 6.99\ngini = 0.069\nsamples = 107\nvalue = [6, 162]\nclass = true", fillcolor="#40a1e6"] ;
247 -> 255 ;
256 [label="state <= 35.5\ngini = 0.047\nsamples = 106\nvalue = [4, 162]\nclass = true", fillcolor="#3e9fe6"] ;
255 -> 256 ;
257 [label="gini = 0.0\nsamples = 64\nvalue = [0, 95]\nclass = true", fillcolor="#399de5"] ;
256 -> 257 ;
258 [label="er-cv <= 53.447\ngini = 0.106\nsamples = 42\nvalue = [4, 67]\nclass = true", fillcolor="#45a3e7"] ;
256 -> 258 ;
259 [label="hematokrit <= 9.708\ngini = 0.213\nsamples = 20\nvalue = [4, 29]\nclass = true", fillcolor="#54abe9"] ;
258 -> 259 ;
260 [label="erytrocyty <= 6.729\ngini = 0.064\nsamples = 19\nvalue = [1, 29]\nclass = true", fillcolor="#40a0e6"] ;
259 -> 260 ;
261 [label="gini = 0.0\nsamples = 15\nvalue = [0, 22]\nclass = true", fillcolor="#399de5"] ;
260 -> 261 ;
262 [label="hemoglobin <= 10.289\ngini = 0.219\nsamples = 4\nvalue = [1, 7]\nclass = true", fillcolor="#55abe9"] ;
260 -> 262 ;
263 [label="gini = 0.0\nsamples = 1\nvalue = [1, 0]\nclass = false", fillcolor="#e58139"] ;
262 -> 263 ;
264 [label="gini = 0.0\nsamples = 3\nvalue = [0, 7]\nclass = true", fillcolor="#399de5"] ;
262 -> 264 ;
265 [label="gini = 0.0\nsamples = 1\nvalue = [3, 0]\nclass = false", fillcolor="#e58139"] ;
259 -> 265 ;
266 [label="gini = 0.0\nsamples = 22\nvalue = [0, 38]\nclass = true", fillcolor="#399de5"] ;
258 -> 266 ;
267 [label="gini = 0.0\nsamples = 1\nvalue = [2, 0]\nclass = false", fillcolor="#e58139"] ;
255 -> 267 ;
268 [label="gini = 0.0\nsamples = 1\nvalue = [1, 0]\nclass = false", fillcolor="#e58139"] ;
246 -> 268 ;
269 [label="trombocyty <= 9.179\ngini = 0.022\nsamples = 332\nvalue = [6, 543]\nclass = true", fillcolor="#3b9ee5"] ;
245 -> 269 ;
270 [label="hematokrit <= 7.689\ngini = 0.012\nsamples = 311\nvalue = [3, 506]\nclass = true", fillcolor="#3a9ee5"] ;
269 -> 270 ;
271 [label="leukocyty <= 7.633\ngini = 0.058\nsamples = 37\nvalue = [2, 65]\nclass = true", fillcolor="#3fa0e6"] ;
270 -> 271 ;
272 [label="gini = 0.0\nsamples = 35\nvalue = [0, 63]\nclass = true", fillcolor="#399de5"] ;
271 -> 272 ;
273 [label="erytrocyty <= 7.97\ngini = 0.5\nsamples = 2\nvalue = [2, 2]\nclass = false", fillcolor="#ffffff"] ;
271 -> 273 ;
274 [label="gini = 0.0\nsamples = 1\nvalue = [0, 2]\nclass = true", fillcolor="#399de5"] ;
273 -> 274 ;
275 [label="gini = 0.0\nsamples = 1\nvalue = [2, 0]\nclass = false", fillcolor="#e58139"] ;
273 -> 275 ;
276 [label="weight <= 43.088\ngini = 0.005\nsamples = 274\nvalue = [1, 441]\nclass = true", fillcolor="#399de5"] ;
270 -> 276 ;
277 [label="trombocyty <= 6.487\ngini = 0.018\nsamples = 66\nvalue = [1, 109]\nclass = true", fillcolor="#3b9ee5"] ;
276 -> 277 ;
278 [label="ast <= 62.516\ngini = 0.08\nsamples = 14\nvalue = [1, 23]\nclass = true", fillcolor="#42a1e6"] ;
277 -> 278 ;
279 [label="gini = 0.0\nsamples = 13\nvalue = [0, 23]\nclass = true", fillcolor="#399de5"] ;
278 -> 279 ;
280 [label="gini = 0.0\nsamples = 1\nvalue = [1, 0]\nclass = false", fillcolor="#e58139"] ;
278 -> 280 ;
281 [label="gini = 0.0\nsamples = 52\nvalue = [0, 86]\nclass = true", fillcolor="#399de5"] ;
277 -> 281 ;
282 [label="gini = 0.0\nsamples = 208\nvalue = [0, 332]\nclass = true", fillcolor="#399de5"] ;
276 -> 282 ;
283 [label="blood_group <= 6.5\ngini = 0.139\nsamples = 21\nvalue = [3, 37]\nclass = true", fillcolor="#49a5e7"] ;
269 -> 283 ;
284 [label="gini = 0.0\nsamples = 15\nvalue = [0, 26]\nclass = true", fillcolor="#399de5"] ;
283 -> 284 ;
285 [label="blood_group <= 7.5\ngini = 0.337\nsamples = 6\nvalue = [3, 11]\nclass = true", fillcolor="#6fb8ec"] ;
283 -> 285 ;
286 [label="age <= 98.0\ngini = 0.5\nsamples = 3\nvalue = [3, 3]\nclass = false", fillcolor="#ffffff"] ;
285 -> 286 ;
287 [label="gini = 0.0\nsamples = 1\nvalue = [0, 3]\nclass = true", fillcolor="#399de5"] ;
286 -> 287 ;
288 [label="gini = 0.0\nsamples = 2\nvalue = [3, 0]\nclass = false", fillcolor="#e58139"] ;
286 -> 288 ;
289 [label="gini = 0.0\nsamples = 3\nvalue = [0, 8]\nclass = true", fillcolor="#399de5"] ;
285 -> 289 ;
290 [label="etytr <= 9.253\ngini = 0.488\nsamples = 1981\nvalue = [1317, 1807]\nclass = true", fillcolor="#c9e4f8"] ;
156 -> 290 ;
291 [label="etytr <= 5.341\ngini = 0.493\nsamples = 1832\nvalue = [1273, 1627]\nclass = true", fillcolor="#d4eaf9"] ;
290 -> 291 ;
292 [label="hbver <= 9.076\ngini = 0.426\nsamples = 380\nvalue = [184, 415]\nclass = true", fillcolor="#91c8f1"] ;
291 -> 292 ;
293 [label="erytrocyty <= 6.394\ngini = 0.413\nsamples = 357\nvalue = [165, 401]\nclass = true", fillcolor="#8ac5f0"] ;
292 -> 293 ;
294 [label="trombocyty <= 7.573\ngini = 0.498\nsamples = 37\nvalue = [30, 34]\nclass = true", fillcolor="#e8f3fc"] ;
293 -> 294 ;
295 [label="hbver <= 8.169\ngini = 0.444\nsamples = 16\nvalue = [20, 10]\nclass = false", fillcolor="#f2c09c"] ;
294 -> 295 ;
296 [label="erytrocyty <= 5.811\ngini = 0.355\nsamples = 13\nvalue = [20, 6]\nclass = false", fillcolor="#eda774"] ;
295 -> 296 ;
297 [label="hbver <= 7.542\ngini = 0.278\nsamples = 4\nvalue = [1, 5]\nclass = true", fillcolor="#61b1ea"] ;
296 -> 297 ;
298 [label="gini = 0.0\nsamples = 2\nvalue = [0, 3]\nclass = true", fillcolor="#399de5"] ;
297 -> 298 ;
299 [label="race <= 1.5\ngini = 0.444\nsamples = 2\nvalue = [1, 2]\nclass = true", fillcolor="#9ccef2"] ;
297 -> 299 ;
300 [label="gini = 0.0\nsamples = 1\nvalue = [0, 2]\nclass = true", fillcolor="#399de5"] ;
299 -> 300 ;
301 [label="gini = 0.0\nsamples = 1\nvalue = [1, 0]\nclass = false", fillcolor="#e58139"] ;
299 -> 301 ;
302 [label="alt <= 2.049\ngini = 0.095\nsamples = 9\nvalue = [19, 1]\nclass = false", fillcolor="#e68843"] ;
296 -> 302 ;
303 [label="gini = 0.0\nsamples = 6\nvalue = [16, 0]\nclass = false", fillcolor="#e58139"] ;
302 -> 303 ;
304 [label="erytrocyty <= 6.095\ngini = 0.375\nsamples = 3\nvalue = [3, 1]\nclass = false", fillcolor="#eeab7b"] ;
302 -> 304 ;
305 [label="gini = 0.0\nsamples = 1\nvalue = [0, 1]\nclass = true", fillcolor="#399de5"] ;
304 -> 305 ;
306 [label="gini = 0.0\nsamples = 2\nvalue = [3, 0]\nclass = false", fillcolor="#e58139"] ;
304 -> 306 ;
307 [label="gini = 0.0\nsamples = 3\nvalue = [0, 4]\nclass = true", fillcolor="#399de5"] ;
295 -> 307 ;
308 [label="alt <= 1.6\ngini = 0.415\nsamples = 21\nvalue = [10, 24]\nclass = true", fillcolor="#8bc6f0"] ;
294 -> 308 ;
309 [label="gini = 0.0\nsamples = 6\nvalue = [0, 13]\nclass = true", fillcolor="#399de5"] ;
308 -> 309 ;
310 [label="hematokrit <= 7.634\ngini = 0.499\nsamples = 15\nvalue = [10, 11]\nclass = true", fillcolor="#edf6fd"] ;
308 -> 310 ;
311 [label="gini = 0.0\nsamples = 4\nvalue = [7, 0]\nclass = false", fillcolor="#e58139"] ;
310 -> 311 ;
312 [label="alt <= 1.904\ngini = 0.337\nsamples = 11\nvalue = [3, 11]\nclass = true", fillcolor="#6fb8ec"] ;
310 -> 312 ;
313 [label="relationship <= 4.0\ngini = 0.48\nsamples = 4\nvalue = [3, 2]\nclass = false", fillcolor="#f6d5bd"] ;
312 -> 313 ;
314 [label="gini = 0.0\nsamples = 2\nvalue = [0, 2]\nclass = true", fillcolor="#399de5"] ;
313 -> 314 ;
315 [label="gini = 0.0\nsamples = 2\nvalue = [3, 0]\nclass = false", fillcolor="#e58139"] ;
313 -> 315 ;
316 [label="gini = 0.0\nsamples = 7\nvalue = [0, 9]\nclass = true", fillcolor="#399de5"] ;
312 -> 316 ;
317 [label="hemoglobin <= 5.629\ngini = 0.393\nsamples = 320\nvalue = [135, 367]\nclass = true", fillcolor="#82c1ef"] ;
293 -> 317 ;
318 [label="leukocyty <= 8.03\ngini = 0.1\nsamples = 14\nvalue = [18, 1]\nclass = false", fillcolor="#e68844"] ;
317 -> 318 ;
319 [label="gini = 0.0\nsamples = 1\nvalue = [0, 1]\nclass = true", fillcolor="#399de5"] ;
318 -> 319 ;
320 [label="gini = 0.0\nsamples = 13\nvalue = [18, 0]\nclass = false", fillcolor="#e58139"] ;
318 -> 320 ;
321 [label="alp <= 83.817\ngini = 0.367\nsamples = 306\nvalue = [117, 366]\nclass = true", fillcolor="#78bced"] ;
317 -> 321 ;
322 [label="weight <= 39.209\ngini = 0.335\nsamples = 267\nvalue = [90, 333]\nclass = true", fillcolor="#6fb7ec"] ;
321 -> 322 ;
323 [label="relationship <= 4.5\ngini = 0.447\nsamples = 49\nvalue = [26, 51]\nclass = true", fillcolor="#9ecff2"] ;
322 -> 323 ;
324 [label="ast <= 30.228\ngini = 0.32\nsamples = 32\nvalue = [10, 40]\nclass = true", fillcolor="#6ab6ec"] ;
323 -> 324 ;
325 [label="gini = 0.0\nsamples = 2\nvalue = [2, 0]\nclass = false", fillcolor="#e58139"] ;
324 -> 325 ;
326 [label="alp <= 80.961\ngini = 0.278\nsamples = 30\nvalue = [8, 40]\nclass = true", fillcolor="#61b1ea"] ;
324 -> 326 ;
327 [label="blood_group <= 4.5\ngini = 0.227\nsamples = 29\nvalue = [6, 40]\nclass = true", fillcolor="#57ace9"] ;
326 -> 327 ;
328 [label="age <= 33.0\ngini = 0.363\nsamples = 14\nvalue = [5, 16]\nclass = true", fillcolor="#77bced"] ;
327 -> 328 ;
329 [label="hematokrit <= 9.73\ngini = 0.496\nsamples = 8\nvalue = [5, 6]\nclass = true", fillcolor="#deeffb"] ;
328 -> 329 ;
330 [label="gini = 0.0\nsamples = 6\nvalue = [0, 6]\nclass = true", fillcolor="#399de5"] ;
329 -> 330 ;
331 [label="gini = 0.0\nsamples = 2\nvalue = [5, 0]\nclass = false", fillcolor="#e58139"] ;
329 -> 331 ;
332 [label="gini = 0.0\nsamples = 6\nvalue = [0, 10]\nclass = true", fillcolor="#399de5"] ;
328 -> 332 ;
333 [label="race <= 3.0\ngini = 0.077\nsamples = 15\nvalue = [1, 24]\nclass = true", fillcolor="#41a1e6"] ;
327 -> 333 ;
334 [label="gini = 0.0\nsamples = 8\nvalue = [0, 17]\nclass = true", fillcolor="#399de5"] ;
333 -> 334 ;
335 [label="age <= 50.5\ngini = 0.219\nsamples = 7\nvalue = [1, 7]\nclass = true", fillcolor="#55abe9"] ;
333 -> 335 ;
336 [label="gini = 0.0\nsamples = 5\nvalue = [0, 6]\nclass = true", fillcolor="#399de5"] ;
335 -> 336 ;
337 [label="alt <= 3.554\ngini = 0.5\nsamples = 2\nvalue = [1, 1]\nclass = false", fillcolor="#ffffff"] ;
335 -> 337 ;
338 [label="gini = 0.0\nsamples = 1\nvalue = [0, 1]\nclass = true", fillcolor="#399de5"] ;
337 -> 338 ;
339 [label="gini = 0.0\nsamples = 1\nvalue = [1, 0]\nclass = false", fillcolor="#e58139"] ;
337 -> 339 ;
340 [label="gini = 0.0\nsamples = 1\nvalue = [2, 0]\nclass = false", fillcolor="#e58139"] ;
326 -> 340 ;
341 [label="weight <= 27.925\ngini = 0.483\nsamples = 17\nvalue = [16, 11]\nclass = false", fillcolor="#f7d8c1"] ;
323 -> 341 ;
342 [label="alp <= 74.574\ngini = 0.278\nsamples = 9\nvalue = [2, 10]\nclass = true", fillcolor="#61b1ea"] ;
341 -> 342 ;
343 [label="hbver <= 7.297\ngini = 0.165\nsamples = 8\nvalue = [1, 10]\nclass = true", fillcolor="#4da7e8"] ;
342 -> 343 ;
344 [label="hemoglobin <= 7.541\ngini = 0.444\nsamples = 2\nvalue = [1, 2]\nclass = true", fillcolor="#9ccef2"] ;
343 -> 344 ;
345 [label="gini = 0.0\nsamples = 1\nvalue = [0, 2]\nclass = true", fillcolor="#399de5"] ;
344 -> 345 ;
346 [label="gini = 0.0\nsamples = 1\nvalue = [1, 0]\nclass = false", fillcolor="#e58139"] ;
344 -> 346 ;
347 [label="gini = 0.0\nsamples = 6\nvalue = [0, 8]\nclass = true", fillcolor="#399de5"] ;
343 -> 347 ;
348 [label="gini = 0.0\nsamples = 1\nvalue = [1, 0]\nclass = false", fillcolor="#e58139"] ;
342 -> 348 ;
349 [label="etytr <= 5.212\ngini = 0.124\nsamples = 8\nvalue = [14, 1]\nclass = false", fillcolor="#e78a47"] ;
341 -> 349 ;
350 [label="gini = 0.0\nsamples = 7\nvalue = [14, 0]\nclass = false", fillcolor="#e58139"] ;
349 -> 350 ;
351 [label="gini = 0.0\nsamples = 1\nvalue = [0, 1]\nclass = true", fillcolor="#399de5"] ;
349 -> 351 ;
352 [label="hemoglobin <= 9.042\ngini = 0.302\nsamples = 218\nvalue = [64, 282]\nclass = true", fillcolor="#66b3eb"] ;
322 -> 352 ;
353 [label="hematokrit <= 9.319\ngini = 0.327\nsamples = 195\nvalue = [64, 247]\nclass = true", fillcolor="#6cb6ec"] ;
352 -> 353 ;
354 [label="erytrocyty <= 8.472\ngini = 0.201\nsamples = 113\nvalue = [21, 164]\nclass = true", fillcolor="#52aae8"] ;
353 -> 354 ;
355 [label="trombocyty <= 6.142\ngini = 0.15\nsamples = 95\nvalue = [13, 146]\nclass = true", fillcolor="#4ba6e7"] ;
354 -> 355 ;
356 [label="blood_group <= 7.5\ngini = 0.375\nsamples = 2\nvalue = [3, 1]\nclass = false", fillcolor="#eeab7b"] ;
355 -> 356 ;
357 [label="gini = 0.0\nsamples = 1\nvalue = [3, 0]\nclass = false", fillcolor="#e58139"] ;
356 -> 357 ;
358 [label="gini = 0.0\nsamples = 1\nvalue = [0, 1]\nclass = true", fillcolor="#399de5"] ;
356 -> 358 ;
359 [label="ast <= 20.554\ngini = 0.121\nsamples = 93\nvalue = [10, 145]\nclass = true", fillcolor="#47a4e7"] ;
355 -> 359 ;
360 [label="relationship <= 3.5\ngini = 0.444\nsamples = 2\nvalue = [2, 1]\nclass = false", fillcolor="#f2c09c"] ;
359 -> 360 ;
361 [label="gini = 0.0\nsamples = 1\nvalue = [0, 1]\nclass = true", fillcolor="#399de5"] ;
360 -> 361 ;
362 [label="gini = 0.0\nsamples = 1\nvalue = [2, 0]\nclass = false", fillcolor="#e58139"] ;
360 -> 362 ;
363 [label="er-cv <= 62.071\ngini = 0.1\nsamples = 91\nvalue = [8, 144]\nclass = true", fillcolor="#44a2e6"] ;
359 -> 363 ;
364 [label="leukocyty <= 9.67\ngini = 0.019\nsamples = 62\nvalue = [1, 103]\nclass = true", fillcolor="#3b9ee5"] ;
363 -> 364 ;
365 [label="gini = 0.0\nsamples = 49\nvalue = [0, 86]\nclass = true", fillcolor="#399de5"] ;
364 -> 365 ;
366 [label="erytrocyty <= 6.854\ngini = 0.105\nsamples = 13\nvalue = [1, 17]\nclass = true", fillcolor="#45a3e7"] ;
364 -> 366 ;
367 [label="hemoglobin <= 7.724\ngini = 0.375\nsamples = 2\nvalue = [1, 3]\nclass = true", fillcolor="#7bbeee"] ;
366 -> 367 ;
368 [label="gini = 0.0\nsamples = 1\nvalue = [0, 3]\nclass = true", fillcolor="#399de5"] ;
367 -> 368 ;
369 [label="gini = 0.0\nsamples = 1\nvalue = [1, 0]\nclass = false", fillcolor="#e58139"] ;
367 -> 369 ;
370 [label="gini = 0.0\nsamples = 11\nvalue = [0, 14]\nclass = true", fillcolor="#399de5"] ;
366 -> 370 ;
371 [label="er-cv <= 63.721\ngini = 0.249\nsamples = 29\nvalue = [7, 41]\nclass = true", fillcolor="#5baee9"] ;
363 -> 371 ;
372 [label="blood_group <= 5.0\ngini = 0.32\nsamples = 3\nvalue = [4, 1]\nclass = false", fillcolor="#eca06a"] ;
371 -> 372 ;
373 [label="gini = 0.0\nsamples = 1\nvalue = [0, 1]\nclass = true", fillcolor="#399de5"] ;
372 -> 373 ;
374 [label="gini = 0.0\nsamples = 2\nvalue = [4, 0]\nclass = false", fillcolor="#e58139"] ;
372 -> 374 ;
375 [label="smoker <= 0.5\ngini = 0.13\nsamples = 26\nvalue = [3, 40]\nclass = true", fillcolor="#48a4e7"] ;
371 -> 375 ;
376 [label="gini = 0.0\nsamples = 20\nvalue = [0, 30]\nclass = true", fillcolor="#399de5"] ;
375 -> 376 ;
377 [label="leukocyty <= 8.678\ngini = 0.355\nsamples = 6\nvalue = [3, 10]\nclass = true", fillcolor="#74baed"] ;
375 -> 377 ;
378 [label="gini = 0.0\nsamples = 4\nvalue = [0, 9]\nclass = true", fillcolor="#399de5"] ;
377 -> 378 ;
379 [label="er-cv <= 73.016\ngini = 0.375\nsamples = 2\nvalue = [3, 1]\nclass = false", fillcolor="#eeab7b"] ;
377 -> 379 ;
380 [label="gini = 0.0\nsamples = 1\nvalue = [0, 1]\nclass = true", fillcolor="#399de5"] ;
379 -> 380 ;
381 [label="gini = 0.0\nsamples = 1\nvalue = [3, 0]\nclass = false", fillcolor="#e58139"] ;
379 -> 381 ;
382 [label="hemoglobin <= 8.264\ngini = 0.426\nsamples = 18\nvalue = [8, 18]\nclass = true", fillcolor="#91c9f1"] ;
354 -> 382 ;
383 [label="hbver <= 7.422\ngini = 0.219\nsamples = 12\nvalue = [2, 14]\nclass = true", fillcolor="#55abe9"] ;
382 -> 383 ;
384 [label="gini = 0.0\nsamples = 6\nvalue = [0, 9]\nclass = true", fillcolor="#399de5"] ;
383 -> 384 ;
385 [label="age <= 83.0\ngini = 0.408\nsamples = 6\nvalue = [2, 5]\nclass = true", fillcolor="#88c4ef"] ;
383 -> 385 ;
386 [label="gini = 0.0\nsamples = 4\nvalue = [0, 5]\nclass = true", fillcolor="#399de5"] ;
385 -> 386 ;
387 [label="gini = 0.0\nsamples = 2\nvalue = [2, 0]\nclass = false", fillcolor="#e58139"] ;
385 -> 387 ;
388 [label="ast <= 50.068\ngini = 0.48\nsamples = 6\nvalue = [6, 4]\nclass = false", fillcolor="#f6d5bd"] ;
382 -> 388 ;
389 [label="trombocyty <= 7.411\ngini = 0.32\nsamples = 3\nvalue = [1, 4]\nclass = true", fillcolor="#6ab6ec"] ;
388 -> 389 ;
390 [label="gini = 0.0\nsamples = 1\nvalue = [1, 0]\nclass = false", fillcolor="#e58139"] ;
389 -> 390 ;
391 [label="gini = 0.0\nsamples = 2\nvalue = [0, 4]\nclass = true", fillcolor="#399de5"] ;
389 -> 391 ;
392 [label="gini = 0.0\nsamples = 3\nvalue = [5, 0]\nclass = false", fillcolor="#e58139"] ;
388 -> 392 ;
393 [label="weight <= 81.8\ngini = 0.45\nsamples = 82\nvalue = [43, 83]\nclass = true", fillcolor="#a0d0f2"] ;
353 -> 393 ;
394 [label="hemoglobin <= 7.245\ngini = 0.353\nsamples = 44\nvalue = [16, 54]\nclass = true", fillcolor="#74baed"] ;
393 -> 394 ;
395 [label="gini = 0.0\nsamples = 13\nvalue = [0, 23]\nclass = true", fillcolor="#399de5"] ;
394 -> 395 ;
396 [label="alt <= 2.906\ngini = 0.449\nsamples = 31\nvalue = [16, 31]\nclass = true", fillcolor="#9fd0f2"] ;
394 -> 396 ;
397 [label="trombocyty <= 8.852\ngini = 0.219\nsamples = 6\nvalue = [7, 1]\nclass = false", fillcolor="#e99355"] ;
396 -> 397 ;
398 [label="gini = 0.0\nsamples = 5\nvalue = [7, 0]\nclass = false", fillcolor="#e58139"] ;
397 -> 398 ;
399 [label="gini = 0.0\nsamples = 1\nvalue = [0, 1]\nclass = true", fillcolor="#399de5"] ;
397 -> 399 ;
400 [label="leukocyty <= 8.424\ngini = 0.355\nsamples = 25\nvalue = [9, 30]\nclass = true", fillcolor="#74baed"] ;
396 -> 400 ;
401 [label="gini = 0.0\nsamples = 4\nvalue = [6, 0]\nclass = false", fillcolor="#e58139"] ;
400 -> 401 ;
402 [label="trombocyty <= 6.439\ngini = 0.165\nsamples = 21\nvalue = [3, 30]\nclass = true", fillcolor="#4da7e8"] ;
400 -> 402 ;
403 [label="etytr <= 4.877\ngini = 0.444\nsamples = 5\nvalue = [2, 4]\nclass = true", fillcolor="#9ccef2"] ;
402 -> 403 ;
404 [label="gini = 0.0\nsamples = 3\nvalue = [0, 4]\nclass = true", fillcolor="#399de5"] ;
403 -> 404 ;
405 [label="gini = 0.0\nsamples = 2\nvalue = [2, 0]\nclass = false", fillcolor="#e58139"] ;
403 -> 405 ;
406 [label="hematokrit <= 9.419\ngini = 0.071\nsamples = 16\nvalue = [1, 26]\nclass = true", fillcolor="#41a1e6"] ;
402 -> 406 ;
407 [label="gini = 0.0\nsamples = 1\nvalue = [1, 0]\nclass = false", fillcolor="#e58139"] ;
406 -> 407 ;
408 [label="gini = 0.0\nsamples = 15\nvalue = [0, 26]\nclass = true", fillcolor="#399de5"] ;
406 -> 408 ;
409 [label="leukocyty <= 9.433\ngini = 0.499\nsamples = 38\nvalue = [27, 29]\nclass = true", fillcolor="#f1f8fd"] ;
393 -> 409 ;
410 [label="trombocyty <= 7.157\ngini = 0.375\nsamples = 23\nvalue = [27, 9]\nclass = false", fillcolor="#eeab7b"] ;
409 -> 410 ;
411 [label="blood_group <= 2.5\ngini = 0.49\nsamples = 8\nvalue = [6, 8]\nclass = true", fillcolor="#cee6f8"] ;
410 -> 411 ;
412 [label="gini = 0.0\nsamples = 3\nvalue = [0, 6]\nclass = true", fillcolor="#399de5"] ;
411 -> 412 ;
413 [label="leukocyty <= 8.551\ngini = 0.375\nsamples = 5\nvalue = [6, 2]\nclass = false", fillcolor="#eeab7b"] ;
411 -> 413 ;
414 [label="gini = 0.0\nsamples = 3\nvalue = [6, 0]\nclass = false", fillcolor="#e58139"] ;
413 -> 414 ;
415 [label="gini = 0.0\nsamples = 2\nvalue = [0, 2]\nclass = true", fillcolor="#399de5"] ;
413 -> 415 ;
416 [label="trombocyty <= 9.434\ngini = 0.087\nsamples = 15\nvalue = [21, 1]\nclass = false", fillcolor="#e68742"] ;
410 -> 416 ;
417 [label="gini = 0.0\nsamples = 11\nvalue = [16, 0]\nclass = false", fillcolor="#e58139"] ;
416 -> 417 ;
418 [label="er-cv <= 54.911\ngini = 0.278\nsamples = 4\nvalue = [5, 1]\nclass = false", fillcolor="#ea9a61"] ;
416 -> 418 ;
419 [label="gini = 0.0\nsamples = 2\nvalue = [4, 0]\nclass = false", fillcolor="#e58139"] ;
418 -> 419 ;
420 [label="hbver <= 7.495\ngini = 0.5\nsamples = 2\nvalue = [1, 1]\nclass = false", fillcolor="#ffffff"] ;
418 -> 420 ;
421 [label="gini = 0.0\nsamples = 1\nvalue = [0, 1]\nclass = true", fillcolor="#399de5"] ;
420 -> 421 ;
422 [label="gini = 0.0\nsamples = 1\nvalue = [1, 0]\nclass = false", fillcolor="#e58139"] ;
420 -> 422 ;
423 [label="gini = 0.0\nsamples = 15\nvalue = [0, 20]\nclass = true", fillcolor="#399de5"] ;
409 -> 423 ;
424 [label="gini = 0.0\nsamples = 23\nvalue = [0, 35]\nclass = true", fillcolor="#399de5"] ;
352 -> 424 ;
425 [label="hematokrit <= 11.008\ngini = 0.495\nsamples = 39\nvalue = [27, 33]\nclass = true", fillcolor="#dbedfa"] ;
321 -> 425 ;
426 [label="hemoglobin <= 6.213\ngini = 0.327\nsamples = 27\nvalue = [7, 27]\nclass = true", fillcolor="#6cb6ec"] ;
425 -> 426 ;
427 [label="ast <= 33.489\ngini = 0.5\nsamples = 10\nvalue = [6, 6]\nclass = false", fillcolor="#ffffff"] ;
426 -> 427 ;
428 [label="gini = 0.0\nsamples = 1\nvalue = [3, 0]\nclass = false", fillcolor="#e58139"] ;
427 -> 428 ;
429 [label="hemoglobin <= 6.164\ngini = 0.444\nsamples = 9\nvalue = [3, 6]\nclass = true", fillcolor="#9ccef2"] ;
427 -> 429 ;
430 [label="er-cv <= 57.895\ngini = 0.245\nsamples = 7\nvalue = [1, 6]\nclass = true", fillcolor="#5aade9"] ;
429 -> 430 ;
431 [label="gini = 0.0\nsamples = 6\nvalue = [0, 6]\nclass = true", fillcolor="#399de5"] ;
430 -> 431 ;
432 [label="gini = 0.0\nsamples = 1\nvalue = [1, 0]\nclass = false", fillcolor="#e58139"] ;
430 -> 432 ;
433 [label="gini = 0.0\nsamples = 2\nvalue = [2, 0]\nclass = false", fillcolor="#e58139"] ;
429 -> 433 ;
434 [label="ast <= 73.334\ngini = 0.087\nsamples = 17\nvalue = [1, 21]\nclass = true", fillcolor="#42a2e6"] ;
426 -> 434 ;
435 [label="gini = 0.0\nsamples = 16\nvalue = [0, 21]\nclass = true", fillcolor="#399de5"] ;
434 -> 435 ;
436 [label="gini = 0.0\nsamples = 1\nvalue = [1, 0]\nclass = false", fillcolor="#e58139"] ;
434 -> 436 ;
437 [label="weight <= 38.491\ngini = 0.355\nsamples = 12\nvalue = [20, 6]\nclass = false", fillcolor="#eda774"] ;
425 -> 437 ;
438 [label="alt <= 4.68\ngini = 0.469\nsamples = 3\nvalue = [3, 5]\nclass = true", fillcolor="#b0d8f5"] ;
437 -> 438 ;
439 [label="gini = 0.0\nsamples = 1\nvalue = [3, 0]\nclass = false", fillcolor="#e58139"] ;
438 -> 439 ;
440 [label="gini = 0.0\nsamples = 2\nvalue = [0, 5]\nclass = true", fillcolor="#399de5"] ;
438 -> 440 ;
441 [label="hbver <= 8.467\ngini = 0.105\nsamples = 9\nvalue = [17, 1]\nclass = false", fillcolor="#e78845"] ;
437 -> 441 ;
442 [label="gini = 0.0\nsamples = 8\nvalue = [17, 0]\nclass = false", fillcolor="#e58139"] ;
441 -> 442 ;
443 [label="gini = 0.0\nsamples = 1\nvalue = [0, 1]\nclass = true", fillcolor="#399de5"] ;
441 -> 443 ;
444 [label="alt <= 7.542\ngini = 0.489\nsamples = 23\nvalue = [19, 14]\nclass = false", fillcolor="#f8decb"] ;
292 -> 444 ;
445 [label="erytrocyty <= 7.629\ngini = 0.426\nsamples = 18\nvalue = [18, 8]\nclass = false", fillcolor="#f1b991"] ;
444 -> 445 ;
446 [label="er-cv <= 54.814\ngini = 0.408\nsamples = 7\nvalue = [2, 5]\nclass = true", fillcolor="#88c4ef"] ;
445 -> 446 ;
447 [label="gini = 0.0\nsamples = 4\nvalue = [0, 4]\nclass = true", fillcolor="#399de5"] ;
446 -> 447 ;
448 [label="leukocyty <= 9.461\ngini = 0.444\nsamples = 3\nvalue = [2, 1]\nclass = false", fillcolor="#f2c09c"] ;
446 -> 448 ;
449 [label="gini = 0.0\nsamples = 2\nvalue = [2, 0]\nclass = false", fillcolor="#e58139"] ;
448 -> 449 ;
450 [label="gini = 0.0\nsamples = 1\nvalue = [0, 1]\nclass = true", fillcolor="#399de5"] ;
448 -> 450 ;
451 [label="state <= 47.5\ngini = 0.266\nsamples = 11\nvalue = [16, 3]\nclass = false", fillcolor="#ea995e"] ;
445 -> 451 ;
452 [label="gini = 0.0\nsamples = 7\nvalue = [10, 0]\nclass = false", fillcolor="#e58139"] ;
451 -> 452 ;
453 [label="sex_F <= 0.5\ngini = 0.444\nsamples = 4\nvalue = [6, 3]\nclass = false", fillcolor="#f2c09c"] ;
451 -> 453 ;
454 [label="gini = 0.0\nsamples = 1\nvalue = [3, 0]\nclass = false", fillcolor="#e58139"] ;
453 -> 454 ;
455 [label="er-cv <= 45.616\ngini = 0.5\nsamples = 3\nvalue = [3, 3]\nclass = false", fillcolor="#ffffff"] ;
453 -> 455 ;
456 [label="gini = 0.0\nsamples = 1\nvalue = [3, 0]\nclass = false", fillcolor="#e58139"] ;
455 -> 456 ;
457 [label="gini = 0.0\nsamples = 2\nvalue = [0, 3]\nclass = true", fillcolor="#399de5"] ;
455 -> 457 ;
458 [label="sex_F <= 0.5\ngini = 0.245\nsamples = 5\nvalue = [1, 6]\nclass = true", fillcolor="#5aade9"] ;
444 -> 458 ;
459 [label="gini = 0.0\nsamples = 1\nvalue = [1, 0]\nclass = false", fillcolor="#e58139"] ;
458 -> 459 ;
460 [label="gini = 0.0\nsamples = 4\nvalue = [0, 6]\nclass = true", fillcolor="#399de5"] ;
458 -> 460 ;
461 [label="hbver <= 5.821\ngini = 0.499\nsamples = 1452\nvalue = [1089, 1212]\nclass = true", fillcolor="#ebf5fc"] ;
291 -> 461 ;
462 [label="hbver <= 5.428\ngini = 0.344\nsamples = 62\nvalue = [23, 81]\nclass = true", fillcolor="#71b9ec"] ;
461 -> 462 ;
463 [label="blood_group <= 6.5\ngini = 0.493\nsamples = 23\nvalue = [15, 19]\nclass = true", fillcolor="#d5eafa"] ;
462 -> 463 ;
464 [label="hemoglobin <= 6.983\ngini = 0.375\nsamples = 16\nvalue = [6, 18]\nclass = true", fillcolor="#7bbeee"] ;
463 -> 464 ;
465 [label="gini = 0.0\nsamples = 12\nvalue = [0, 18]\nclass = true", fillcolor="#399de5"] ;
464 -> 465 ;
466 [label="gini = 0.0\nsamples = 4\nvalue = [6, 0]\nclass = false", fillcolor="#e58139"] ;
464 -> 466 ;
467 [label="weight <= 33.916\ngini = 0.18\nsamples = 7\nvalue = [9, 1]\nclass = false", fillcolor="#e88f4f"] ;
463 -> 467 ;
468 [label="gini = 0.0\nsamples = 1\nvalue = [0, 1]\nclass = true", fillcolor="#399de5"] ;
467 -> 468 ;
469 [label="gini = 0.0\nsamples = 6\nvalue = [9, 0]\nclass = false", fillcolor="#e58139"] ;
467 -> 469 ;
470 [label="etytr <= 5.481\ngini = 0.202\nsamples = 39\nvalue = [8, 62]\nclass = true", fillcolor="#53aae8"] ;
462 -> 470 ;
471 [label="race <= 2.5\ngini = 0.444\nsamples = 3\nvalue = [4, 2]\nclass = false", fillcolor="#f2c09c"] ;
470 -> 471 ;
472 [label="gini = 0.0\nsamples = 1\nvalue = [0, 2]\nclass = true", fillcolor="#399de5"] ;
471 -> 472 ;
473 [label="gini = 0.0\nsamples = 2\nvalue = [4, 0]\nclass = false", fillcolor="#e58139"] ;
471 -> 473 ;
474 [label="hemoglobin <= 9.135\ngini = 0.117\nsamples = 36\nvalue = [4, 60]\nclass = true", fillcolor="#46a4e7"] ;
470 -> 474 ;
475 [label="hematokrit <= 7.115\ngini = 0.062\nsamples = 34\nvalue = [2, 60]\nclass = true", fillcolor="#40a0e6"] ;
474 -> 475 ;
476 [label="gini = 0.0\nsamples = 1\nvalue = [1, 0]\nclass = false", fillcolor="#e58139"] ;
475 -> 476 ;
477 [label="ast <= 29.262\ngini = 0.032\nsamples = 33\nvalue = [1, 60]\nclass = true", fillcolor="#3c9fe5"] ;
475 -> 477 ;
478 [label="alt <= 4.743\ngini = 0.278\nsamples = 5\nvalue = [1, 5]\nclass = true", fillcolor="#61b1ea"] ;
477 -> 478 ;
479 [label="hemoglobin <= 7.061\ngini = 0.5\nsamples = 2\nvalue = [1, 1]\nclass = false", fillcolor="#ffffff"] ;
478 -> 479 ;
480 [label="gini = 0.0\nsamples = 1\nvalue = [0, 1]\nclass = true", fillcolor="#399de5"] ;
479 -> 480 ;
481 [label="gini = 0.0\nsamples = 1\nvalue = [1, 0]\nclass = false", fillcolor="#e58139"] ;
479 -> 481 ;
482 [label="gini = 0.0\nsamples = 3\nvalue = [0, 4]\nclass = true", fillcolor="#399de5"] ;
478 -> 482 ;
483 [label="gini = 0.0\nsamples = 28\nvalue = [0, 55]\nclass = true", fillcolor="#399de5"] ;
477 -> 483 ;
484 [label="gini = 0.0\nsamples = 2\nvalue = [2, 0]\nclass = false", fillcolor="#e58139"] ;
474 -> 484 ;
485 [label="leukocyty <= 9.851\ngini = 0.5\nsamples = 1390\nvalue = [1066, 1131]\nclass = true", fillcolor="#f4f9fe"] ;
461 -> 485 ;
486 [label="weight <= 119.286\ngini = 0.499\nsamples = 1197\nvalue = [982, 900]\nclass = false", fillcolor="#fdf4ee"] ;
485 -> 486 ;
487 [label="alp <= 43.728\ngini = 0.497\nsamples = 1086\nvalue = [916, 785]\nclass = false", fillcolor="#fbede3"] ;
486 -> 487 ;
488 [label="etytr <= 8.13\ngini = 0.258\nsamples = 420\nvalue = [556, 100]\nclass = false", fillcolor="#ea985d"] ;
487 -> 488 ;
489 [label="ast <= 72.775\ngini = 0.186\nsamples = 362\nvalue = [510, 59]\nclass = false", fillcolor="#e89050"] ;
488 -> 489 ;
490 [label="etytr <= 7.607\ngini = 0.179\nsamples = 358\nvalue = [507, 56]\nclass = false", fillcolor="#e88f4f"] ;
489 -> 490 ;
491 [label="etytr <= 5.373\ngini = 0.148\nsamples = 313\nvalue = [447, 39]\nclass = false", fillcolor="#e78c4a"] ;
490 -> 491 ;
492 [label="ast <= 51.039\ngini = 0.444\nsamples = 2\nvalue = [1, 2]\nclass = true", fillcolor="#9ccef2"] ;
491 -> 492 ;
493 [label="gini = 0.0\nsamples = 1\nvalue = [1, 0]\nclass = false", fillcolor="#e58139"] ;
492 -> 493 ;
494 [label="gini = 0.0\nsamples = 1\nvalue = [0, 2]\nclass = true", fillcolor="#399de5"] ;
492 -> 494 ;
495 [label="leukocyty <= 9.353\ngini = 0.141\nsamples = 311\nvalue = [446, 37]\nclass = false", fillcolor="#e78b49"] ;
491 -> 495 ;
496 [label="alp <= 32.419\ngini = 0.108\nsamples = 260\nvalue = [378, 23]\nclass = false", fillcolor="#e78945"] ;
495 -> 496 ;
497 [label="hemoglobin <= 5.864\ngini = 0.048\nsamples = 210\nvalue = [319, 8]\nclass = false", fillcolor="#e6843e"] ;
496 -> 497 ;
498 [label="gini = 0.0\nsamples = 1\nvalue = [0, 2]\nclass = true", fillcolor="#399de5"] ;
497 -> 498 ;
499 [label="hematokrit <= 7.365\ngini = 0.036\nsamples = 209\nvalue = [319, 6]\nclass = false", fillcolor="#e5833d"] ;
497 -> 499 ;
500 [label="etytr <= 5.771\ngini = 0.224\nsamples = 28\nvalue = [34, 5]\nclass = false", fillcolor="#e99456"] ;
499 -> 500 ;
501 [label="gini = 0.0\nsamples = 1\nvalue = [0, 2]\nclass = true", fillcolor="#399de5"] ;
500 -> 501 ;
502 [label="er-cv <= 39.646\ngini = 0.149\nsamples = 27\nvalue = [34, 3]\nclass = false", fillcolor="#e78c4a"] ;
500 -> 502 ;
503 [label="hemoglobin <= 9.904\ngini = 0.408\nsamples = 5\nvalue = [5, 2]\nclass = false", fillcolor="#efb388"] ;
502 -> 503 ;
504 [label="ast <= 53.665\ngini = 0.444\nsamples = 2\nvalue = [1, 2]\nclass = true", fillcolor="#9ccef2"] ;
503 -> 504 ;
505 [label="gini = 0.0\nsamples = 1\nvalue = [1, 0]\nclass = false", fillcolor="#e58139"] ;
504 -> 505 ;
506 [label="gini = 0.0\nsamples = 1\nvalue = [0, 2]\nclass = true", fillcolor="#399de5"] ;
504 -> 506 ;
507 [label="gini = 0.0\nsamples = 3\nvalue = [4, 0]\nclass = false", fillcolor="#e58139"] ;
503 -> 507 ;
508 [label="hbver <= 8.433\ngini = 0.064\nsamples = 22\nvalue = [29, 1]\nclass = false", fillcolor="#e68540"] ;
502 -> 508 ;
509 [label="gini = 0.0\nsamples = 18\nvalue = [26, 0]\nclass = false", fillcolor="#e58139"] ;
508 -> 509 ;
510 [label="hbver <= 8.658\ngini = 0.375\nsamples = 4\nvalue = [3, 1]\nclass = false", fillcolor="#eeab7b"] ;
508 -> 510 ;
511 [label="gini = 0.0\nsamples = 1\nvalue = [0, 1]\nclass = true", fillcolor="#399de5"] ;
510 -> 511 ;
512 [label="gini = 0.0\nsamples = 3\nvalue = [3, 0]\nclass = false", fillcolor="#e58139"] ;
510 -> 512 ;
513 [label="state <= 14.5\ngini = 0.007\nsamples = 181\nvalue = [285, 1]\nclass = false", fillcolor="#e5813a"] ;
499 -> 513 ;
514 [label="blood_group <= 6.5\ngini = 0.029\nsamples = 44\nvalue = [68, 1]\nclass = false", fillcolor="#e5833c"] ;
513 -> 514 ;
515 [label="gini = 0.0\nsamples = 32\nvalue = [54, 0]\nclass = false", fillcolor="#e58139"] ;
514 -> 515 ;
516 [label="trombocyty <= 6.774\ngini = 0.124\nsamples = 12\nvalue = [14, 1]\nclass = false", fillcolor="#e78a47"] ;
514 -> 516 ;
517 [label="state <= 13.0\ngini = 0.32\nsamples = 4\nvalue = [4, 1]\nclass = false", fillcolor="#eca06a"] ;
516 -> 517 ;
518 [label="gini = 0.0\nsamples = 3\nvalue = [4, 0]\nclass = false", fillcolor="#e58139"] ;
517 -> 518 ;
519 [label="gini = 0.0\nsamples = 1\nvalue = [0, 1]\nclass = true", fillcolor="#399de5"] ;
517 -> 519 ;
520 [label="gini = 0.0\nsamples = 8\nvalue = [10, 0]\nclass = false", fillcolor="#e58139"] ;
516 -> 520 ;
521 [label="gini = 0.0\nsamples = 137\nvalue = [217, 0]\nclass = false", fillcolor="#e58139"] ;
513 -> 521 ;
522 [label="er-cv <= 45.748\ngini = 0.323\nsamples = 50\nvalue = [59, 15]\nclass = false", fillcolor="#eca16b"] ;
496 -> 522 ;
523 [label="hematokrit <= 9.31\ngini = 0.485\nsamples = 20\nvalue = [17, 12]\nclass = false", fillcolor="#f7dac5"] ;
522 -> 523 ;
524 [label="etytr <= 6.268\ngini = 0.426\nsamples = 8\nvalue = [4, 9]\nclass = true", fillcolor="#91c9f1"] ;
523 -> 524 ;
525 [label="gini = 0.0\nsamples = 3\nvalue = [0, 7]\nclass = true", fillcolor="#399de5"] ;
524 -> 525 ;
526 [label="smoker <= 0.5\ngini = 0.444\nsamples = 5\nvalue = [4, 2]\nclass = false", fillcolor="#f2c09c"] ;
524 -> 526 ;
527 [label="gini = 0.0\nsamples = 2\nvalue = [3, 0]\nclass = false", fillcolor="#e58139"] ;
526 -> 527 ;
528 [label="alp <= 36.544\ngini = 0.444\nsamples = 3\nvalue = [1, 2]\nclass = true", fillcolor="#9ccef2"] ;
526 -> 528 ;
529 [label="gini = 0.0\nsamples = 1\nvalue = [0, 1]\nclass = true", fillcolor="#399de5"] ;
528 -> 529 ;
530 [label="alp <= 38.276\ngini = 0.5\nsamples = 2\nvalue = [1, 1]\nclass = false", fillcolor="#ffffff"] ;
528 -> 530 ;
531 [label="gini = 0.0\nsamples = 1\nvalue = [1, 0]\nclass = false", fillcolor="#e58139"] ;
530 -> 531 ;
532 [label="gini = 0.0\nsamples = 1\nvalue = [0, 1]\nclass = true", fillcolor="#399de5"] ;
530 -> 532 ;
533 [label="race <= 4.5\ngini = 0.305\nsamples = 12\nvalue = [13, 3]\nclass = false", fillcolor="#eb9e67"] ;
523 -> 533 ;
534 [label="etytr <= 7.01\ngini = 0.231\nsamples = 11\nvalue = [13, 2]\nclass = false", fillcolor="#e99457"] ;
533 -> 534 ;
535 [label="gini = 0.0\nsamples = 9\nvalue = [12, 0]\nclass = false", fillcolor="#e58139"] ;
534 -> 535 ;
536 [label="age <= 103.0\ngini = 0.444\nsamples = 2\nvalue = [1, 2]\nclass = true", fillcolor="#9ccef2"] ;
534 -> 536 ;
537 [label="gini = 0.0\nsamples = 1\nvalue = [0, 2]\nclass = true", fillcolor="#399de5"] ;
536 -> 537 ;
538 [label="gini = 0.0\nsamples = 1\nvalue = [1, 0]\nclass = false", fillcolor="#e58139"] ;
536 -> 538 ;
539 [label="gini = 0.0\nsamples = 1\nvalue = [0, 1]\nclass = true", fillcolor="#399de5"] ;
533 -> 539 ;
540 [label="hemoglobin <= 8.351\ngini = 0.124\nsamples = 30\nvalue = [42, 3]\nclass = false", fillcolor="#e78a47"] ;
522 -> 540 ;
541 [label="etytr <= 5.539\ngini = 0.05\nsamples = 26\nvalue = [38, 1]\nclass = false", fillcolor="#e6843e"] ;
540 -> 541 ;
542 [label="alt <= 2.408\ngini = 0.32\nsamples = 3\nvalue = [4, 1]\nclass = false", fillcolor="#eca06a"] ;
541 -> 542 ;
543 [label="gini = 0.0\nsamples = 1\nvalue = [0, 1]\nclass = true", fillcolor="#399de5"] ;
542 -> 543 ;
544 [label="gini = 0.0\nsamples = 2\nvalue = [4, 0]\nclass = false", fillcolor="#e58139"] ;
542 -> 544 ;
545 [label="gini = 0.0\nsamples = 23\nvalue = [34, 0]\nclass = false", fillcolor="#e58139"] ;
541 -> 545 ;
546 [label="alp <= 32.83\ngini = 0.444\nsamples = 4\nvalue = [4, 2]\nclass = false", fillcolor="#f2c09c"] ;
540 -> 546 ;
547 [label="gini = 0.0\nsamples = 1\nvalue = [0, 2]\nclass = true", fillcolor="#399de5"] ;
546 -> 547 ;
548 [label="gini = 0.0\nsamples = 3\nvalue = [4, 0]\nclass = false", fillcolor="#e58139"] ;
546 -> 548 ;
549 [label="hematokrit <= 7.84\ngini = 0.283\nsamples = 51\nvalue = [68, 14]\nclass = false", fillcolor="#ea9b62"] ;
495 -> 549 ;
550 [label="gini = 0.0\nsamples = 1\nvalue = [0, 2]\nclass = true", fillcolor="#399de5"] ;
549 -> 550 ;
551 [label="leukocyty <= 9.361\ngini = 0.255\nsamples = 50\nvalue = [68, 12]\nclass = false", fillcolor="#ea975c"] ;
549 -> 551 ;
552 [label="gini = 0.0\nsamples = 2\nvalue = [0, 4]\nclass = true", fillcolor="#399de5"] ;
551 -> 552 ;
553 [label="hemoglobin <= 6.254\ngini = 0.188\nsamples = 48\nvalue = [68, 8]\nclass = false", fillcolor="#e89050"] ;
551 -> 553 ;
554 [label="gini = 0.0\nsamples = 4\nvalue = [0, 6]\nclass = true", fillcolor="#399de5"] ;
553 -> 554 ;
555 [label="race <= 1.5\ngini = 0.056\nsamples = 44\nvalue = [68, 2]\nclass = false", fillcolor="#e6853f"] ;
553 -> 555 ;
556 [label="alt <= 4.658\ngini = 0.124\nsamples = 19\nvalue = [28, 2]\nclass = false", fillcolor="#e78a47"] ;
555 -> 556 ;
557 [label="gini = 0.0\nsamples = 11\nvalue = [19, 0]\nclass = false", fillcolor="#e58139"] ;
556 -> 557 ;
558 [label="alt <= 4.772\ngini = 0.298\nsamples = 8\nvalue = [9, 2]\nclass = false", fillcolor="#eb9d65"] ;
556 -> 558 ;
559 [label="gini = 0.0\nsamples = 1\nvalue = [0, 1]\nclass = true", fillcolor="#399de5"] ;
558 -> 559 ;
560 [label="weight <= 49.115\ngini = 0.18\nsamples = 7\nvalue = [9, 1]\nclass = false", fillcolor="#e88f4f"] ;
558 -> 560 ;
561 [label="gini = 0.0\nsamples = 1\nvalue = [0, 1]\nclass = true", fillcolor="#399de5"] ;
560 -> 561 ;
562 [label="gini = 0.0\nsamples = 6\nvalue = [9, 0]\nclass = false", fillcolor="#e58139"] ;
560 -> 562 ;
563 [label="gini = 0.0\nsamples = 25\nvalue = [40, 0]\nclass = false", fillcolor="#e58139"] ;
555 -> 563 ;
564 [label="age <= 10.0\ngini = 0.344\nsamples = 45\nvalue = [60, 17]\nclass = false", fillcolor="#eca571"] ;
490 -> 564 ;
565 [label="ast <= 35.331\ngini = 0.5\nsamples = 7\nvalue = [5, 5]\nclass = false", fillcolor="#ffffff"] ;
564 -> 565 ;
566 [label="gini = 0.0\nsamples = 2\nvalue = [4, 0]\nclass = false", fillcolor="#e58139"] ;
565 -> 566 ;
567 [label="leukocyty <= 9.024\ngini = 0.278\nsamples = 5\nvalue = [1, 5]\nclass = true", fillcolor="#61b1ea"] ;
565 -> 567 ;
568 [label="weight <= 44.795\ngini = 0.5\nsamples = 2\nvalue = [1, 1]\nclass = false", fillcolor="#ffffff"] ;
567 -> 568 ;
569 [label="gini = 0.0\nsamples = 1\nvalue = [1, 0]\nclass = false", fillcolor="#e58139"] ;
568 -> 569 ;
570 [label="gini = 0.0\nsamples = 1\nvalue = [0, 1]\nclass = true", fillcolor="#399de5"] ;
568 -> 570 ;
571 [label="gini = 0.0\nsamples = 3\nvalue = [0, 4]\nclass = true", fillcolor="#399de5"] ;
567 -> 571 ;
572 [label="hemoglobin <= 4.594\ngini = 0.294\nsamples = 38\nvalue = [55, 12]\nclass = false", fillcolor="#eb9c64"] ;
564 -> 572 ;
573 [label="gini = 0.0\nsamples = 8\nvalue = [0, 12]\nclass = true", fillcolor="#399de5"] ;
572 -> 573 ;
574 [label="gini = 0.0\nsamples = 30\nvalue = [55, 0]\nclass = false", fillcolor="#e58139"] ;
572 -> 574 ;
575 [label="alp <= 17.459\ngini = 0.5\nsamples = 4\nvalue = [3, 3]\nclass = false", fillcolor="#ffffff"] ;
489 -> 575 ;
576 [label="gini = 0.0\nsamples = 2\nvalue = [3, 0]\nclass = false", fillcolor="#e58139"] ;
575 -> 576 ;
577 [label="gini = 0.0\nsamples = 2\nvalue = [0, 3]\nclass = true", fillcolor="#399de5"] ;
575 -> 577 ;
578 [label="alt <= 2.493\ngini = 0.498\nsamples = 58\nvalue = [46, 41]\nclass = false", fillcolor="#fcf1e9"] ;
488 -> 578 ;
579 [label="hbver <= 9.044\ngini = 0.346\nsamples = 18\nvalue = [6, 21]\nclass = true", fillcolor="#72b9ec"] ;
578 -> 579 ;
580 [label="leukocyty <= 8.75\ngini = 0.172\nsamples = 14\nvalue = [2, 19]\nclass = true", fillcolor="#4ea7e8"] ;
579 -> 580 ;
581 [label="er-cv <= 59.476\ngini = 0.375\nsamples = 6\nvalue = [2, 6]\nclass = true", fillcolor="#7bbeee"] ;
580 -> 581 ;
582 [label="leukocyty <= 8.617\ngini = 0.245\nsamples = 5\nvalue = [1, 6]\nclass = true", fillcolor="#5aade9"] ;
581 -> 582 ;
583 [label="gini = 0.0\nsamples = 4\nvalue = [0, 6]\nclass = true", fillcolor="#399de5"] ;
582 -> 583 ;
584 [label="gini = 0.0\nsamples = 1\nvalue = [1, 0]\nclass = false", fillcolor="#e58139"] ;
582 -> 584 ;
585 [label="gini = 0.0\nsamples = 1\nvalue = [1, 0]\nclass = false", fillcolor="#e58139"] ;
581 -> 585 ;
586 [label="gini = 0.0\nsamples = 8\nvalue = [0, 13]\nclass = true", fillcolor="#399de5"] ;
580 -> 586 ;
587 [label="leukocyty <= 9.618\ngini = 0.444\nsamples = 4\nvalue = [4, 2]\nclass = false", fillcolor="#f2c09c"] ;
579 -> 587 ;
588 [label="gini = 0.0\nsamples = 3\nvalue = [4, 0]\nclass = false", fillcolor="#e58139"] ;
587 -> 588 ;
589 [label="gini = 0.0\nsamples = 1\nvalue = [0, 2]\nclass = true", fillcolor="#399de5"] ;
587 -> 589 ;
590 [label="alp <= 21.247\ngini = 0.444\nsamples = 40\nvalue = [40, 20]\nclass = false", fillcolor="#f2c09c"] ;
578 -> 590 ;
591 [label="trombocyty <= 6.87\ngini = 0.095\nsamples = 15\nvalue = [19, 1]\nclass = false", fillcolor="#e68843"] ;
590 -> 591 ;
592 [label="hemoglobin <= 6.104\ngini = 0.278\nsamples = 5\nvalue = [5, 1]\nclass = false", fillcolor="#ea9a61"] ;
591 -> 592 ;
593 [label="gini = 0.0\nsamples = 1\nvalue = [0, 1]\nclass = true", fillcolor="#399de5"] ;
592 -> 593 ;
594 [label="gini = 0.0\nsamples = 4\nvalue = [5, 0]\nclass = false", fillcolor="#e58139"] ;
592 -> 594 ;
595 [label="gini = 0.0\nsamples = 10\nvalue = [14, 0]\nclass = false", fillcolor="#e58139"] ;
591 -> 595 ;
596 [label="alt <= 12.549\ngini = 0.499\nsamples = 25\nvalue = [21, 19]\nclass = false", fillcolor="#fdf3ec"] ;
590 -> 596 ;
597 [label="hbver <= 8.484\ngini = 0.482\nsamples = 21\nvalue = [13, 19]\nclass = true", fillcolor="#c0e0f7"] ;
596 -> 597 ;
598 [label="etytr <= 8.502\ngini = 0.34\nsamples = 14\nvalue = [5, 18]\nclass = true", fillcolor="#70b8ec"] ;
597 -> 598 ;
599 [label="er-cv <= 56.828\ngini = 0.463\nsamples = 7\nvalue = [4, 7]\nclass = true", fillcolor="#aad5f4"] ;
598 -> 599 ;
600 [label="gini = 0.0\nsamples = 5\nvalue = [0, 7]\nclass = true", fillcolor="#399de5"] ;
599 -> 600 ;
601 [label="gini = 0.0\nsamples = 2\nvalue = [4, 0]\nclass = false", fillcolor="#e58139"] ;
599 -> 601 ;
602 [label="alt <= 4.543\ngini = 0.153\nsamples = 7\nvalue = [1, 11]\nclass = true", fillcolor="#4ba6e7"] ;
598 -> 602 ;
603 [label="gini = 0.0\nsamples = 1\nvalue = [1, 0]\nclass = false", fillcolor="#e58139"] ;
602 -> 603 ;
604 [label="gini = 0.0\nsamples = 6\nvalue = [0, 11]\nclass = true", fillcolor="#399de5"] ;
602 -> 604 ;
605 [label="race <= 3.0\ngini = 0.198\nsamples = 7\nvalue = [8, 1]\nclass = false", fillcolor="#e89152"] ;
597 -> 605 ;
606 [label="gini = 0.0\nsamples = 6\nvalue = [8, 0]\nclass = false", fillcolor="#e58139"] ;
605 -> 606 ;
607 [label="gini = 0.0\nsamples = 1\nvalue = [0, 1]\nclass = true", fillcolor="#399de5"] ;
605 -> 607 ;
608 [label="gini = 0.0\nsamples = 4\nvalue = [8, 0]\nclass = false", fillcolor="#e58139"] ;
596 -> 608 ;
609 [label="hemoglobin <= 6.982\ngini = 0.452\nsamples = 666\nvalue = [360, 685]\nclass = true", fillcolor="#a1d1f3"] ;
487 -> 609 ;
610 [label="age <= 3.5\ngini = 0.337\nsamples = 475\nvalue = [158, 580]\nclass = true", fillcolor="#6fb8ec"] ;
609 -> 610 ;
611 [label="leukocyty <= 8.519\ngini = 0.491\nsamples = 20\nvalue = [17, 13]\nclass = false", fillcolor="#f9e1d0"] ;
610 -> 611 ;
612 [label="gini = 0.0\nsamples = 3\nvalue = [0, 6]\nclass = true", fillcolor="#399de5"] ;
611 -> 612 ;
613 [label="er-cv <= 61.126\ngini = 0.413\nsamples = 17\nvalue = [17, 7]\nclass = false", fillcolor="#f0b58b"] ;
611 -> 613 ;
614 [label="erytrocyty <= 6.214\ngini = 0.278\nsamples = 12\nvalue = [15, 3]\nclass = false", fillcolor="#ea9a61"] ;
613 -> 614 ;
615 [label="gini = 0.0\nsamples = 2\nvalue = [0, 2]\nclass = true", fillcolor="#399de5"] ;
614 -> 615 ;
616 [label="alt <= 9.323\ngini = 0.117\nsamples = 10\nvalue = [15, 1]\nclass = false", fillcolor="#e78946"] ;
614 -> 616 ;
617 [label="gini = 0.0\nsamples = 9\nvalue = [15, 0]\nclass = false", fillcolor="#e58139"] ;
616 -> 617 ;
618 [label="gini = 0.0\nsamples = 1\nvalue = [0, 1]\nclass = true", fillcolor="#399de5"] ;
616 -> 618 ;
619 [label="erytrocyty <= 8.153\ngini = 0.444\nsamples = 5\nvalue = [2, 4]\nclass = true", fillcolor="#9ccef2"] ;
613 -> 619 ;
620 [label="gini = 0.0\nsamples = 3\nvalue = [0, 4]\nclass = true", fillcolor="#399de5"] ;
619 -> 620 ;
621 [label="gini = 0.0\nsamples = 2\nvalue = [2, 0]\nclass = false", fillcolor="#e58139"] ;
619 -> 621 ;
622 [label="etytr <= 5.421\ngini = 0.319\nsamples = 455\nvalue = [141, 567]\nclass = true", fillcolor="#6ab5eb"] ;
610 -> 622 ;
623 [label="hematokrit <= 7.609\ngini = 0.493\nsamples = 11\nvalue = [14, 11]\nclass = false", fillcolor="#f9e4d5"] ;
622 -> 623 ;
624 [label="gini = 0.0\nsamples = 4\nvalue = [12, 0]\nclass = false", fillcolor="#e58139"] ;
623 -> 624 ;
625 [label="hbver <= 9.623\ngini = 0.26\nsamples = 7\nvalue = [2, 11]\nclass = true", fillcolor="#5dafea"] ;
623 -> 625 ;
626 [label="gini = 0.0\nsamples = 6\nvalue = [0, 11]\nclass = true", fillcolor="#399de5"] ;
625 -> 626 ;
627 [label="gini = 0.0\nsamples = 1\nvalue = [2, 0]\nclass = false", fillcolor="#e58139"] ;
625 -> 627 ;
628 [label="blood_group <= 2.5\ngini = 0.303\nsamples = 444\nvalue = [127, 556]\nclass = true", fillcolor="#66b3eb"] ;
622 -> 628 ;
629 [label="hematokrit <= 7.911\ngini = 0.4\nsamples = 109\nvalue = [47, 123]\nclass = true", fillcolor="#85c2ef"] ;
628 -> 629 ;
630 [label="state <= 23.5\ngini = 0.44\nsamples = 34\nvalue = [37, 18]\nclass = false", fillcolor="#f2be99"] ;
629 -> 630 ;
631 [label="trombocyty <= 6.862\ngini = 0.476\nsamples = 14\nvalue = [9, 14]\nclass = true", fillcolor="#b8dcf6"] ;
630 -> 631 ;
632 [label="gini = 0.0\nsamples = 3\nvalue = [6, 0]\nclass = false", fillcolor="#e58139"] ;
631 -> 632 ;
633 [label="alt <= 3.738\ngini = 0.291\nsamples = 11\nvalue = [3, 14]\nclass = true", fillcolor="#63b2eb"] ;
631 -> 633 ;
634 [label="weight <= 110.529\ngini = 0.124\nsamples = 10\nvalue = [1, 14]\nclass = true", fillcolor="#47a4e7"] ;
633 -> 634 ;
635 [label="gini = 0.0\nsamples = 9\nvalue = [0, 14]\nclass = true", fillcolor="#399de5"] ;
634 -> 635 ;
636 [label="gini = 0.0\nsamples = 1\nvalue = [1, 0]\nclass = false", fillcolor="#e58139"] ;
634 -> 636 ;
637 [label="gini = 0.0\nsamples = 1\nvalue = [2, 0]\nclass = false", fillcolor="#e58139"] ;
633 -> 637 ;
638 [label="leukocyty <= 9.318\ngini = 0.219\nsamples = 20\nvalue = [28, 4]\nclass = false", fillcolor="#e99355"] ;
630 -> 638 ;
639 [label="leukocyty <= 8.09\ngini = 0.124\nsamples = 18\nvalue = [28, 2]\nclass = false", fillcolor="#e78a47"] ;
638 -> 639 ;
640 [label="gini = 0.0\nsamples = 1\nvalue = [0, 1]\nclass = true", fillcolor="#399de5"] ;
639 -> 640 ;
641 [label="relationship <= 1.5\ngini = 0.067\nsamples = 17\nvalue = [28, 1]\nclass = false", fillcolor="#e68640"] ;
639 -> 641 ;
642 [label="erytrocyty <= 7.334\ngini = 0.198\nsamples = 4\nvalue = [8, 1]\nclass = false", fillcolor="#e89152"] ;
641 -> 642 ;
643 [label="gini = 0.0\nsamples = 3\nvalue = [8, 0]\nclass = false", fillcolor="#e58139"] ;
642 -> 643 ;
644 [label="gini = 0.0\nsamples = 1\nvalue = [0, 1]\nclass = true", fillcolor="#399de5"] ;
642 -> 644 ;
645 [label="gini = 0.0\nsamples = 13\nvalue = [20, 0]\nclass = false", fillcolor="#e58139"] ;
641 -> 645 ;
646 [label="gini = 0.0\nsamples = 2\nvalue = [0, 2]\nclass = true", fillcolor="#399de5"] ;
638 -> 646 ;
647 [label="hematokrit <= 8.581\ngini = 0.159\nsamples = 75\nvalue = [10, 105]\nclass = true", fillcolor="#4ca6e7"] ;
629 -> 647 ;
648 [label="age <= 51.5\ngini = 0.408\nsamples = 18\nvalue = [8, 20]\nclass = true", fillcolor="#88c4ef"] ;
647 -> 648 ;
649 [label="gini = 0.0\nsamples = 5\nvalue = [0, 9]\nclass = true", fillcolor="#399de5"] ;
648 -> 649 ;
650 [label="hematokrit <= 8.378\ngini = 0.488\nsamples = 13\nvalue = [8, 11]\nclass = true", fillcolor="#c9e4f8"] ;
648 -> 650 ;
651 [label="blood_group <= 1.5\ngini = 0.355\nsamples = 9\nvalue = [3, 10]\nclass = true", fillcolor="#74baed"] ;
650 -> 651 ;
652 [label="gini = 0.0\nsamples = 4\nvalue = [0, 6]\nclass = true", fillcolor="#399de5"] ;
651 -> 652 ;
653 [label="alt <= 3.019\ngini = 0.49\nsamples = 5\nvalue = [3, 4]\nclass = true", fillcolor="#cee6f8"] ;
651 -> 653 ;
654 [label="gini = 0.0\nsamples = 3\nvalue = [0, 4]\nclass = true", fillcolor="#399de5"] ;
653 -> 654 ;
655 [label="gini = 0.0\nsamples = 2\nvalue = [3, 0]\nclass = false", fillcolor="#e58139"] ;
653 -> 655 ;
656 [label="hbver <= 8.459\ngini = 0.278\nsamples = 4\nvalue = [5, 1]\nclass = false", fillcolor="#ea9a61"] ;
650 -> 656 ;
657 [label="gini = 0.0\nsamples = 3\nvalue = [5, 0]\nclass = false", fillcolor="#e58139"] ;
656 -> 657 ;
658 [label="gini = 0.0\nsamples = 1\nvalue = [0, 1]\nclass = true", fillcolor="#399de5"] ;
656 -> 658 ;
659 [label="weight <= 113.58\ngini = 0.045\nsamples = 57\nvalue = [2, 85]\nclass = true", fillcolor="#3e9fe6"] ;
647 -> 659 ;
660 [label="race <= 4.5\ngini = 0.023\nsamples = 56\nvalue = [1, 85]\nclass = true", fillcolor="#3b9ee5"] ;
659 -> 660 ;
661 [label="gini = 0.0\nsamples = 54\nvalue = [0, 83]\nclass = true", fillcolor="#399de5"] ;
660 -> 661 ;
662 [label="age <= 56.5\ngini = 0.444\nsamples = 2\nvalue = [1, 2]\nclass = true", fillcolor="#9ccef2"] ;
660 -> 662 ;
663 [label="gini = 0.0\nsamples = 1\nvalue = [0, 2]\nclass = true", fillcolor="#399de5"] ;
662 -> 663 ;
664 [label="gini = 0.0\nsamples = 1\nvalue = [1, 0]\nclass = false", fillcolor="#e58139"] ;
662 -> 664 ;
665 [label="gini = 0.0\nsamples = 1\nvalue = [1, 0]\nclass = false", fillcolor="#e58139"] ;
659 -> 665 ;
666 [label="weight <= -8.208\ngini = 0.263\nsamples = 335\nvalue = [80, 433]\nclass = true", fillcolor="#5eafea"] ;
628 -> 666 ;
667 [label="gini = 0.0\nsamples = 3\nvalue = [4, 0]\nclass = false", fillcolor="#e58139"] ;
666 -> 667 ;
668 [label="er-cv <= 67.523\ngini = 0.254\nsamples = 332\nvalue = [76, 433]\nclass = true", fillcolor="#5caeea"] ;
666 -> 668 ;
669 [label="alt <= 0.634\ngini = 0.279\nsamples = 285\nvalue = [74, 367]\nclass = true", fillcolor="#61b1ea"] ;
668 -> 669 ;
670 [label="gini = 0.0\nsamples = 1\nvalue = [2, 0]\nclass = false", fillcolor="#e58139"] ;
669 -> 670 ;
671 [label="hemoglobin <= 6.107\ngini = 0.274\nsamples = 284\nvalue = [72, 367]\nclass = true", fillcolor="#60b0ea"] ;
669 -> 671 ;
672 [label="hematokrit <= 7.843\ngini = 0.179\nsamples = 148\nvalue = [23, 209]\nclass = true", fillcolor="#4fa8e8"] ;
671 -> 672 ;
673 [label="hbver <= 7.4\ngini = 0.497\nsamples = 18\nvalue = [15, 13]\nclass = false", fillcolor="#fceee5"] ;
672 -> 673 ;
674 [label="weight <= 34.495\ngini = 0.375\nsamples = 9\nvalue = [4, 12]\nclass = true", fillcolor="#7bbeee"] ;
673 -> 674 ;
675 [label="gini = 0.0\nsamples = 1\nvalue = [2, 0]\nclass = false", fillcolor="#e58139"] ;
674 -> 675 ;
676 [label="leukocyty <= 9.272\ngini = 0.245\nsamples = 8\nvalue = [2, 12]\nclass = true", fillcolor="#5aade9"] ;
674 -> 676 ;
677 [label="sex_M <= 0.5\ngini = 0.142\nsamples = 7\nvalue = [1, 12]\nclass = true", fillcolor="#49a5e7"] ;
676 -> 677 ;
678 [label="gini = 0.0\nsamples = 1\nvalue = [1, 0]\nclass = false", fillcolor="#e58139"] ;
677 -> 678 ;
679 [label="gini = 0.0\nsamples = 6\nvalue = [0, 12]\nclass = true", fillcolor="#399de5"] ;
677 -> 679 ;
680 [label="gini = 0.0\nsamples = 1\nvalue = [1, 0]\nclass = false", fillcolor="#e58139"] ;
676 -> 680 ;
681 [label="trombocyty <= 7.108\ngini = 0.153\nsamples = 9\nvalue = [11, 1]\nclass = false", fillcolor="#e78c4b"] ;
673 -> 681 ;
682 [label="gini = 0.0\nsamples = 1\nvalue = [0, 1]\nclass = true", fillcolor="#399de5"] ;
681 -> 682 ;
683 [label="gini = 0.0\nsamples = 8\nvalue = [11, 0]\nclass = false", fillcolor="#e58139"] ;
681 -> 683 ;
684 [label="er-cv <= 23.313\ngini = 0.075\nsamples = 130\nvalue = [8, 196]\nclass = true", fillcolor="#41a1e6"] ;
672 -> 684 ;
685 [label="etytr <= 8.225\ngini = 0.444\nsamples = 4\nvalue = [2, 4]\nclass = true", fillcolor="#9ccef2"] ;
684 -> 685 ;
686 [label="gini = 0.0\nsamples = 3\nvalue = [0, 4]\nclass = true", fillcolor="#399de5"] ;
685 -> 686 ;
687 [label="gini = 0.0\nsamples = 1\nvalue = [2, 0]\nclass = false", fillcolor="#e58139"] ;
685 -> 687 ;
688 [label="age <= 113.5\ngini = 0.059\nsamples = 126\nvalue = [6, 192]\nclass = true", fillcolor="#3fa0e6"] ;
684 -> 688 ;
689 [label="hematokrit <= 12.147\ngini = 0.05\nsamples = 122\nvalue = [5, 188]\nclass = true", fillcolor="#3ea0e6"] ;
688 -> 689 ;
690 [label="alt <= 9.692\ngini = 0.041\nsamples = 121\nvalue = [4, 188]\nclass = true", fillcolor="#3d9fe6"] ;
689 -> 690 ;
691 [label="weight <= 92.028\ngini = 0.023\nsamples = 108\nvalue = [2, 172]\nclass = true", fillcolor="#3b9ee5"] ;
690 -> 691 ;
692 [label="gini = 0.0\nsamples = 87\nvalue = [0, 141]\nclass = true", fillcolor="#399de5"] ;
691 -> 692 ;
693 [label="age <= 15.5\ngini = 0.114\nsamples = 21\nvalue = [2, 31]\nclass = true", fillcolor="#46a3e7"] ;
691 -> 693 ;
694 [label="gini = 0.0\nsamples = 1\nvalue = [1, 0]\nclass = false", fillcolor="#e58139"] ;
693 -> 694 ;
695 [label="hematokrit <= 8.871\ngini = 0.061\nsamples = 20\nvalue = [1, 31]\nclass = true", fillcolor="#3fa0e6"] ;
693 -> 695 ;
696 [label="weight <= 107.9\ngini = 0.32\nsamples = 3\nvalue = [1, 4]\nclass = true", fillcolor="#6ab6ec"] ;
695 -> 696 ;
697 [label="age <= 94.5\ngini = 0.5\nsamples = 2\nvalue = [1, 1]\nclass = false", fillcolor="#ffffff"] ;
696 -> 697 ;
698 [label="gini = 0.0\nsamples = 1\nvalue = [0, 1]\nclass = true", fillcolor="#399de5"] ;
697 -> 698 ;
699 [label="gini = 0.0\nsamples = 1\nvalue = [1, 0]\nclass = false", fillcolor="#e58139"] ;
697 -> 699 ;
700 [label="gini = 0.0\nsamples = 1\nvalue = [0, 3]\nclass = true", fillcolor="#399de5"] ;
696 -> 700 ;
701 [label="gini = 0.0\nsamples = 17\nvalue = [0, 27]\nclass = true", fillcolor="#399de5"] ;
695 -> 701 ;
702 [label="weight <= 67.434\ngini = 0.198\nsamples = 13\nvalue = [2, 16]\nclass = true", fillcolor="#52a9e8"] ;
690 -> 702 ;
703 [label="hbver <= 7.822\ngini = 0.32\nsamples = 7\nvalue = [2, 8]\nclass = true", fillcolor="#6ab6ec"] ;
702 -> 703 ;
704 [label="age <= 102.0\ngini = 0.198\nsamples = 6\nvalue = [1, 8]\nclass = true", fillcolor="#52a9e8"] ;
703 -> 704 ;
705 [label="gini = 0.0\nsamples = 5\nvalue = [0, 8]\nclass = true", fillcolor="#399de5"] ;
704 -> 705 ;
706 [label="gini = 0.0\nsamples = 1\nvalue = [1, 0]\nclass = false", fillcolor="#e58139"] ;
704 -> 706 ;
707 [label="gini = 0.0\nsamples = 1\nvalue = [1, 0]\nclass = false", fillcolor="#e58139"] ;
703 -> 707 ;
708 [label="gini = 0.0\nsamples = 6\nvalue = [0, 8]\nclass = true", fillcolor="#399de5"] ;
702 -> 708 ;
709 [label="gini = 0.0\nsamples = 1\nvalue = [1, 0]\nclass = false", fillcolor="#e58139"] ;
689 -> 709 ;
710 [label="erytrocyty <= 6.441\ngini = 0.32\nsamples = 4\nvalue = [1, 4]\nclass = true", fillcolor="#6ab6ec"] ;
688 -> 710 ;
711 [label="gini = 0.0\nsamples = 1\nvalue = [1, 0]\nclass = false", fillcolor="#e58139"] ;
710 -> 711 ;
712 [label="gini = 0.0\nsamples = 3\nvalue = [0, 4]\nclass = true", fillcolor="#399de5"] ;
710 -> 712 ;
713 [label="race <= 2.5\ngini = 0.361\nsamples = 136\nvalue = [49, 158]\nclass = true", fillcolor="#76bbed"] ;
671 -> 713 ;
714 [label="alt <= 19.343\ngini = 0.229\nsamples = 86\nvalue = [17, 112]\nclass = true", fillcolor="#57ace9"] ;
713 -> 714 ;
715 [label="smoker <= 0.5\ngini = 0.208\nsamples = 85\nvalue = [15, 112]\nclass = true", fillcolor="#54aae8"] ;
714 -> 715 ;
716 [label="hematokrit <= 10.953\ngini = 0.123\nsamples = 49\nvalue = [5, 71]\nclass = true", fillcolor="#47a4e7"] ;
715 -> 716 ;
717 [label="leukocyty <= 8.7\ngini = 0.101\nsamples = 48\nvalue = [4, 71]\nclass = true", fillcolor="#44a3e6"] ;
716 -> 717 ;
718 [label="gini = 0.0\nsamples = 28\nvalue = [0, 42]\nclass = true", fillcolor="#399de5"] ;
717 -> 718 ;
719 [label="blood_group <= 3.5\ngini = 0.213\nsamples = 20\nvalue = [4, 29]\nclass = true", fillcolor="#54abe9"] ;
717 -> 719 ;
720 [label="gini = 0.0\nsamples = 1\nvalue = [1, 0]\nclass = false", fillcolor="#e58139"] ;
719 -> 720 ;
721 [label="age <= 106.0\ngini = 0.17\nsamples = 19\nvalue = [3, 29]\nclass = true", fillcolor="#4da7e8"] ;
719 -> 721 ;
722 [label="age <= 23.0\ngini = 0.064\nsamples = 17\nvalue = [1, 29]\nclass = true", fillcolor="#40a0e6"] ;
721 -> 722 ;
723 [label="leukocyty <= 9.185\ngini = 0.375\nsamples = 3\nvalue = [1, 3]\nclass = true", fillcolor="#7bbeee"] ;
722 -> 723 ;
724 [label="gini = 0.0\nsamples = 1\nvalue = [1, 0]\nclass = false", fillcolor="#e58139"] ;
723 -> 724 ;
725 [label="gini = 0.0\nsamples = 2\nvalue = [0, 3]\nclass = true", fillcolor="#399de5"] ;
723 -> 725 ;
726 [label="gini = 0.0\nsamples = 14\nvalue = [0, 26]\nclass = true", fillcolor="#399de5"] ;
722 -> 726 ;
727 [label="gini = 0.0\nsamples = 2\nvalue = [2, 0]\nclass = false", fillcolor="#e58139"] ;
721 -> 727 ;
728 [label="gini = 0.0\nsamples = 1\nvalue = [1, 0]\nclass = false", fillcolor="#e58139"] ;
716 -> 728 ;
729 [label="hbver <= 6.699\ngini = 0.315\nsamples = 36\nvalue = [10, 41]\nclass = true", fillcolor="#69b5eb"] ;
715 -> 729 ;
730 [label="trombocyty <= 6.96\ngini = 0.444\nsamples = 5\nvalue = [4, 2]\nclass = false", fillcolor="#f2c09c"] ;
729 -> 730 ;
731 [label="gini = 0.0\nsamples = 2\nvalue = [3, 0]\nclass = false", fillcolor="#e58139"] ;
730 -> 731 ;
732 [label="hbver <= 6.509\ngini = 0.444\nsamples = 3\nvalue = [1, 2]\nclass = true", fillcolor="#9ccef2"] ;
730 -> 732 ;
733 [label="gini = 0.0\nsamples = 2\nvalue = [0, 2]\nclass = true", fillcolor="#399de5"] ;
732 -> 733 ;
734 [label="gini = 0.0\nsamples = 1\nvalue = [1, 0]\nclass = false", fillcolor="#e58139"] ;
732 -> 734 ;
735 [label="state <= 46.5\ngini = 0.231\nsamples = 31\nvalue = [6, 39]\nclass = true", fillcolor="#57ace9"] ;
729 -> 735 ;
736 [label="weight <= 77.135\ngini = 0.153\nsamples = 25\nvalue = [3, 33]\nclass = true", fillcolor="#4ba6e7"] ;
735 -> 736 ;
737 [label="hematokrit <= 11.301\ngini = 0.064\nsamples = 20\nvalue = [1, 29]\nclass = true", fillcolor="#40a0e6"] ;
736 -> 737 ;
738 [label="gini = 0.0\nsamples = 19\nvalue = [0, 29]\nclass = true", fillcolor="#399de5"] ;
737 -> 738 ;
739 [label="gini = 0.0\nsamples = 1\nvalue = [1, 0]\nclass = false", fillcolor="#e58139"] ;
737 -> 739 ;
740 [label="state <= 13.0\ngini = 0.444\nsamples = 5\nvalue = [2, 4]\nclass = true", fillcolor="#9ccef2"] ;
736 -> 740 ;
741 [label="gini = 0.0\nsamples = 1\nvalue = [2, 0]\nclass = false", fillcolor="#e58139"] ;
740 -> 741 ;
742 [label="gini = 0.0\nsamples = 4\nvalue = [0, 4]\nclass = true", fillcolor="#399de5"] ;
740 -> 742 ;
743 [label="leukocyty <= 8.278\ngini = 0.444\nsamples = 6\nvalue = [3, 6]\nclass = true", fillcolor="#9ccef2"] ;
735 -> 743 ;
744 [label="gini = 0.0\nsamples = 3\nvalue = [0, 6]\nclass = true", fillcolor="#399de5"] ;
743 -> 744 ;
745 [label="gini = 0.0\nsamples = 3\nvalue = [3, 0]\nclass = false", fillcolor="#e58139"] ;
743 -> 745 ;
746 [label="gini = 0.0\nsamples = 1\nvalue = [2, 0]\nclass = false", fillcolor="#e58139"] ;
714 -> 746 ;
747 [label="hematokrit <= 8.076\ngini = 0.484\nsamples = 50\nvalue = [32, 46]\nclass = true", fillcolor="#c3e1f7"] ;
713 -> 747 ;
748 [label="leukocyty <= 8.782\ngini = 0.35\nsamples = 19\nvalue = [24, 7]\nclass = false", fillcolor="#eda673"] ;
747 -> 748 ;
749 [label="blood_group <= 6.5\ngini = 0.484\nsamples = 11\nvalue = [10, 7]\nclass = false", fillcolor="#f7d9c4"] ;
748 -> 749 ;
750 [label="etytr <= 5.892\ngini = 0.42\nsamples = 7\nvalue = [3, 7]\nclass = true", fillcolor="#8ec7f0"] ;
749 -> 750 ;
751 [label="gini = 0.0\nsamples = 2\nvalue = [3, 0]\nclass = false", fillcolor="#e58139"] ;
750 -> 751 ;
752 [label="gini = 0.0\nsamples = 5\nvalue = [0, 7]\nclass = true", fillcolor="#399de5"] ;
750 -> 752 ;
753 [label="gini = 0.0\nsamples = 4\nvalue = [7, 0]\nclass = false", fillcolor="#e58139"] ;
749 -> 753 ;
754 [label="gini = 0.0\nsamples = 8\nvalue = [14, 0]\nclass = false", fillcolor="#e58139"] ;
748 -> 754 ;
755 [label="hemoglobin <= 6.742\ngini = 0.282\nsamples = 31\nvalue = [8, 39]\nclass = true", fillcolor="#62b1ea"] ;
747 -> 755 ;
756 [label="age <= 11.0\ngini = 0.145\nsamples = 24\nvalue = [3, 35]\nclass = true", fillcolor="#4aa5e7"] ;
755 -> 756 ;
757 [label="gini = 0.0\nsamples = 1\nvalue = [2, 0]\nclass = false", fillcolor="#e58139"] ;
756 -> 757 ;
758 [label="weight <= 112.201\ngini = 0.054\nsamples = 23\nvalue = [1, 35]\nclass = true", fillcolor="#3fa0e6"] ;
756 -> 758 ;
759 [label="gini = 0.0\nsamples = 22\nvalue = [0, 35]\nclass = true", fillcolor="#399de5"] ;
758 -> 759 ;
760 [label="gini = 0.0\nsamples = 1\nvalue = [1, 0]\nclass = false", fillcolor="#e58139"] ;
758 -> 760 ;
761 [label="hemoglobin <= 6.884\ngini = 0.494\nsamples = 7\nvalue = [5, 4]\nclass = false", fillcolor="#fae6d7"] ;
755 -> 761 ;
762 [label="hemoglobin <= 6.785\ngini = 0.278\nsamples = 5\nvalue = [5, 1]\nclass = false", fillcolor="#ea9a61"] ;
761 -> 762 ;
763 [label="gini = 0.0\nsamples = 2\nvalue = [3, 0]\nclass = false", fillcolor="#e58139"] ;
762 -> 763 ;
764 [label="alt <= 2.065\ngini = 0.444\nsamples = 3\nvalue = [2, 1]\nclass = false", fillcolor="#f2c09c"] ;
762 -> 764 ;
765 [label="gini = 0.0\nsamples = 1\nvalue = [0, 1]\nclass = true", fillcolor="#399de5"] ;
764 -> 765 ;
766 [label="gini = 0.0\nsamples = 2\nvalue = [2, 0]\nclass = false", fillcolor="#e58139"] ;
764 -> 766 ;
767 [label="gini = 0.0\nsamples = 2\nvalue = [0, 3]\nclass = true", fillcolor="#399de5"] ;
761 -> 767 ;
768 [label="ast <= 43.401\ngini = 0.057\nsamples = 47\nvalue = [2, 66]\nclass = true", fillcolor="#3fa0e6"] ;
668 -> 768 ;
769 [label="ast <= 43.128\ngini = 0.128\nsamples = 20\nvalue = [2, 27]\nclass = true", fillcolor="#48a4e7"] ;
768 -> 769 ;
770 [label="leukocyty <= 9.585\ngini = 0.069\nsamples = 19\nvalue = [1, 27]\nclass = true", fillcolor="#40a1e6"] ;
769 -> 770 ;
771 [label="gini = 0.0\nsamples = 17\nvalue = [0, 25]\nclass = true", fillcolor="#399de5"] ;
770 -> 771 ;
772 [label="race <= 2.5\ngini = 0.444\nsamples = 2\nvalue = [1, 2]\nclass = true", fillcolor="#9ccef2"] ;
770 -> 772 ;
773 [label="gini = 0.0\nsamples = 1\nvalue = [1, 0]\nclass = false", fillcolor="#e58139"] ;
772 -> 773 ;
774 [label="gini = 0.0\nsamples = 1\nvalue = [0, 2]\nclass = true", fillcolor="#399de5"] ;
772 -> 774 ;
775 [label="gini = 0.0\nsamples = 1\nvalue = [1, 0]\nclass = false", fillcolor="#e58139"] ;
769 -> 775 ;
776 [label="gini = 0.0\nsamples = 27\nvalue = [0, 39]\nclass = true", fillcolor="#399de5"] ;
768 -> 776 ;
777 [label="race <= 4.5\ngini = 0.45\nsamples = 191\nvalue = [202, 105]\nclass = false", fillcolor="#f3c2a0"] ;
609 -> 777 ;
778 [label="leukocyty <= 8.317\ngini = 0.438\nsamples = 184\nvalue = [201, 96]\nclass = false", fillcolor="#f1bd98"] ;
777 -> 778 ;
779 [label="age <= 61.5\ngini = 0.478\nsamples = 22\nvalue = [13, 20]\nclass = true", fillcolor="#baddf6"] ;
778 -> 779 ;
780 [label="gini = 0.0\nsamples = 8\nvalue = [0, 12]\nclass = true", fillcolor="#399de5"] ;
779 -> 780 ;
781 [label="alp <= 57.266\ngini = 0.472\nsamples = 14\nvalue = [13, 8]\nclass = false", fillcolor="#f5cfb3"] ;
779 -> 781 ;
782 [label="gini = 0.0\nsamples = 4\nvalue = [7, 0]\nclass = false", fillcolor="#e58139"] ;
781 -> 782 ;
783 [label="state <= 20.0\ngini = 0.49\nsamples = 10\nvalue = [6, 8]\nclass = true", fillcolor="#cee6f8"] ;
781 -> 783 ;
784 [label="gini = 0.0\nsamples = 3\nvalue = [0, 5]\nclass = true", fillcolor="#399de5"] ;
783 -> 784 ;
785 [label="relationship <= 1.5\ngini = 0.444\nsamples = 7\nvalue = [6, 3]\nclass = false", fillcolor="#f2c09c"] ;
783 -> 785 ;
786 [label="gini = 0.0\nsamples = 1\nvalue = [0, 1]\nclass = true", fillcolor="#399de5"] ;
785 -> 786 ;
787 [label="relationship <= 4.5\ngini = 0.375\nsamples = 6\nvalue = [6, 2]\nclass = false", fillcolor="#eeab7b"] ;
785 -> 787 ;
788 [label="gini = 0.0\nsamples = 3\nvalue = [5, 0]\nclass = false", fillcolor="#e58139"] ;
787 -> 788 ;
789 [label="er-cv <= 57.991\ngini = 0.444\nsamples = 3\nvalue = [1, 2]\nclass = true", fillcolor="#9ccef2"] ;
787 -> 789 ;
790 [label="gini = 0.0\nsamples = 1\nvalue = [1, 0]\nclass = false", fillcolor="#e58139"] ;
789 -> 790 ;
791 [label="gini = 0.0\nsamples = 2\nvalue = [0, 2]\nclass = true", fillcolor="#399de5"] ;
789 -> 791 ;
792 [label="hematokrit <= 9.573\ngini = 0.41\nsamples = 162\nvalue = [188, 76]\nclass = false", fillcolor="#f0b489"] ;
778 -> 792 ;
793 [label="etytr <= 6.569\ngini = 0.493\nsamples = 98\nvalue = [86, 68]\nclass = false", fillcolor="#fae5d6"] ;
792 -> 793 ;
794 [label="trombocyty <= 6.726\ngini = 0.361\nsamples = 47\nvalue = [18, 58]\nclass = true", fillcolor="#76bbed"] ;
793 -> 794 ;
795 [label="state <= 30.5\ngini = 0.42\nsamples = 6\nvalue = [7, 3]\nclass = false", fillcolor="#f0b78e"] ;
794 -> 795 ;
796 [label="gini = 0.0\nsamples = 4\nvalue = [7, 0]\nclass = false", fillcolor="#e58139"] ;
795 -> 796 ;
797 [label="gini = 0.0\nsamples = 2\nvalue = [0, 3]\nclass = true", fillcolor="#399de5"] ;
795 -> 797 ;
798 [label="leukocyty <= 8.527\ngini = 0.278\nsamples = 41\nvalue = [11, 55]\nclass = true", fillcolor="#61b1ea"] ;
794 -> 798 ;
799 [label="er-cv <= 68.76\ngini = 0.219\nsamples = 6\nvalue = [7, 1]\nclass = false", fillcolor="#e99355"] ;
798 -> 799 ;
800 [label="gini = 0.0\nsamples = 4\nvalue = [6, 0]\nclass = false", fillcolor="#e58139"] ;
799 -> 800 ;
801 [label="sex_M <= 0.5\ngini = 0.5\nsamples = 2\nvalue = [1, 1]\nclass = false", fillcolor="#ffffff"] ;
799 -> 801 ;
802 [label="gini = 0.0\nsamples = 1\nvalue = [0, 1]\nclass = true", fillcolor="#399de5"] ;
801 -> 802 ;
803 [label="gini = 0.0\nsamples = 1\nvalue = [1, 0]\nclass = false", fillcolor="#e58139"] ;
801 -> 803 ;
804 [label="relationship <= 5.5\ngini = 0.128\nsamples = 35\nvalue = [4, 54]\nclass = true", fillcolor="#48a4e7"] ;
798 -> 804 ;
805 [label="state <= 4.5\ngini = 0.069\nsamples = 34\nvalue = [2, 54]\nclass = true", fillcolor="#40a1e6"] ;
804 -> 805 ;
806 [label="hemoglobin <= 7.015\ngini = 0.375\nsamples = 5\nvalue = [2, 6]\nclass = true", fillcolor="#7bbeee"] ;
805 -> 806 ;
807 [label="gini = 0.0\nsamples = 1\nvalue = [2, 0]\nclass = false", fillcolor="#e58139"] ;
806 -> 807 ;
808 [label="gini = 0.0\nsamples = 4\nvalue = [0, 6]\nclass = true", fillcolor="#399de5"] ;
806 -> 808 ;
809 [label="gini = 0.0\nsamples = 29\nvalue = [0, 48]\nclass = true", fillcolor="#399de5"] ;
805 -> 809 ;
810 [label="gini = 0.0\nsamples = 1\nvalue = [2, 0]\nclass = false", fillcolor="#e58139"] ;
804 -> 810 ;
811 [label="hbver <= 8.479\ngini = 0.224\nsamples = 51\nvalue = [68, 10]\nclass = false", fillcolor="#e99456"] ;
793 -> 811 ;
812 [label="alp <= 67.894\ngini = 0.095\nsamples = 40\nvalue = [57, 3]\nclass = false", fillcolor="#e68843"] ;
811 -> 812 ;
813 [label="gini = 0.0\nsamples = 20\nvalue = [31, 0]\nclass = false", fillcolor="#e58139"] ;
812 -> 813 ;
814 [label="trombocyty <= 7.224\ngini = 0.185\nsamples = 20\nvalue = [26, 3]\nclass = false", fillcolor="#e89050"] ;
812 -> 814 ;
815 [label="etytr <= 7.858\ngini = 0.5\nsamples = 6\nvalue = [3, 3]\nclass = false", fillcolor="#ffffff"] ;
814 -> 815 ;
816 [label="state <= 11.0\ngini = 0.375\nsamples = 4\nvalue = [1, 3]\nclass = true", fillcolor="#7bbeee"] ;
815 -> 816 ;
817 [label="gini = 0.0\nsamples = 1\nvalue = [1, 0]\nclass = false", fillcolor="#e58139"] ;
816 -> 817 ;
818 [label="gini = 0.0\nsamples = 3\nvalue = [0, 3]\nclass = true", fillcolor="#399de5"] ;
816 -> 818 ;
819 [label="gini = 0.0\nsamples = 2\nvalue = [2, 0]\nclass = false", fillcolor="#e58139"] ;
815 -> 819 ;
820 [label="gini = 0.0\nsamples = 14\nvalue = [23, 0]\nclass = false", fillcolor="#e58139"] ;
814 -> 820 ;
821 [label="alt <= 4.261\ngini = 0.475\nsamples = 11\nvalue = [11, 7]\nclass = false", fillcolor="#f6d1b7"] ;
811 -> 821 ;
822 [label="etytr <= 7.701\ngini = 0.42\nsamples = 7\nvalue = [3, 7]\nclass = true", fillcolor="#8ec7f0"] ;
821 -> 822 ;
823 [label="gini = 0.0\nsamples = 5\nvalue = [0, 7]\nclass = true", fillcolor="#399de5"] ;
822 -> 823 ;
824 [label="gini = 0.0\nsamples = 2\nvalue = [3, 0]\nclass = false", fillcolor="#e58139"] ;
822 -> 824 ;
825 [label="gini = 0.0\nsamples = 4\nvalue = [8, 0]\nclass = false", fillcolor="#e58139"] ;
821 -> 825 ;
826 [label="hemoglobin <= 7.391\ngini = 0.135\nsamples = 64\nvalue = [102, 8]\nclass = false", fillcolor="#e78b49"] ;
792 -> 826 ;
827 [label="hematokrit <= 10.873\ngini = 0.328\nsamples = 17\nvalue = [23, 6]\nclass = false", fillcolor="#eca26d"] ;
826 -> 827 ;
828 [label="erytrocyty <= 8.26\ngini = 0.444\nsamples = 6\nvalue = [3, 6]\nclass = true", fillcolor="#9ccef2"] ;
827 -> 828 ;
829 [label="race <= 3.5\ngini = 0.48\nsamples = 4\nvalue = [3, 2]\nclass = false", fillcolor="#f6d5bd"] ;
828 -> 829 ;
830 [label="gini = 0.0\nsamples = 3\nvalue = [3, 0]\nclass = false", fillcolor="#e58139"] ;
829 -> 830 ;
831 [label="gini = 0.0\nsamples = 1\nvalue = [0, 2]\nclass = true", fillcolor="#399de5"] ;
829 -> 831 ;
832 [label="gini = 0.0\nsamples = 2\nvalue = [0, 4]\nclass = true", fillcolor="#399de5"] ;
828 -> 832 ;
833 [label="gini = 0.0\nsamples = 11\nvalue = [20, 0]\nclass = false", fillcolor="#e58139"] ;
827 -> 833 ;
834 [label="erytrocyty <= 9.029\ngini = 0.048\nsamples = 47\nvalue = [79, 2]\nclass = false", fillcolor="#e6843e"] ;
826 -> 834 ;
835 [label="gini = 0.0\nsamples = 39\nvalue = [71, 0]\nclass = false", fillcolor="#e58139"] ;
834 -> 835 ;
836 [label="erytrocyty <= 9.155\ngini = 0.32\nsamples = 8\nvalue = [8, 2]\nclass = false", fillcolor="#eca06a"] ;
834 -> 836 ;
837 [label="gini = 0.0\nsamples = 1\nvalue = [0, 2]\nclass = true", fillcolor="#399de5"] ;
836 -> 837 ;
838 [label="gini = 0.0\nsamples = 7\nvalue = [8, 0]\nclass = false", fillcolor="#e58139"] ;
836 -> 838 ;
839 [label="state <= 47.0\ngini = 0.18\nsamples = 7\nvalue = [1, 9]\nclass = true", fillcolor="#4fa8e8"] ;
777 -> 839 ;
840 [label="gini = 0.0\nsamples = 5\nvalue = [0, 8]\nclass = true", fillcolor="#399de5"] ;
839 -> 840 ;
841 [label="blood_group <= 1.5\ngini = 0.5\nsamples = 2\nvalue = [1, 1]\nclass = false", fillcolor="#ffffff"] ;
839 -> 841 ;
842 [label="gini = 0.0\nsamples = 1\nvalue = [0, 1]\nclass = true", fillcolor="#399de5"] ;
841 -> 842 ;
843 [label="gini = 0.0\nsamples = 1\nvalue = [1, 0]\nclass = false", fillcolor="#e58139"] ;
841 -> 843 ;
844 [label="er-cv <= 31.771\ngini = 0.463\nsamples = 111\nvalue = [66, 115]\nclass = true", fillcolor="#abd5f4"] ;
486 -> 844 ;
845 [label="hemoglobin <= 5.344\ngini = 0.165\nsamples = 8\nvalue = [10, 1]\nclass = false", fillcolor="#e88e4d"] ;
844 -> 845 ;
846 [label="gini = 0.0\nsamples = 1\nvalue = [0, 1]\nclass = true", fillcolor="#399de5"] ;
845 -> 846 ;
847 [label="gini = 0.0\nsamples = 7\nvalue = [10, 0]\nclass = false", fillcolor="#e58139"] ;
845 -> 847 ;
848 [label="trombocyty <= 6.176\ngini = 0.442\nsamples = 103\nvalue = [56, 114]\nclass = true", fillcolor="#9acdf2"] ;
844 -> 848 ;
849 [label="ast <= 56.901\ngini = 0.278\nsamples = 8\nvalue = [10, 2]\nclass = false", fillcolor="#ea9a61"] ;
848 -> 849 ;
850 [label="er-cv <= 54.14\ngini = 0.48\nsamples = 4\nvalue = [3, 2]\nclass = false", fillcolor="#f6d5bd"] ;
849 -> 850 ;
851 [label="gini = 0.0\nsamples = 2\nvalue = [0, 2]\nclass = true", fillcolor="#399de5"] ;
850 -> 851 ;
852 [label="gini = 0.0\nsamples = 2\nvalue = [3, 0]\nclass = false", fillcolor="#e58139"] ;
850 -> 852 ;
853 [label="gini = 0.0\nsamples = 4\nvalue = [7, 0]\nclass = false", fillcolor="#e58139"] ;
849 -> 853 ;
854 [label="state <= 27.5\ngini = 0.413\nsamples = 95\nvalue = [46, 112]\nclass = true", fillcolor="#8ac5f0"] ;
848 -> 854 ;
855 [label="hematokrit <= 8.114\ngini = 0.272\nsamples = 46\nvalue = [13, 67]\nclass = true", fillcolor="#5fb0ea"] ;
854 -> 855 ;
856 [label="hbver <= 7.307\ngini = 0.454\nsamples = 14\nvalue = [8, 15]\nclass = true", fillcolor="#a3d1f3"] ;
855 -> 856 ;
857 [label="blood_group <= 7.0\ngini = 0.124\nsamples = 7\nvalue = [1, 14]\nclass = true", fillcolor="#47a4e7"] ;
856 -> 857 ;
858 [label="gini = 0.0\nsamples = 6\nvalue = [0, 14]\nclass = true", fillcolor="#399de5"] ;
857 -> 858 ;
859 [label="gini = 0.0\nsamples = 1\nvalue = [1, 0]\nclass = false", fillcolor="#e58139"] ;
857 -> 859 ;
860 [label="alp <= 82.665\ngini = 0.219\nsamples = 7\nvalue = [7, 1]\nclass = false", fillcolor="#e99355"] ;
856 -> 860 ;
861 [label="gini = 0.0\nsamples = 6\nvalue = [7, 0]\nclass = false", fillcolor="#e58139"] ;
860 -> 861 ;
862 [label="gini = 0.0\nsamples = 1\nvalue = [0, 1]\nclass = true", fillcolor="#399de5"] ;
860 -> 862 ;
863 [label="hemoglobin <= 8.061\ngini = 0.16\nsamples = 32\nvalue = [5, 52]\nclass = true", fillcolor="#4ca6e8"] ;
855 -> 863 ;
864 [label="blood_group <= 6.5\ngini = 0.039\nsamples = 27\nvalue = [1, 49]\nclass = true", fillcolor="#3d9fe6"] ;
863 -> 864 ;
865 [label="gini = 0.0\nsamples = 22\nvalue = [0, 42]\nclass = true", fillcolor="#399de5"] ;
864 -> 865 ;
866 [label="leukocyty <= 8.369\ngini = 0.219\nsamples = 5\nvalue = [1, 7]\nclass = true", fillcolor="#55abe9"] ;
864 -> 866 ;
