digraph Tree {
node [shape=box, style="filled", color="black"] ;
0 [label="etytr <= 7.607\ngini = 0.449\nsamples = 4094\nvalue = [2201, 4279]\nclass = true", fillcolor="#9fcff2"] ;
1 [label="alt <= 2.966\ngini = 0.497\nsamples = 2390\nvalue = [1741, 2043]\nclass = true", fillcolor="#e2f1fb"] ;
0 -> 1 [labeldistance=2.5, labelangle=45, headlabel="True"] ;
2 [label="trombocyty <= 6.385\ngini = 0.5\nsamples = 885\nvalue = [695, 691]\nclass = false", fillcolor="#fffefe"] ;
1 -> 2 ;
3 [label="hematokrit <= 7.437\ngini = 0.452\nsamples = 88\nvalue = [50, 95]\nclass = true", fillcolor="#a1d1f3"] ;
2 -> 3 ;
4 [label="ast <= 66.689\ngini = 0.411\nsamples = 28\nvalue = [32, 13]\nclass = false", fillcolor="#f0b489"] ;
3 -> 4 ;
5 [label="erytrocyty <= 6.438\ngini = 0.363\nsamples = 27\nvalue = [32, 10]\nclass = false", fillcolor="#eda877"] ;
4 -> 5 ;
6 [label="leukocyty <= 6.57\ngini = 0.497\nsamples = 11\nvalue = [7, 6]\nclass = false", fillcolor="#fbede3"] ;
5 -> 6 ;
7 [label="gini = 0.0\nsamples = 3\nvalue = [0, 5]\nclass = true", fillcolor="#399de5"] ;
6 -> 7 ;
8 [label="relationship <= 5.5\ngini = 0.219\nsamples = 8\nvalue = [7, 1]\nclass = false", fillcolor="#e99355"] ;
6 -> 8 ;
9 [label="gini = 0.0\nsamples = 7\nvalue = [7, 0]\nclass = false", fillcolor="#e58139"] ;
8 -> 9 ;
10 [label="gini = 0.0\nsamples = 1\nvalue = [0, 1]\nclass = true", fillcolor="#399de5"] ;
8 -> 10 ;
11 [label="leukocyty <= 8.493\ngini = 0.238\nsamples = 16\nvalue = [25, 4]\nclass = false", fillcolor="#e99559"] ;
5 -> 11 ;
12 [label="alt <= 1.99\ngini = 0.32\nsamples = 3\nvalue = [1, 4]\nclass = true", fillcolor="#6ab6ec"] ;
11 -> 12 ;
13 [label="gini = 0.0\nsamples = 1\nvalue = [1, 0]\nclass = false", fillcolor="#e58139"] ;
12 -> 13 ;
14 [label="gini = 0.0\nsamples = 2\nvalue = [0, 4]\nclass = true", fillcolor="#399de5"] ;
12 -> 14 ;
15 [label="gini = 0.0\nsamples = 13\nvalue = [24, 0]\nclass = false", fillcolor="#e58139"] ;
11 -> 15 ;
16 [label="gini = 0.0\nsamples = 1\nvalue = [0, 3]\nclass = true", fillcolor="#399de5"] ;
4 -> 16 ;
17 [label="alp <= 54.614\ngini = 0.295\nsamples = 60\nvalue = [18, 82]\nclass = true", fillcolor="#64b3eb"] ;
3 -> 17 ;
18 [label="leukocyty <= 7.553\ngini = 0.489\nsamples = 21\nvalue = [14, 19]\nclass = true", fillcolor="#cbe5f8"] ;
17 -> 18 ;
19 [label="gini = 0.0\nsamples = 4\nvalue = [0, 10]\nclass = true", fillcolor="#399de5"] ;
18 -> 19 ;
20 [label="alt <= 1.596\ngini = 0.476\nsamples = 17\nvalue = [14, 9]\nclass = false", fillcolor="#f6d2b8"] ;
18 -> 20 ;
21 [label="gini = 0.0\nsamples = 3\nvalue = [0, 4]\nclass = true", fillcolor="#399de5"] ;
20 -> 21 ;
22 [label="leukocyty <= 9.803\ngini = 0.388\nsamples = 14\nvalue = [14, 5]\nclass = false", fillcolor="#eeae80"] ;
20 -> 22 ;
23 [label="race <= 4.5\ngini = 0.219\nsamples = 12\nvalue = [14, 2]\nclass = false", fillcolor="#e99355"] ;
22 -> 23 ;
24 [label="gini = 0.0\nsamples = 11\nvalue = [14, 0]\nclass = false", fillcolor="#e58139"] ;
23 -> 24 ;
25 [label="gini = 0.0\nsamples = 1\nvalue = [0, 2]\nclass = true", fillcolor="#399de5"] ;
23 -> 25 ;
26 [label="gini = 0.0\nsamples = 2\nvalue = [0, 3]\nclass = true", fillcolor="#399de5"] ;
22 -> 26 ;
27 [label="hematokrit <= 10.695\ngini = 0.112\nsamples = 39\nvalue = [4, 63]\nclass = true", fillcolor="#46a3e7"] ;
17 -> 27 ;
28 [label="hematokrit <= 7.935\ngini = 0.033\nsamples = 34\nvalue = [1, 59]\nclass = true", fillcolor="#3c9fe5"] ;
27 -> 28 ;
29 [label="erytrocyty <= 5.857\ngini = 0.32\nsamples = 4\nvalue = [1, 4]\nclass = true", fillcolor="#6ab6ec"] ;
28 -> 29 ;
30 [label="gini = 0.0\nsamples = 1\nvalue = [1, 0]\nclass = false", fillcolor="#e58139"] ;
29 -> 30 ;
31 [label="gini = 0.0\nsamples = 3\nvalue = [0, 4]\nclass = true", fillcolor="#399de5"] ;
29 -> 31 ;
32 [label="gini = 0.0\nsamples = 30\nvalue = [0, 55]\nclass = true", fillcolor="#399de5"] ;
28 -> 32 ;
33 [label="blood_group <= 6.0\ngini = 0.49\nsamples = 5\nvalue = [3, 4]\nclass = true", fillcolor="#cee6f8"] ;
27 -> 33 ;
34 [label="hbver <= 7.769\ngini = 0.375\nsamples = 3\nvalue = [3, 1]\nclass = false", fillcolor="#eeab7b"] ;
33 -> 34 ;
35 [label="gini = 0.0\nsamples = 2\nvalue = [3, 0]\nclass = false", fillcolor="#e58139"] ;
34 -> 35 ;
36 [label="gini = 0.0\nsamples = 1\nvalue = [0, 1]\nclass = true", fillcolor="#399de5"] ;
34 -> 36 ;
37 [label="gini = 0.0\nsamples = 2\nvalue = [0, 3]\nclass = true", fillcolor="#399de5"] ;
33 -> 37 ;
38 [label="hemoglobin <= 5.327\ngini = 0.499\nsamples = 797\nvalue = [645, 596]\nclass = false", fillcolor="#fdf5f0"] ;
2 -> 38 ;
39 [label="alp <= 28.608\ngini = 0.379\nsamples = 75\nvalue = [91, 31]\nclass = false", fillcolor="#eeac7c"] ;
38 -> 39 ;
40 [label="ast <= 47.621\ngini = 0.087\nsamples = 12\nvalue = [21, 1]\nclass = false", fillcolor="#e68742"] ;
39 -> 40 ;
41 [label="state <= 32.5\ngini = 0.278\nsamples = 4\nvalue = [5, 1]\nclass = false", fillcolor="#ea9a61"] ;
40 -> 41 ;
42 [label="gini = 0.0\nsamples = 3\nvalue = [5, 0]\nclass = false", fillcolor="#e58139"] ;
41 -> 42 ;
43 [label="gini = 0.0\nsamples = 1\nvalue = [0, 1]\nclass = true", fillcolor="#399de5"] ;
41 -> 43 ;
44 [label="gini = 0.0\nsamples = 8\nvalue = [16, 0]\nclass = false", fillcolor="#e58139"] ;
40 -> 44 ;
45 [label="etytr <= 6.331\ngini = 0.42\nsamples = 63\nvalue = [70, 30]\nclass = false", fillcolor="#f0b78e"] ;
39 -> 45 ;
46 [label="alt <= 1.186\ngini = 0.117\nsamples = 40\nvalue = [60, 4]\nclass = false", fillcolor="#e78946"] ;
45 -> 46 ;
47 [label="etytr <= 5.796\ngini = 0.5\nsamples = 2\nvalue = [2, 2]\nclass = false", fillcolor="#ffffff"] ;
46 -> 47 ;
48 [label="gini = 0.0\nsamples = 1\nvalue = [2, 0]\nclass = false", fillcolor="#e58139"] ;
47 -> 48 ;
49 [label="gini = 0.0\nsamples = 1\nvalue = [0, 2]\nclass = true", fillcolor="#399de5"] ;
47 -> 49 ;
50 [label="hematokrit <= 8.789\ngini = 0.064\nsamples = 38\nvalue = [58, 2]\nclass = false", fillcolor="#e68540"] ;
46 -> 50 ;
51 [label="gini = 0.0\nsamples = 36\nvalue = [58, 0]\nclass = false", fillcolor="#e58139"] ;
50 -> 51 ;
52 [label="gini = 0.0\nsamples = 2\nvalue = [0, 2]\nclass = true", fillcolor="#399de5"] ;
50 -> 52 ;
53 [label="age <= 57.0\ngini = 0.401\nsamples = 23\nvalue = [10, 26]\nclass = true", fillcolor="#85c3ef"] ;
45 -> 53 ;
54 [label="gini = 0.0\nsamples = 11\nvalue = [0, 16]\nclass = true", fillcolor="#399de5"] ;
53 -> 54 ;
55 [label="leukocyty <= 9.543\ngini = 0.5\nsamples = 12\nvalue = [10, 10]\nclass = false", fillcolor="#ffffff"] ;
53 -> 55 ;
56 [label="er-cv <= 41.811\ngini = 0.444\nsamples = 9\nvalue = [10, 5]\nclass = false", fillcolor="#f2c09c"] ;
55 -> 56 ;
57 [label="gini = 0.0\nsamples = 1\nvalue = [0, 3]\nclass = true", fillcolor="#399de5"] ;
56 -> 57 ;
58 [label="ast <= 35.988\ngini = 0.278\nsamples = 8\nvalue = [10, 2]\nclass = false", fillcolor="#ea9a61"] ;
56 -> 58 ;
59 [label="gini = 0.0\nsamples = 1\nvalue = [0, 1]\nclass = true", fillcolor="#399de5"] ;
58 -> 59 ;
60 [label="hematokrit <= 10.262\ngini = 0.165\nsamples = 7\nvalue = [10, 1]\nclass = false", fillcolor="#e88e4d"] ;
58 -> 60 ;
61 [label="gini = 0.0\nsamples = 6\nvalue = [10, 0]\nclass = false", fillcolor="#e58139"] ;
60 -> 61 ;
62 [label="gini = 0.0\nsamples = 1\nvalue = [0, 1]\nclass = true", fillcolor="#399de5"] ;
60 -> 62 ;
63 [label="gini = 0.0\nsamples = 3\nvalue = [0, 5]\nclass = true", fillcolor="#399de5"] ;
55 -> 63 ;
64 [label="ast <= 65.772\ngini = 0.5\nsamples = 722\nvalue = [554, 565]\nclass = true", fillcolor="#fbfdfe"] ;
38 -> 64 ;
65 [label="hematokrit <= 6.858\ngini = 0.499\nsamples = 664\nvalue = [499, 537]\nclass = true", fillcolor="#f1f8fd"] ;
64 -> 65 ;
66 [label="weight <= 108.162\ngini = 0.3\nsamples = 111\nvalue = [142, 32]\nclass = false", fillcolor="#eb9d66"] ;
65 -> 66 ;
67 [label="er-cv <= 65.745\ngini = 0.236\nsamples = 101\nvalue = [139, 22]\nclass = false", fillcolor="#e99558"] ;
66 -> 67 ;
68 [label="etytr <= 5.546\ngini = 0.158\nsamples = 88\nvalue = [127, 12]\nclass = false", fillcolor="#e78d4c"] ;
67 -> 68 ;
69 [label="alp <= 73.466\ngini = 0.303\nsamples = 29\nvalue = [35, 8]\nclass = false", fillcolor="#eb9e66"] ;
68 -> 69 ;
70 [label="relationship <= 2.0\ngini = 0.496\nsamples = 9\nvalue = [5, 6]\nclass = true", fillcolor="#deeffb"] ;
69 -> 70 ;
71 [label="weight <= 60.603\ngini = 0.32\nsamples = 4\nvalue = [4, 1]\nclass = false", fillcolor="#eca06a"] ;
70 -> 71 ;
72 [label="gini = 0.0\nsamples = 1\nvalue = [0, 1]\nclass = true", fillcolor="#399de5"] ;
71 -> 72 ;
73 [label="gini = 0.0\nsamples = 3\nvalue = [4, 0]\nclass = false", fillcolor="#e58139"] ;
71 -> 73 ;
74 [label="blood_group <= 1.5\ngini = 0.278\nsamples = 5\nvalue = [1, 5]\nclass = true", fillcolor="#61b1ea"] ;
70 -> 74 ;
75 [label="gini = 0.0\nsamples = 1\nvalue = [1, 0]\nclass = false", fillcolor="#e58139"] ;
74 -> 75 ;
76 [label="gini = 0.0\nsamples = 4\nvalue = [0, 5]\nclass = true", fillcolor="#399de5"] ;
74 -> 76 ;
77 [label="hematokrit <= 4.132\ngini = 0.117\nsamples = 20\nvalue = [30, 2]\nclass = false", fillcolor="#e78946"] ;
69 -> 77 ;
78 [label="gini = 0.0\nsamples = 1\nvalue = [0, 1]\nclass = true", fillcolor="#399de5"] ;
77 -> 78 ;
79 [label="leukocyty <= 7.379\ngini = 0.062\nsamples = 19\nvalue = [30, 1]\nclass = false", fillcolor="#e68540"] ;
77 -> 79 ;
80 [label="gini = 0.0\nsamples = 1\nvalue = [0, 1]\nclass = true", fillcolor="#399de5"] ;
79 -> 80 ;
81 [label="gini = 0.0\nsamples = 18\nvalue = [30, 0]\nclass = false", fillcolor="#e58139"] ;
79 -> 81 ;
82 [label="erytrocyty <= 5.996\ngini = 0.08\nsamples = 59\nvalue = [92, 4]\nclass = false", fillcolor="#e68642"] ;
68 -> 82 ;
83 [label="leukocyty <= 7.387\ngini = 0.32\nsamples = 7\nvalue = [8, 2]\nclass = false", fillcolor="#eca06a"] ;
82 -> 83 ;
84 [label="gini = 0.0\nsamples = 1\nvalue = [0, 2]\nclass = true", fillcolor="#399de5"] ;
83 -> 84 ;
85 [label="gini = 0.0\nsamples = 6\nvalue = [8, 0]\nclass = false", fillcolor="#e58139"] ;
83 -> 85 ;
86 [label="leukocyty <= 6.529\ngini = 0.045\nsamples = 52\nvalue = [84, 2]\nclass = false", fillcolor="#e6843e"] ;
82 -> 86 ;
87 [label="gini = 0.0\nsamples = 1\nvalue = [0, 1]\nclass = true", fillcolor="#399de5"] ;
86 -> 87 ;
88 [label="state <= 38.0\ngini = 0.023\nsamples = 51\nvalue = [84, 1]\nclass = false", fillcolor="#e5823b"] ;
86 -> 88 ;
89 [label="gini = 0.0\nsamples = 41\nvalue = [70, 0]\nclass = false", fillcolor="#e58139"] ;
88 -> 89 ;
90 [label="blood_group <= 6.0\ngini = 0.124\nsamples = 10\nvalue = [14, 1]\nclass = false", fillcolor="#e78a47"] ;
88 -> 90 ;
91 [label="gini = 0.0\nsamples = 8\nvalue = [12, 0]\nclass = false", fillcolor="#e58139"] ;
90 -> 91 ;
92 [label="etytr <= 7.352\ngini = 0.444\nsamples = 2\nvalue = [2, 1]\nclass = false", fillcolor="#f2c09c"] ;
90 -> 92 ;
93 [label="gini = 0.0\nsamples = 1\nvalue = [2, 0]\nclass = false", fillcolor="#e58139"] ;
92 -> 93 ;
94 [label="gini = 0.0\nsamples = 1\nvalue = [0, 1]\nclass = true", fillcolor="#399de5"] ;
92 -> 94 ;
95 [label="leukocyty <= 7.468\ngini = 0.496\nsamples = 13\nvalue = [12, 10]\nclass = false", fillcolor="#fbeade"] ;
67 -> 95 ;
96 [label="gini = 0.0\nsamples = 4\nvalue = [0, 10]\nclass = true", fillcolor="#399de5"] ;
95 -> 96 ;
97 [label="gini = 0.0\nsamples = 9\nvalue = [12, 0]\nclass = false", fillcolor="#e58139"] ;
95 -> 97 ;
98 [label="state <= 24.5\ngini = 0.355\nsamples = 10\nvalue = [3, 10]\nclass = true", fillcolor="#74baed"] ;
66 -> 98 ;
99 [label="leukocyty <= 8.385\ngini = 0.48\nsamples = 5\nvalue = [3, 2]\nclass = false", fillcolor="#f6d5bd"] ;
98 -> 99 ;
100 [label="er-cv <= 48.915\ngini = 0.444\nsamples = 3\nvalue = [1, 2]\nclass = true", fillcolor="#9ccef2"] ;
99 -> 100 ;
101 [label="gini = 0.0\nsamples = 2\nvalue = [0, 2]\nclass = true", fillcolor="#399de5"] ;
100 -> 101 ;
102 [label="gini = 0.0\nsamples = 1\nvalue = [1, 0]\nclass = false", fillcolor="#e58139"] ;
100 -> 102 ;
103 [label="gini = 0.0\nsamples = 2\nvalue = [2, 0]\nclass = false", fillcolor="#e58139"] ;
99 -> 103 ;
104 [label="gini = 0.0\nsamples = 5\nvalue = [0, 8]\nclass = true", fillcolor="#399de5"] ;
98 -> 104 ;
105 [label="leukocyty <= 7.054\ngini = 0.485\nsamples = 553\nvalue = [357, 505]\nclass = true", fillcolor="#c5e2f7"] ;
65 -> 105 ;
106 [label="trombocyty <= 9.746\ngini = 0.115\nsamples = 67\nvalue = [7, 107]\nclass = true", fillcolor="#46a3e7"] ;
105 -> 106 ;
107 [label="alp <= 10.829\ngini = 0.055\nsamples = 64\nvalue = [3, 104]\nclass = true", fillcolor="#3fa0e6"] ;
106 -> 107 ;
108 [label="gini = 0.0\nsamples = 1\nvalue = [2, 0]\nclass = false", fillcolor="#e58139"] ;
107 -> 108 ;
109 [label="relationship <= 1.5\ngini = 0.019\nsamples = 63\nvalue = [1, 104]\nclass = true", fillcolor="#3b9ee5"] ;
107 -> 109 ;
110 [label="age <= 95.5\ngini = 0.153\nsamples = 10\nvalue = [1, 11]\nclass = true", fillcolor="#4ba6e7"] ;
109 -> 110 ;
111 [label="gini = 0.0\nsamples = 9\nvalue = [0, 11]\nclass = true", fillcolor="#399de5"] ;
110 -> 111 ;
112 [label="gini = 0.0\nsamples = 1\nvalue = [1, 0]\nclass = false", fillcolor="#e58139"] ;
110 -> 112 ;
113 [label="gini = 0.0\nsamples = 53\nvalue = [0, 93]\nclass = true", fillcolor="#399de5"] ;
109 -> 113 ;
114 [label="etytr <= 7.269\ngini = 0.49\nsamples = 3\nvalue = [4, 3]\nclass = false", fillcolor="#f8e0ce"] ;
106 -> 114 ;
115 [label="gini = 0.0\nsamples = 2\nvalue = [0, 3]\nclass = true", fillcolor="#399de5"] ;
114 -> 115 ;
116 [label="gini = 0.0\nsamples = 1\nvalue = [4, 0]\nclass = false", fillcolor="#e58139"] ;
114 -> 116 ;
117 [label="etytr <= 5.262\ngini = 0.498\nsamples = 486\nvalue = [350, 398]\nclass = true", fillcolor="#e7f3fc"] ;
105 -> 117 ;
118 [label="hbver <= 6.012\ngini = 0.395\nsamples = 120\nvalue = [51, 137]\nclass = true", fillcolor="#83c1ef"] ;
117 -> 118 ;
119 [label="hematokrit <= 8.127\ngini = 0.375\nsamples = 6\nvalue = [6, 2]\nclass = false", fillcolor="#eeab7b"] ;
118 -> 119 ;
120 [label="gini = 0.0\nsamples = 2\nvalue = [0, 2]\nclass = true", fillcolor="#399de5"] ;
119 -> 120 ;
121 [label="gini = 0.0\nsamples = 4\nvalue = [6, 0]\nclass = false", fillcolor="#e58139"] ;
119 -> 121 ;
122 [label="hemoglobin <= 6.63\ngini = 0.375\nsamples = 114\nvalue = [45, 135]\nclass = true", fillcolor="#7bbeee"] ;
118 -> 122 ;
123 [label="etytr <= 4.844\ngini = 0.488\nsamples = 16\nvalue = [15, 11]\nclass = false", fillcolor="#f8ddca"] ;
122 -> 123 ;
124 [label="ast <= 49.956\ngini = 0.332\nsamples = 11\nvalue = [15, 4]\nclass = false", fillcolor="#eca36e"] ;
123 -> 124 ;
125 [label="hematokrit <= 8.93\ngini = 0.5\nsamples = 4\nvalue = [4, 4]\nclass = false", fillcolor="#ffffff"] ;
124 -> 125 ;
126 [label="gini = 0.0\nsamples = 2\nvalue = [4, 0]\nclass = false", fillcolor="#e58139"] ;
125 -> 126 ;
127 [label="gini = 0.0\nsamples = 2\nvalue = [0, 4]\nclass = true", fillcolor="#399de5"] ;
125 -> 127 ;
128 [label="gini = 0.0\nsamples = 7\nvalue = [11, 0]\nclass = false", fillcolor="#e58139"] ;
124 -> 128 ;
129 [label="gini = 0.0\nsamples = 5\nvalue = [0, 7]\nclass = true", fillcolor="#399de5"] ;
123 -> 129 ;
130 [label="hbver <= 9.089\ngini = 0.314\nsamples = 98\nvalue = [30, 124]\nclass = true", fillcolor="#69b5eb"] ;
122 -> 130 ;
131 [label="leukocyty <= 7.542\ngini = 0.29\nsamples = 93\nvalue = [26, 122]\nclass = true", fillcolor="#63b2eb"] ;
130 -> 131 ;
132 [label="ast <= 43.755\ngini = 0.444\nsamples = 5\nvalue = [6, 3]\nclass = false", fillcolor="#f2c09c"] ;
131 -> 132 ;
133 [label="gini = 0.0\nsamples = 2\nvalue = [0, 3]\nclass = true", fillcolor="#399de5"] ;
132 -> 133 ;
134 [label="gini = 0.0\nsamples = 3\nvalue = [6, 0]\nclass = false", fillcolor="#e58139"] ;
132 -> 134 ;
135 [label="hematokrit <= 10.344\ngini = 0.246\nsamples = 88\nvalue = [20, 119]\nclass = true", fillcolor="#5aade9"] ;
131 -> 135 ;
136 [label="alp <= 86.706\ngini = 0.15\nsamples = 75\nvalue = [10, 112]\nclass = true", fillcolor="#4ba6e7"] ;
135 -> 136 ;
137 [label="erytrocyty <= 6.874\ngini = 0.138\nsamples = 74\nvalue = [9, 112]\nclass = true", fillcolor="#49a5e7"] ;
136 -> 137 ;
138 [label="alp <= 43.322\ngini = 0.209\nsamples = 45\nvalue = [9, 67]\nclass = true", fillcolor="#54aae8"] ;
137 -> 138 ;
139 [label="weight <= 110.222\ngini = 0.05\nsamples = 23\nvalue = [1, 38]\nclass = true", fillcolor="#3ea0e6"] ;
138 -> 139 ;
140 [label="gini = 0.0\nsamples = 20\nvalue = [0, 35]\nclass = true", fillcolor="#399de5"] ;
139 -> 140 ;
141 [label="sex_M <= 0.5\ngini = 0.375\nsamples = 3\nvalue = [1, 3]\nclass = true", fillcolor="#7bbeee"] ;
139 -> 141 ;
142 [label="gini = 0.0\nsamples = 2\nvalue = [0, 3]\nclass = true", fillcolor="#399de5"] ;
141 -> 142 ;
143 [label="gini = 0.0\nsamples = 1\nvalue = [1, 0]\nclass = false", fillcolor="#e58139"] ;
141 -> 143 ;
144 [label="erytrocyty <= 6.865\ngini = 0.339\nsamples = 22\nvalue = [8, 29]\nclass = true", fillcolor="#70b8ec"] ;
138 -> 144 ;
145 [label="hematokrit <= 8.628\ngini = 0.313\nsamples = 21\nvalue = [7, 29]\nclass = true", fillcolor="#69b5eb"] ;
144 -> 145 ;
146 [label="gini = 0.0\nsamples = 11\nvalue = [0, 17]\nclass = true", fillcolor="#399de5"] ;
145 -> 146 ;
147 [label="hemoglobin <= 7.68\ngini = 0.465\nsamples = 10\nvalue = [7, 12]\nclass = true", fillcolor="#acd6f4"] ;
145 -> 147 ;
148 [label="age <= 73.0\ngini = 0.153\nsamples = 6\nvalue = [1, 11]\nclass = true", fillcolor="#4ba6e7"] ;
147 -> 148 ;
149 [label="gini = 0.0\nsamples = 5\nvalue = [0, 11]\nclass = true", fillcolor="#399de5"] ;
148 -> 149 ;
150 [label="gini = 0.0\nsamples = 1\nvalue = [1, 0]\nclass = false", fillcolor="#e58139"] ;
148 -> 150 ;
151 [label="blood_group <= 5.5\ngini = 0.245\nsamples = 4\nvalue = [6, 1]\nclass = false", fillcolor="#e9965a"] ;
147 -> 151 ;
152 [label="gini = 0.0\nsamples = 2\nvalue = [5, 0]\nclass = false", fillcolor="#e58139"] ;
151 -> 152 ;
153 [label="er-cv <= 57.669\ngini = 0.5\nsamples = 2\nvalue = [1, 1]\nclass = false", fillcolor="#ffffff"] ;
151 -> 153 ;
154 [label="gini = 0.0\nsamples = 1\nvalue = [1, 0]\nclass = false", fillcolor="#e58139"] ;
153 -> 154 ;
155 [label="gini = 0.0\nsamples = 1\nvalue = [0, 1]\nclass = true", fillcolor="#399de5"] ;
153 -> 155 ;
156 [label="gini = 0.0\nsamples = 1\nvalue = [1, 0]\nclass = false", fillcolor="#e58139"] ;
144 -> 156 ;
157 [label="gini = 0.0\nsamples = 29\nvalue = [0, 45]\nclass = true", fillcolor="#399de5"] ;
137 -> 157 ;
158 [label="gini = 0.0\nsamples = 1\nvalue = [1, 0]\nclass = false", fillcolor="#e58139"] ;
136 -> 158 ;
159 [label="hemoglobin <= 7.055\ngini = 0.484\nsamples = 13\nvalue = [10, 7]\nclass = false", fillcolor="#f7d9c4"] ;
135 -> 159 ;
160 [label="gini = 0.0\nsamples = 4\nvalue = [0, 6]\nclass = true", fillcolor="#399de5"] ;
159 -> 160 ;
161 [label="race <= 1.5\ngini = 0.165\nsamples = 9\nvalue = [10, 1]\nclass = false", fillcolor="#e88e4d"] ;
159 -> 161 ;
162 [label="gini = 0.0\nsamples = 4\nvalue = [6, 0]\nclass = false", fillcolor="#e58139"] ;
161 -> 162 ;
163 [label="alp <= 42.933\ngini = 0.32\nsamples = 5\nvalue = [4, 1]\nclass = false", fillcolor="#eca06a"] ;
161 -> 163 ;
164 [label="gini = 0.0\nsamples = 1\nvalue = [0, 1]\nclass = true", fillcolor="#399de5"] ;
163 -> 164 ;
165 [label="gini = 0.0\nsamples = 4\nvalue = [4, 0]\nclass = false", fillcolor="#e58139"] ;
163 -> 165 ;
166 [label="weight <= 31.947\ngini = 0.444\nsamples = 5\nvalue = [4, 2]\nclass = false", fillcolor="#f2c09c"] ;
130 -> 166 ;
167 [label="gini = 0.0\nsamples = 2\nvalue = [0, 2]\nclass = true", fillcolor="#399de5"] ;
166 -> 167 ;
168 [label="gini = 0.0\nsamples = 3\nvalue = [4, 0]\nclass = false", fillcolor="#e58139"] ;
166 -> 168 ;
169 [label="hematokrit <= 8.083\ngini = 0.498\nsamples = 366\nvalue = [299, 261]\nclass = false", fillcolor="#fcefe6"] ;
117 -> 169 ;
170 [label="erytrocyty <= 7.412\ngini = 0.385\nsamples = 97\nvalue = [114, 40]\nclass = false", fillcolor="#eead7e"] ;
169 -> 170 ;
171 [label="hbver <= 7.75\ngini = 0.424\nsamples = 83\nvalue = [89, 39]\nclass = false", fillcolor="#f0b890"] ;
170 -> 171 ;
172 [label="relationship <= 1.5\ngini = 0.259\nsamples = 38\nvalue = [50, 9]\nclass = false", fillcolor="#ea985d"] ;
171 -> 172 ;
173 [label="alp <= 49.392\ngini = 0.473\nsamples = 10\nvalue = [8, 5]\nclass = false", fillcolor="#f5d0b5"] ;
172 -> 173 ;
174 [label="gini = 0.0\nsamples = 5\nvalue = [7, 0]\nclass = false", fillcolor="#e58139"] ;
173 -> 174 ;
175 [label="hbver <= 7.573\ngini = 0.278\nsamples = 5\nvalue = [1, 5]\nclass = true", fillcolor="#61b1ea"] ;
173 -> 175 ;
176 [label="gini = 0.0\nsamples = 4\nvalue = [0, 5]\nclass = true", fillcolor="#399de5"] ;
175 -> 176 ;
177 [label="gini = 0.0\nsamples = 1\nvalue = [1, 0]\nclass = false", fillcolor="#e58139"] ;
175 -> 177 ;
178 [label="etytr <= 5.446\ngini = 0.159\nsamples = 28\nvalue = [42, 4]\nclass = false", fillcolor="#e78d4c"] ;
172 -> 178 ;
179 [label="gini = 0.0\nsamples = 1\nvalue = [0, 1]\nclass = true", fillcolor="#399de5"] ;
178 -> 179 ;
180 [label="weight <= 86.954\ngini = 0.124\nsamples = 27\nvalue = [42, 3]\nclass = false", fillcolor="#e78a47"] ;
178 -> 180 ;
181 [label="gini = 0.0\nsamples = 21\nvalue = [38, 0]\nclass = false", fillcolor="#e58139"] ;
180 -> 181 ;
182 [label="trombocyty <= 7.408\ngini = 0.49\nsamples = 6\nvalue = [4, 3]\nclass = false", fillcolor="#f8e0ce"] ;
180 -> 182 ;
183 [label="gini = 0.0\nsamples = 2\nvalue = [3, 0]\nclass = false", fillcolor="#e58139"] ;
182 -> 183 ;
184 [label="race <= 1.5\ngini = 0.375\nsamples = 4\nvalue = [1, 3]\nclass = true", fillcolor="#7bbeee"] ;
182 -> 184 ;
185 [label="gini = 0.0\nsamples = 1\nvalue = [1, 0]\nclass = false", fillcolor="#e58139"] ;
184 -> 185 ;
186 [label="gini = 0.0\nsamples = 3\nvalue = [0, 3]\nclass = true", fillcolor="#399de5"] ;
184 -> 186 ;
187 [label="alp <= 44.452\ngini = 0.491\nsamples = 45\nvalue = [39, 30]\nclass = false", fillcolor="#f9e2d1"] ;
171 -> 187 ;
188 [label="hbver <= 8.914\ngini = 0.161\nsamples = 21\nvalue = [31, 3]\nclass = false", fillcolor="#e88d4c"] ;
187 -> 188 ;
189 [label="gini = 0.0\nsamples = 17\nvalue = [24, 0]\nclass = false", fillcolor="#e58139"] ;
188 -> 189 ;
190 [label="leukocyty <= 8.328\ngini = 0.42\nsamples = 4\nvalue = [7, 3]\nclass = false", fillcolor="#f0b78e"] ;
188 -> 190 ;
191 [label="gini = 0.0\nsamples = 3\nvalue = [7, 0]\nclass = false", fillcolor="#e58139"] ;
190 -> 191 ;
192 [label="gini = 0.0\nsamples = 1\nvalue = [0, 3]\nclass = true", fillcolor="#399de5"] ;
190 -> 192 ;
193 [label="alt <= 2.84\ngini = 0.353\nsamples = 24\nvalue = [8, 27]\nclass = true", fillcolor="#74baed"] ;
187 -> 193 ;
194 [label="hbver <= 9.61\ngini = 0.327\nsamples = 23\nvalue = [7, 27]\nclass = true", fillcolor="#6cb6ec"] ;
193 -> 194 ;
195 [label="relationship <= 3.5\ngini = 0.298\nsamples = 22\nvalue = [6, 27]\nclass = true", fillcolor="#65b3eb"] ;
194 -> 195 ;
196 [label="race <= 2.5\ngini = 0.111\nsamples = 11\nvalue = [1, 16]\nclass = true", fillcolor="#45a3e7"] ;
195 -> 196 ;
197 [label="gini = 0.0\nsamples = 7\nvalue = [0, 11]\nclass = true", fillcolor="#399de5"] ;
196 -> 197 ;
198 [label="alp <= 87.092\ngini = 0.278\nsamples = 4\nvalue = [1, 5]\nclass = true", fillcolor="#61b1ea"] ;
196 -> 198 ;
199 [label="gini = 0.0\nsamples = 3\nvalue = [0, 5]\nclass = true", fillcolor="#399de5"] ;
198 -> 199 ;
200 [label="gini = 0.0\nsamples = 1\nvalue = [1, 0]\nclass = false", fillcolor="#e58139"] ;
198 -> 200 ;
201 [label="etytr <= 6.543\ngini = 0.43\nsamples = 11\nvalue = [5, 11]\nclass = true", fillcolor="#93caf1"] ;
195 -> 201 ;
202 [label="relationship <= 5.5\ngini = 0.219\nsamples = 6\nvalue = [1, 7]\nclass = true", fillcolor="#55abe9"] ;
201 -> 202 ;
203 [label="gini = 0.0\nsamples = 5\nvalue = [0, 7]\nclass = true", fillcolor="#399de5"] ;
202 -> 203 ;
204 [label="gini = 0.0\nsamples = 1\nvalue = [1, 0]\nclass = false", fillcolor="#e58139"] ;
202 -> 204 ;
205 [label="weight <= 53.669\ngini = 0.5\nsamples = 5\nvalue = [4, 4]\nclass = false", fillcolor="#ffffff"] ;
201 -> 205 ;
206 [label="gini = 0.0\nsamples = 3\nvalue = [4, 0]\nclass = false", fillcolor="#e58139"] ;
205 -> 206 ;
207 [label="gini = 0.0\nsamples = 2\nvalue = [0, 4]\nclass = true", fillcolor="#399de5"] ;
205 -> 207 ;
208 [label="gini = 0.0\nsamples = 1\nvalue = [1, 0]\nclass = false", fillcolor="#e58139"] ;
194 -> 208 ;
209 [label="gini = 0.0\nsamples = 1\nvalue = [1, 0]\nclass = false", fillcolor="#e58139"] ;
193 -> 209 ;
210 [label="weight <= 110.737\ngini = 0.074\nsamples = 14\nvalue = [25, 1]\nclass = false", fillcolor="#e68641"] ;
170 -> 210 ;
211 [label="gini = 0.0\nsamples = 13\nvalue = [25, 0]\nclass = false", fillcolor="#e58139"] ;
210 -> 211 ;
212 [label="gini = 0.0\nsamples = 1\nvalue = [0, 1]\nclass = true", fillcolor="#399de5"] ;
210 -> 212 ;
213 [label="er-cv <= 81.451\ngini = 0.496\nsamples = 269\nvalue = [185, 221]\nclass = true", fillcolor="#dfeffb"] ;
169 -> 213 ;
214 [label="alt <= 2.056\ngini = 0.495\nsamples = 266\nvalue = [180, 221]\nclass = true", fillcolor="#daedfa"] ;
213 -> 214 ;
215 [label="alt <= 1.936\ngini = 0.471\nsamples = 125\nvalue = [71, 116]\nclass = true", fillcolor="#b2d9f5"] ;
214 -> 215 ;
216 [label="hbver <= 8.76\ngini = 0.486\nsamples = 106\nvalue = [66, 92]\nclass = true", fillcolor="#c7e3f8"] ;
215 -> 216 ;
217 [label="alt <= 0.939\ngini = 0.467\nsamples = 89\nvalue = [49, 83]\nclass = true", fillcolor="#aed7f4"] ;
216 -> 217 ;
218 [label="alp <= 41.802\ngini = 0.426\nsamples = 8\nvalue = [9, 4]\nclass = false", fillcolor="#f1b991"] ;
217 -> 218 ;
219 [label="gini = 0.0\nsamples = 5\nvalue = [7, 0]\nclass = false", fillcolor="#e58139"] ;
218 -> 219 ;
220 [label="alt <= 0.662\ngini = 0.444\nsamples = 3\nvalue = [2, 4]\nclass = true", fillcolor="#9ccef2"] ;
218 -> 220 ;
221 [label="gini = 0.0\nsamples = 1\nvalue = [0, 2]\nclass = true", fillcolor="#399de5"] ;
220 -> 221 ;
222 [label="er-cv <= 47.484\ngini = 0.5\nsamples = 2\nvalue = [2, 2]\nclass = false", fillcolor="#ffffff"] ;
220 -> 222 ;
223 [label="gini = 0.0\nsamples = 1\nvalue = [0, 2]\nclass = true", fillcolor="#399de5"] ;
222 -> 223 ;
224 [label="gini = 0.0\nsamples = 1\nvalue = [2, 0]\nclass = false", fillcolor="#e58139"] ;
222 -> 224 ;
225 [label="leukocyty <= 9.463\ngini = 0.446\nsamples = 81\nvalue = [40, 79]\nclass = true", fillcolor="#9dcff2"] ;
217 -> 225 ;
226 [label="er-cv <= 57.727\ngini = 0.5\nsamples = 53\nvalue = [38, 39]\nclass = true", fillcolor="#fafcfe"] ;
225 -> 226 ;
227 [label="hemoglobin <= 7.807\ngini = 0.45\nsamples = 28\nvalue = [13, 25]\nclass = true", fillcolor="#a0d0f3"] ;
226 -> 227 ;
228 [label="gini = 0.0\nsamples = 17\nvalue = [0, 23]\nclass = true", fillcolor="#399de5"] ;
227 -> 228 ;
229 [label="state <= 15.5\ngini = 0.231\nsamples = 11\nvalue = [13, 2]\nclass = false", fillcolor="#e99457"] ;
227 -> 229 ;
230 [label="state <= 5.5\ngini = 0.48\nsamples = 4\nvalue = [3, 2]\nclass = false", fillcolor="#f6d5bd"] ;
229 -> 230 ;
231 [label="gini = 0.0\nsamples = 3\nvalue = [3, 0]\nclass = false", fillcolor="#e58139"] ;
230 -> 231 ;
232 [label="gini = 0.0\nsamples = 1\nvalue = [0, 2]\nclass = true", fillcolor="#399de5"] ;
230 -> 232 ;
233 [label="gini = 0.0\nsamples = 7\nvalue = [10, 0]\nclass = false", fillcolor="#e58139"] ;
229 -> 233 ;
234 [label="relationship <= 2.5\ngini = 0.46\nsamples = 25\nvalue = [25, 14]\nclass = false", fillcolor="#f4c8a8"] ;
226 -> 234 ;
235 [label="trombocyty <= 8.454\ngini = 0.408\nsamples = 5\nvalue = [2, 5]\nclass = true", fillcolor="#88c4ef"] ;
234 -> 235 ;
236 [label="weight <= 105.668\ngini = 0.278\nsamples = 4\nvalue = [1, 5]\nclass = true", fillcolor="#61b1ea"] ;
235 -> 236 ;
237 [label="gini = 0.0\nsamples = 3\nvalue = [0, 5]\nclass = true", fillcolor="#399de5"] ;
236 -> 237 ;
238 [label="gini = 0.0\nsamples = 1\nvalue = [1, 0]\nclass = false", fillcolor="#e58139"] ;
236 -> 238 ;
239 [label="gini = 0.0\nsamples = 1\nvalue = [1, 0]\nclass = false", fillcolor="#e58139"] ;
235 -> 239 ;
240 [label="alp <= 68.446\ngini = 0.404\nsamples = 20\nvalue = [23, 9]\nclass = false", fillcolor="#efb286"] ;
234 -> 240 ;
241 [label="gini = 0.0\nsamples = 11\nvalue = [21, 0]\nclass = false", fillcolor="#e58139"] ;
240 -> 241 ;
242 [label="alt <= 0.991\ngini = 0.298\nsamples = 9\nvalue = [2, 9]\nclass = true", fillcolor="#65b3eb"] ;
240 -> 242 ;
243 [label="gini = 0.0\nsamples = 1\nvalue = [2, 0]\nclass = false", fillcolor="#e58139"] ;
242 -> 243 ;
244 [label="gini = 0.0\nsamples = 8\nvalue = [0, 9]\nclass = true", fillcolor="#399de5"] ;
242 -> 244 ;
245 [label="age <= 32.5\ngini = 0.091\nsamples = 28\nvalue = [2, 40]\nclass = true", fillcolor="#43a2e6"] ;
225 -> 245 ;
246 [label="er-cv <= 62.637\ngini = 0.408\nsamples = 6\nvalue = [2, 5]\nclass = true", fillcolor="#88c4ef"] ;
245 -> 246 ;
247 [label="gini = 0.0\nsamples = 3\nvalue = [0, 4]\nclass = true", fillcolor="#399de5"] ;
246 -> 247 ;
248 [label="weight <= 74.395\ngini = 0.444\nsamples = 3\nvalue = [2, 1]\nclass = false", fillcolor="#f2c09c"] ;
246 -> 248 ;
249 [label="gini = 0.0\nsamples = 2\nvalue = [2, 0]\nclass = false", fillcolor="#e58139"] ;
248 -> 249 ;
250 [label="gini = 0.0\nsamples = 1\nvalue = [0, 1]\nclass = true", fillcolor="#399de5"] ;
248 -> 250 ;
251 [label="gini = 0.0\nsamples = 22\nvalue = [0, 35]\nclass = true", fillcolor="#399de5"] ;
245 -> 251 ;
252 [label="hbver <= 9.445\ngini = 0.453\nsamples = 17\nvalue = [17, 9]\nclass = false", fillcolor="#f3c4a2"] ;
216 -> 252 ;
253 [label="hemoglobin <= 6.685\ngini = 0.198\nsamples = 13\nvalue = [16, 2]\nclass = false", fillcolor="#e89152"] ;
252 -> 253 ;
254 [label="gini = 0.0\nsamples = 2\nvalue = [0, 2]\nclass = true", fillcolor="#399de5"] ;
253 -> 254 ;
255 [label="gini = 0.0\nsamples = 11\nvalue = [16, 0]\nclass = false", fillcolor="#e58139"] ;
253 -> 255 ;
256 [label="age <= 94.5\ngini = 0.219\nsamples = 4\nvalue = [1, 7]\nclass = true", fillcolor="#55abe9"] ;
252 -> 256 ;
257 [label="gini = 0.0\nsamples = 3\nvalue = [0, 7]\nclass = true", fillcolor="#399de5"] ;
256 -> 257 ;
258 [label="gini = 0.0\nsamples = 1\nvalue = [1, 0]\nclass = false", fillcolor="#e58139"] ;
256 -> 258 ;
259 [label="blood_group <= 5.5\ngini = 0.285\nsamples = 19\nvalue = [5, 24]\nclass = true", fillcolor="#62b1ea"] ;
215 -> 259 ;
260 [label="er-cv <= 35.324\ngini = 0.211\nsamples = 16\nvalue = [3, 22]\nclass = true", fillcolor="#54aae9"] ;
259 -> 260 ;
261 [label="gini = 0.0\nsamples = 1\nvalue = [1, 0]\nclass = false", fillcolor="#e58139"] ;
260 -> 261 ;
262 [label="weight <= 115.394\ngini = 0.153\nsamples = 15\nvalue = [2, 22]\nclass = true", fillcolor="#4ba6e7"] ;
260 -> 262 ;
263 [label="gini = 0.0\nsamples = 14\nvalue = [0, 22]\nclass = true", fillcolor="#399de5"] ;
262 -> 263 ;
264 [label="gini = 0.0\nsamples = 1\nvalue = [2, 0]\nclass = false", fillcolor="#e58139"] ;
262 -> 264 ;
265 [label="hemoglobin <= 7.473\ngini = 0.5\nsamples = 3\nvalue = [2, 2]\nclass = false", fillcolor="#ffffff"] ;
259 -> 265 ;
266 [label="gini = 0.0\nsamples = 1\nvalue = [0, 2]\nclass = true", fillcolor="#399de5"] ;
265 -> 266 ;
267 [label="gini = 0.0\nsamples = 2\nvalue = [2, 0]\nclass = false", fillcolor="#e58139"] ;
265 -> 267 ;
268 [label="etytr <= 7.415\ngini = 0.5\nsamples = 141\nvalue = [109, 105]\nclass = false", fillcolor="#fefaf8"] ;
214 -> 268 ;
269 [label="alt <= 2.698\ngini = 0.5\nsamples = 131\nvalue = [96, 102]\nclass = true", fillcolor="#f3f9fd"] ;
268 -> 269 ;
270 [label="alt <= 2.615\ngini = 0.496\nsamples = 88\nvalue = [72, 60]\nclass = false", fillcolor="#fbeade"] ;
269 -> 270 ;
271 [label="weight <= 46.617\ngini = 0.5\nsamples = 74\nvalue = [55, 57]\nclass = true", fillcolor="#f8fcfe"] ;
270 -> 271 ;
272 [label="er-cv <= 38.487\ngini = 0.346\nsamples = 19\nvalue = [21, 6]\nclass = false", fillcolor="#eca572"] ;
271 -> 272 ;
273 [label="hbver <= 7.59\ngini = 0.375\nsamples = 3\nvalue = [1, 3]\nclass = true", fillcolor="#7bbeee"] ;
272 -> 273 ;
274 [label="gini = 0.0\nsamples = 1\nvalue = [0, 2]\nclass = true", fillcolor="#399de5"] ;
273 -> 274 ;
275 [label="blood_group <= 2.5\ngini = 0.5\nsamples = 2\nvalue = [1, 1]\nclass = false", fillcolor="#ffffff"] ;
273 -> 275 ;
276 [label="gini = 0.0\nsamples = 1\nvalue = [1, 0]\nclass = false", fillcolor="#e58139"] ;
275 -> 276 ;
277 [label="gini = 0.0\nsamples = 1\nvalue = [0, 1]\nclass = true", fillcolor="#399de5"] ;
275 -> 277 ;
278 [label="state <= 39.0\ngini = 0.227\nsamples = 16\nvalue = [20, 3]\nclass = false", fillcolor="#e99457"] ;
272 -> 278 ;
279 [label="hemoglobin <= 8.082\ngini = 0.165\nsamples = 15\nvalue = [20, 2]\nclass = false", fillcolor="#e88e4d"] ;
278 -> 279 ;
280 [label="hematokrit <= 9.875\ngini = 0.5\nsamples = 3\nvalue = [2, 2]\nclass = false", fillcolor="#ffffff"] ;
279 -> 280 ;
281 [label="gini = 0.0\nsamples = 1\nvalue = [0, 2]\nclass = true", fillcolor="#399de5"] ;
280 -> 281 ;
282 [label="gini = 0.0\nsamples = 2\nvalue = [2, 0]\nclass = false", fillcolor="#e58139"] ;
280 -> 282 ;
283 [label="gini = 0.0\nsamples = 12\nvalue = [18, 0]\nclass = false", fillcolor="#e58139"] ;
279 -> 283 ;
284 [label="gini = 0.0\nsamples = 1\nvalue = [0, 1]\nclass = true", fillcolor="#399de5"] ;
278 -> 284 ;
285 [label="etytr <= 6.551\ngini = 0.48\nsamples = 55\nvalue = [34, 51]\nclass = true", fillcolor="#bddef6"] ;
271 -> 285 ;
286 [label="hemoglobin <= 7.528\ngini = 0.5\nsamples = 35\nvalue = [29, 28]\nclass = false", fillcolor="#fefbf8"] ;
285 -> 286 ;
287 [label="leukocyty <= 9.407\ngini = 0.305\nsamples = 19\nvalue = [6, 26]\nclass = true", fillcolor="#67b4eb"] ;
286 -> 287 ;
288 [label="gini = 0.0\nsamples = 8\nvalue = [0, 18]\nclass = true", fillcolor="#399de5"] ;
287 -> 288 ;
289 [label="alp <= 77.509\ngini = 0.49\nsamples = 11\nvalue = [6, 8]\nclass = true", fillcolor="#cee6f8"] ;
287 -> 289 ;
290 [label="age <= 45.0\ngini = 0.278\nsamples = 4\nvalue = [5, 1]\nclass = false", fillcolor="#ea9a61"] ;
289 -> 290 ;
291 [label="gini = 0.0\nsamples = 1\nvalue = [0, 1]\nclass = true", fillcolor="#399de5"] ;
290 -> 291 ;
292 [label="gini = 0.0\nsamples = 3\nvalue = [5, 0]\nclass = false", fillcolor="#e58139"] ;
290 -> 292 ;
293 [label="er-cv <= 79.715\ngini = 0.219\nsamples = 7\nvalue = [1, 7]\nclass = true", fillcolor="#55abe9"] ;
289 -> 293 ;
294 [label="gini = 0.0\nsamples = 6\nvalue = [0, 7]\nclass = true", fillcolor="#399de5"] ;
293 -> 294 ;
295 [label="gini = 0.0\nsamples = 1\nvalue = [1, 0]\nclass = false", fillcolor="#e58139"] ;
293 -> 295 ;
296 [label="ast <= 61.047\ngini = 0.147\nsamples = 16\nvalue = [23, 2]\nclass = false", fillcolor="#e78c4a"] ;
286 -> 296 ;
297 [label="gini = 0.0\nsamples = 15\nvalue = [23, 0]\nclass = false", fillcolor="#e58139"] ;
296 -> 297 ;
298 [label="gini = 0.0\nsamples = 1\nvalue = [0, 2]\nclass = true", fillcolor="#399de5"] ;
296 -> 298 ;
299 [label="age <= 33.5\ngini = 0.293\nsamples = 20\nvalue = [5, 23]\nclass = true", fillcolor="#64b2eb"] ;
285 -> 299 ;
300 [label="state <= 11.5\ngini = 0.494\nsamples = 9\nvalue = [4, 5]\nclass = true", fillcolor="#d7ebfa"] ;
299 -> 300 ;
301 [label="gini = 0.0\nsamples = 2\nvalue = [2, 0]\nclass = false", fillcolor="#e58139"] ;
300 -> 301 ;
302 [label="er-cv <= 43.217\ngini = 0.408\nsamples = 7\nvalue = [2, 5]\nclass = true", fillcolor="#88c4ef"] ;
300 -> 302 ;
303 [label="gini = 0.0\nsamples = 2\nvalue = [2, 0]\nclass = false", fillcolor="#e58139"] ;
302 -> 303 ;
304 [label="gini = 0.0\nsamples = 5\nvalue = [0, 5]\nclass = true", fillcolor="#399de5"] ;
302 -> 304 ;
305 [label="erytrocyty <= 6.174\ngini = 0.1\nsamples = 11\nvalue = [1, 18]\nclass = true", fillcolor="#44a2e6"] ;
299 -> 305 ;
306 [label="gini = 0.0\nsamples = 1\nvalue = [1, 0]\nclass = false", fillcolor="#e58139"] ;
305 -> 306 ;
307 [label="gini = 0.0\nsamples = 10\nvalue = [0, 18]\nclass = true", fillcolor="#399de5"] ;
305 -> 307 ;
308 [label="trombocyty <= 9.034\ngini = 0.255\nsamples = 14\nvalue = [17, 3]\nclass = false", fillcolor="#ea975c"] ;
270 -> 308 ;
309 [label="state <= 42.0\ngini = 0.111\nsamples = 12\nvalue = [16, 1]\nclass = false", fillcolor="#e78945"] ;
308 -> 309 ;
310 [label="gini = 0.0\nsamples = 8\nvalue = [11, 0]\nclass = false", fillcolor="#e58139"] ;
309 -> 310 ;
311 [label="trombocyty <= 7.111\ngini = 0.278\nsamples = 4\nvalue = [5, 1]\nclass = false", fillcolor="#ea9a61"] ;
309 -> 311 ;
312 [label="gini = 0.0\nsamples = 1\nvalue = [0, 1]\nclass = true", fillcolor="#399de5"] ;
311 -> 312 ;
313 [label="gini = 0.0\nsamples = 3\nvalue = [5, 0]\nclass = false", fillcolor="#e58139"] ;
311 -> 313 ;
314 [label="hbver <= 6.42\ngini = 0.444\nsamples = 2\nvalue = [1, 2]\nclass = true", fillcolor="#9ccef2"] ;
308 -> 314 ;
315 [label="gini = 0.0\nsamples = 1\nvalue = [1, 0]\nclass = false", fillcolor="#e58139"] ;
314 -> 315 ;
316 [label="gini = 0.0\nsamples = 1\nvalue = [0, 2]\nclass = true", fillcolor="#399de5"] ;
314 -> 316 ;
317 [label="etytr <= 6.948\ngini = 0.463\nsamples = 43\nvalue = [24, 42]\nclass = true", fillcolor="#aad5f4"] ;
269 -> 317 ;
318 [label="hematokrit <= 9.886\ngini = 0.38\nsamples = 36\nvalue = [14, 41]\nclass = true", fillcolor="#7dbeee"] ;
317 -> 318 ;
319 [label="alp <= 23.872\ngini = 0.149\nsamples = 24\nvalue = [3, 34]\nclass = true", fillcolor="#4aa6e7"] ;
318 -> 319 ;
320 [label="gini = 0.0\nsamples = 1\nvalue = [2, 0]\nclass = false", fillcolor="#e58139"] ;
319 -> 320 ;
321 [label="alt <= 2.915\ngini = 0.056\nsamples = 23\nvalue = [1, 34]\nclass = true", fillcolor="#3fa0e6"] ;
319 -> 321 ;
322 [label="gini = 0.0\nsamples = 19\nvalue = [0, 31]\nclass = true", fillcolor="#399de5"] ;
321 -> 322 ;
323 [label="etytr <= 6.159\ngini = 0.375\nsamples = 4\nvalue = [1, 3]\nclass = true", fillcolor="#7bbeee"] ;
321 -> 323 ;
324 [label="gini = 0.0\nsamples = 1\nvalue = [1, 0]\nclass = false", fillcolor="#e58139"] ;
323 -> 324 ;
325 [label="gini = 0.0\nsamples = 3\nvalue = [0, 3]\nclass = true", fillcolor="#399de5"] ;
323 -> 325 ;
326 [label="age <= 89.0\ngini = 0.475\nsamples = 12\nvalue = [11, 7]\nclass = false", fillcolor="#f6d1b7"] ;
318 -> 326 ;
327 [label="alp <= 77.745\ngini = 0.391\nsamples = 9\nvalue = [11, 4]\nclass = false", fillcolor="#eeaf81"] ;
326 -> 327 ;
328 [label="gini = 0.0\nsamples = 6\nvalue = [11, 0]\nclass = false", fillcolor="#e58139"] ;
327 -> 328 ;
329 [label="gini = 0.0\nsamples = 3\nvalue = [0, 4]\nclass = true", fillcolor="#399de5"] ;
327 -> 329 ;
330 [label="gini = 0.0\nsamples = 3\nvalue = [0, 3]\nclass = true", fillcolor="#399de5"] ;
326 -> 330 ;
331 [label="hematokrit <= 8.479\ngini = 0.165\nsamples = 7\nvalue = [10, 1]\nclass = false", fillcolor="#e88e4d"] ;
317 -> 331 ;
332 [label="gini = 0.0\nsamples = 1\nvalue = [0, 1]\nclass = true", fillcolor="#399de5"] ;
331 -> 332 ;
333 [label="gini = 0.0\nsamples = 6\nvalue = [10, 0]\nclass = false", fillcolor="#e58139"] ;
331 -> 333 ;
334 [label="leukocyty <= 7.956\ngini = 0.305\nsamples = 10\nvalue = [13, 3]\nclass = false", fillcolor="#eb9e67"] ;
268 -> 334 ;
335 [label="gini = 0.0\nsamples = 1\nvalue = [0, 2]\nclass = true", fillcolor="#399de5"] ;
334 -> 335 ;
336 [label="hbver <= 7.084\ngini = 0.133\nsamples = 9\nvalue = [13, 1]\nclass = false", fillcolor="#e78b48"] ;
334 -> 336 ;
337 [label="gini = 0.0\nsamples = 1\nvalue = [0, 1]\nclass = true", fillcolor="#399de5"] ;
336 -> 337 ;
338 [label="gini = 0.0\nsamples = 8\nvalue = [13, 0]\nclass = false", fillcolor="#e58139"] ;
336 -> 338 ;
339 [label="gini = 0.0\nsamples = 3\nvalue = [5, 0]\nclass = false", fillcolor="#e58139"] ;
213 -> 339 ;
340 [label="er-cv <= 69.703\ngini = 0.447\nsamples = 58\nvalue = [55, 28]\nclass = false", fillcolor="#f2c19e"] ;
64 -> 340 ;
341 [label="leukocyty <= 7.085\ngini = 0.416\nsamples = 54\nvalue = [55, 23]\nclass = false", fillcolor="#f0b68c"] ;
340 -> 341 ;
342 [label="gini = 0.0\nsamples = 9\nvalue = [0, 12]\nclass = true", fillcolor="#399de5"] ;
341 -> 342 ;
343 [label="leukocyty <= 10.151\ngini = 0.278\nsamples = 45\nvalue = [55, 11]\nclass = false", fillcolor="#ea9a61"] ;
341 -> 343 ;
344 [label="age <= 109.5\ngini = 0.177\nsamples = 41\nvalue = [55, 6]\nclass = false", fillcolor="#e88f4f"] ;
343 -> 344 ;
345 [label="hbver <= 8.141\ngini = 0.1\nsamples = 38\nvalue = [54, 3]\nclass = false", fillcolor="#e68844"] ;
344 -> 345 ;
346 [label="race <= 4.5\ngini = 0.198\nsamples = 19\nvalue = [24, 3]\nclass = false", fillcolor="#e89152"] ;
345 -> 346 ;
347 [label="state <= 20.0\ngini = 0.142\nsamples = 18\nvalue = [24, 2]\nclass = false", fillcolor="#e78c49"] ;
346 -> 347 ;
348 [label="er-cv <= 55.216\ngini = 0.408\nsamples = 6\nvalue = [5, 2]\nclass = false", fillcolor="#efb388"] ;
347 -> 348 ;
349 [label="hemoglobin <= 8.128\ngini = 0.444\nsamples = 3\nvalue = [1, 2]\nclass = true", fillcolor="#9ccef2"] ;
348 -> 349 ;
350 [label="gini = 0.0\nsamples = 2\nvalue = [0, 2]\nclass = true", fillcolor="#399de5"] ;
349 -> 350 ;
351 [label="gini = 0.0\nsamples = 1\nvalue = [1, 0]\nclass = false", fillcolor="#e58139"] ;
349 -> 351 ;
352 [label="gini = 0.0\nsamples = 3\nvalue = [4, 0]\nclass = false", fillcolor="#e58139"] ;
348 -> 352 ;
353 [label="gini = 0.0\nsamples = 12\nvalue = [19, 0]\nclass = false", fillcolor="#e58139"] ;
347 -> 353 ;
354 [label="gini = 0.0\nsamples = 1\nvalue = [0, 1]\nclass = true", fillcolor="#399de5"] ;
346 -> 354 ;
355 [label="gini = 0.0\nsamples = 19\nvalue = [30, 0]\nclass = false", fillcolor="#e58139"] ;
345 -> 355 ;
356 [label="leukocyty <= 8.413\ngini = 0.375\nsamples = 3\nvalue = [1, 3]\nclass = true", fillcolor="#7bbeee"] ;
344 -> 356 ;
357 [label="gini = 0.0\nsamples = 2\nvalue = [0, 3]\nclass = true", fillcolor="#399de5"] ;
356 -> 357 ;
358 [label="gini = 0.0\nsamples = 1\nvalue = [1, 0]\nclass = false", fillcolor="#e58139"] ;
356 -> 358 ;
359 [label="gini = 0.0\nsamples = 4\nvalue = [0, 5]\nclass = true", fillcolor="#399de5"] ;
343 -> 359 ;
360 [label="gini = 0.0\nsamples = 4\nvalue = [0, 5]\nclass = true", fillcolor="#399de5"] ;
340 -> 360 ;
361 [label="sex_F <= 0.5\ngini = 0.492\nsamples = 1505\nvalue = [1046, 1352]\nclass = true", fillcolor="#d2e9f9"] ;
1 -> 361 ;
362 [label="alp <= 37.855\ngini = 0.481\nsamples = 755\nvalue = [477, 705]\nclass = true", fillcolor="#bfdff7"] ;
361 -> 362 ;
363 [label="hematokrit <= 10.118\ngini = 0.5\nsamples = 235\nvalue = [185, 181]\nclass = false", fillcolor="#fefcfb"] ;
362 -> 363 ;
364 [label="leukocyty <= 7.458\ngini = 0.498\nsamples = 222\nvalue = [185, 161]\nclass = false", fillcolor="#fcefe5"] ;
363 -> 364 ;
365 [label="alp <= 9.991\ngini = 0.077\nsamples = 47\nvalue = [3, 72]\nclass = true", fillcolor="#41a1e6"] ;
364 -> 365 ;
366 [label="blood_group <= 5.5\ngini = 0.444\nsamples = 3\nvalue = [1, 2]\nclass = true", fillcolor="#9ccef2"] ;
365 -> 366 ;
367 [label="gini = 0.0\nsamples = 2\nvalue = [0, 2]\nclass = true", fillcolor="#399de5"] ;
366 -> 367 ;
368 [label="gini = 0.0\nsamples = 1\nvalue = [1, 0]\nclass = false", fillcolor="#e58139"] ;
366 -> 368 ;
369 [label="hbver <= 7.602\ngini = 0.054\nsamples = 44\nvalue = [2, 70]\nclass = true", fillcolor="#3fa0e6"] ;
365 -> 369 ;
370 [label="hbver <= 7.578\ngini = 0.128\nsamples = 17\nvalue = [2, 27]\nclass = true", fillcolor="#48a4e7"] ;
369 -> 370 ;
371 [label="blood_group <= 1.5\ngini = 0.069\nsamples = 16\nvalue = [1, 27]\nclass = true", fillcolor="#40a1e6"] ;
370 -> 371 ;
372 [label="relationship <= 2.5\ngini = 0.278\nsamples = 3\nvalue = [1, 5]\nclass = true", fillcolor="#61b1ea"] ;
371 -> 372 ;
373 [label="gini = 0.0\nsamples = 1\nvalue = [1, 0]\nclass = false", fillcolor="#e58139"] ;
372 -> 373 ;
374 [label="gini = 0.0\nsamples = 2\nvalue = [0, 5]\nclass = true", fillcolor="#399de5"] ;
372 -> 374 ;
375 [label="gini = 0.0\nsamples = 13\nvalue = [0, 22]\nclass = true", fillcolor="#399de5"] ;
371 -> 375 ;
376 [label="gini = 0.0\nsamples = 1\nvalue = [1, 0]\nclass = false", fillcolor="#e58139"] ;
370 -> 376 ;
377 [label="gini = 0.0\nsamples = 27\nvalue = [0, 43]\nclass = true", fillcolor="#399de5"] ;
369 -> 377 ;
378 [label="hematokrit <= 9.373\ngini = 0.441\nsamples = 175\nvalue = [182, 89]\nclass = false", fillcolor="#f2bf9a"] ;
364 -> 378 ;
379 [label="etytr <= 4.955\ngini = 0.461\nsamples = 156\nvalue = [155, 87]\nclass = false", fillcolor="#f4c8a8"] ;
378 -> 379 ;
380 [label="leukocyty <= 8.816\ngini = 0.369\nsamples = 48\nvalue = [20, 62]\nclass = true", fillcolor="#79bded"] ;
379 -> 380 ;
381 [label="etytr <= 2.285\ngini = 0.498\nsamples = 23\nvalue = [15, 17]\nclass = true", fillcolor="#e8f3fc"] ;
380 -> 381 ;
382 [label="erytrocyty <= 8.973\ngini = 0.245\nsamples = 6\nvalue = [6, 1]\nclass = false", fillcolor="#e9965a"] ;
381 -> 382 ;
383 [label="gini = 0.0\nsamples = 5\nvalue = [6, 0]\nclass = false", fillcolor="#e58139"] ;
382 -> 383 ;
384 [label="gini = 0.0\nsamples = 1\nvalue = [0, 1]\nclass = true", fillcolor="#399de5"] ;
382 -> 384 ;
385 [label="age <= 55.5\ngini = 0.461\nsamples = 17\nvalue = [9, 16]\nclass = true", fillcolor="#a8d4f4"] ;
381 -> 385 ;
386 [label="relationship <= 4.5\ngini = 0.133\nsamples = 8\nvalue = [1, 13]\nclass = true", fillcolor="#48a5e7"] ;
385 -> 386 ;
387 [label="gini = 0.0\nsamples = 6\nvalue = [0, 12]\nclass = true", fillcolor="#399de5"] ;
386 -> 387 ;
388 [label="blood_group <= 6.0\ngini = 0.5\nsamples = 2\nvalue = [1, 1]\nclass = false", fillcolor="#ffffff"] ;
386 -> 388 ;
389 [label="gini = 0.0\nsamples = 1\nvalue = [1, 0]\nclass = false", fillcolor="#e58139"] ;
388 -> 389 ;
390 [label="gini = 0.0\nsamples = 1\nvalue = [0, 1]\nclass = true", fillcolor="#399de5"] ;
388 -> 390 ;
391 [label="etytr <= 3.64\ngini = 0.397\nsamples = 9\nvalue = [8, 3]\nclass = false", fillcolor="#efb083"] ;
385 -> 391 ;
392 [label="age <= 87.0\ngini = 0.48\nsamples = 5\nvalue = [2, 3]\nclass = true", fillcolor="#bddef6"] ;
391 -> 392 ;
393 [label="hemoglobin <= 6.573\ngini = 0.444\nsamples = 3\nvalue = [2, 1]\nclass = false", fillcolor="#f2c09c"] ;
392 -> 393 ;
394 [label="gini = 0.0\nsamples = 2\nvalue = [2, 0]\nclass = false", fillcolor="#e58139"] ;
393 -> 394 ;
395 [label="gini = 0.0\nsamples = 1\nvalue = [0, 1]\nclass = true", fillcolor="#399de5"] ;
393 -> 395 ;
396 [label="gini = 0.0\nsamples = 2\nvalue = [0, 2]\nclass = true", fillcolor="#399de5"] ;
392 -> 396 ;
397 [label="gini = 0.0\nsamples = 4\nvalue = [6, 0]\nclass = false", fillcolor="#e58139"] ;
391 -> 397 ;
398 [label="age <= 109.5\ngini = 0.18\nsamples = 25\nvalue = [5, 45]\nclass = true", fillcolor="#4fa8e8"] ;
380 -> 398 ;
399 [label="hematokrit <= 5.158\ngini = 0.117\nsamples = 23\nvalue = [3, 45]\nclass = true", fillcolor="#46a4e7"] ;
398 -> 399 ;
400 [label="gini = 0.0\nsamples = 2\nvalue = [3, 0]\nclass = false", fillcolor="#e58139"] ;
399 -> 400 ;
401 [label="gini = 0.0\nsamples = 21\nvalue = [0, 45]\nclass = true", fillcolor="#399de5"] ;
399 -> 401 ;
402 [label="gini = 0.0\nsamples = 2\nvalue = [2, 0]\nclass = false", fillcolor="#e58139"] ;
398 -> 402 ;
403 [label="leukocyty <= 9.409\ngini = 0.264\nsamples = 108\nvalue = [135, 25]\nclass = false", fillcolor="#ea985e"] ;
379 -> 403 ;
404 [label="etytr <= 7.283\ngini = 0.207\nsamples = 97\nvalue = [128, 17]\nclass = false", fillcolor="#e89253"] ;
403 -> 404 ;
405 [label="hemoglobin <= 8.219\ngini = 0.175\nsamples = 90\nvalue = [121, 13]\nclass = false", fillcolor="#e88f4e"] ;
404 -> 405 ;
406 [label="alp <= 37.083\ngini = 0.48\nsamples = 4\nvalue = [2, 3]\nclass = true", fillcolor="#bddef6"] ;
405 -> 406 ;
407 [label="weight <= 102.99\ngini = 0.444\nsamples = 3\nvalue = [2, 1]\nclass = false", fillcolor="#f2c09c"] ;
406 -> 407 ;
408 [label="gini = 0.0\nsamples = 2\nvalue = [2, 0]\nclass = false", fillcolor="#e58139"] ;
407 -> 408 ;
409 [label="gini = 0.0\nsamples = 1\nvalue = [0, 1]\nclass = true", fillcolor="#399de5"] ;
407 -> 409 ;
410 [label="gini = 0.0\nsamples = 1\nvalue = [0, 2]\nclass = true", fillcolor="#399de5"] ;
406 -> 410 ;
411 [label="hematokrit <= 6.09\ngini = 0.143\nsamples = 86\nvalue = [119, 10]\nclass = false", fillcolor="#e78c4a"] ;
405 -> 411 ;
412 [label="gini = 0.0\nsamples = 1\nvalue = [0, 2]\nclass = true", fillcolor="#399de5"] ;
411 -> 412 ;
413 [label="hematokrit <= 7.424\ngini = 0.118\nsamples = 85\nvalue = [119, 8]\nclass = false", fillcolor="#e78946"] ;
411 -> 413 ;
414 [label="hemoglobin <= 9.904\ngini = 0.32\nsamples = 20\nvalue = [24, 6]\nclass = false", fillcolor="#eca06a"] ;
413 -> 414 ;
415 [label="hemoglobin <= 9.796\ngini = 0.469\nsamples = 11\nvalue = [10, 6]\nclass = false", fillcolor="#f5cdb0"] ;
414 -> 415 ;
416 [label="blood_group <= 4.5\ngini = 0.355\nsamples = 9\nvalue = [10, 3]\nclass = false", fillcolor="#eda774"] ;
415 -> 416 ;
417 [label="hbver <= 8.163\ngini = 0.48\nsamples = 5\nvalue = [2, 3]\nclass = true", fillcolor="#bddef6"] ;
416 -> 417 ;
418 [label="gini = 0.0\nsamples = 2\nvalue = [2, 0]\nclass = false", fillcolor="#e58139"] ;
417 -> 418 ;
419 [label="gini = 0.0\nsamples = 3\nvalue = [0, 3]\nclass = true", fillcolor="#399de5"] ;
417 -> 419 ;
420 [label="gini = 0.0\nsamples = 4\nvalue = [8, 0]\nclass = false", fillcolor="#e58139"] ;
416 -> 420 ;
421 [label="gini = 0.0\nsamples = 2\nvalue = [0, 3]\nclass = true", fillcolor="#399de5"] ;
415 -> 421 ;
422 [label="gini = 0.0\nsamples = 9\nvalue = [14, 0]\nclass = false", fillcolor="#e58139"] ;
414 -> 422 ;
423 [label="blood_group <= 1.5\ngini = 0.04\nsamples = 65\nvalue = [95, 2]\nclass = false", fillcolor="#e6843d"] ;
413 -> 423 ;
424 [label="hbver <= 6.604\ngini = 0.198\nsamples = 5\nvalue = [8, 1]\nclass = false", fillcolor="#e89152"] ;
423 -> 424 ;
425 [label="gini = 0.0\nsamples = 1\nvalue = [0, 1]\nclass = true", fillcolor="#399de5"] ;
424 -> 425 ;
426 [label="gini = 0.0\nsamples = 4\nvalue = [8, 0]\nclass = false", fillcolor="#e58139"] ;
424 -> 426 ;
427 [label="etytr <= 5.041\ngini = 0.022\nsamples = 60\nvalue = [87, 1]\nclass = false", fillcolor="#e5823b"] ;
423 -> 427 ;
428 [label="hematokrit <= 8.67\ngini = 0.375\nsamples = 3\nvalue = [3, 1]\nclass = false", fillcolor="#eeab7b"] ;
427 -> 428 ;
429 [label="gini = 0.0\nsamples = 1\nvalue = [0, 1]\nclass = true", fillcolor="#399de5"] ;
428 -> 429 ;
430 [label="gini = 0.0\nsamples = 2\nvalue = [3, 0]\nclass = false", fillcolor="#e58139"] ;
428 -> 430 ;
431 [label="gini = 0.0\nsamples = 57\nvalue = [84, 0]\nclass = false", fillcolor="#e58139"] ;
427 -> 431 ;
432 [label="alt <= 3.783\ngini = 0.463\nsamples = 7\nvalue = [7, 4]\nclass = false", fillcolor="#f4c9aa"] ;
404 -> 432 ;
433 [label="gini = 0.0\nsamples = 3\nvalue = [5, 0]\nclass = false", fillcolor="#e58139"] ;
432 -> 433 ;
434 [label="hbver <= 7.489\ngini = 0.444\nsamples = 4\nvalue = [2, 4]\nclass = true", fillcolor="#9ccef2"] ;
432 -> 434 ;
435 [label="gini = 0.0\nsamples = 2\nvalue = [2, 0]\nclass = false", fillcolor="#e58139"] ;
434 -> 435 ;
436 [label="gini = 0.0\nsamples = 2\nvalue = [0, 4]\nclass = true", fillcolor="#399de5"] ;
434 -> 436 ;
437 [label="etytr <= 7.115\ngini = 0.498\nsamples = 11\nvalue = [7, 8]\nclass = true", fillcolor="#e6f3fc"] ;
403 -> 437 ;
438 [label="ast <= 51.804\ngini = 0.32\nsamples = 7\nvalue = [2, 8]\nclass = true", fillcolor="#6ab6ec"] ;
437 -> 438 ;
439 [label="gini = 0.0\nsamples = 4\nvalue = [0, 7]\nclass = true", fillcolor="#399de5"] ;
438 -> 439 ;
440 [label="state <= 19.5\ngini = 0.444\nsamples = 3\nvalue = [2, 1]\nclass = false", fillcolor="#f2c09c"] ;
438 -> 440 ;
441 [label="gini = 0.0\nsamples = 1\nvalue = [0, 1]\nclass = true", fillcolor="#399de5"] ;
440 -> 441 ;
442 [label="gini = 0.0\nsamples = 2\nvalue = [2, 0]\nclass = false", fillcolor="#e58139"] ;
440 -> 442 ;
443 [label="gini = 0.0\nsamples = 4\nvalue = [5, 0]\nclass = false", fillcolor="#e58139"] ;
437 -> 443 ;
444 [label="erytrocyty <= 9.021\ngini = 0.128\nsamples = 19\nvalue = [27, 2]\nclass = false", fillcolor="#e78a48"] ;
378 -> 444 ;
445 [label="etytr <= 4.641\ngini = 0.074\nsamples = 17\nvalue = [25, 1]\nclass = false", fillcolor="#e68641"] ;
444 -> 445 ;
446 [label="gini = 0.0\nsamples = 1\nvalue = [0, 1]\nclass = true", fillcolor="#399de5"] ;
445 -> 446 ;
447 [label="gini = 0.0\nsamples = 16\nvalue = [25, 0]\nclass = false", fillcolor="#e58139"] ;
445 -> 447 ;
448 [label="leukocyty <= 9.938\ngini = 0.444\nsamples = 2\nvalue = [2, 1]\nclass = false", fillcolor="#f2c09c"] ;
444 -> 448 ;
449 [label="gini = 0.0\nsamples = 1\nvalue = [2, 0]\nclass = false", fillcolor="#e58139"] ;
448 -> 449 ;
450 [label="gini = 0.0\nsamples = 1\nvalue = [0, 1]\nclass = true", fillcolor="#399de5"] ;
448 -> 450 ;
451 [label="gini = 0.0\nsamples = 13\nvalue = [0, 20]\nclass = true", fillcolor="#399de5"] ;
363 -> 451 ;
452 [label="age <= 3.5\ngini = 0.46\nsamples = 520\nvalue = [292, 524]\nclass = true", fillcolor="#a7d4f3"] ;
362 -> 452 ;
453 [label="etytr <= 6.198\ngini = 0.391\nsamples = 8\nvalue = [11, 4]\nclass = false", fillcolor="#eeaf81"] ;
452 -> 453 ;
454 [label="weight <= 78.101\ngini = 0.494\nsamples = 4\nvalue = [5, 4]\nclass = false", fillcolor="#fae6d7"] ;
453 -> 454 ;
455 [label="gini = 0.0\nsamples = 2\nvalue = [5, 0]\nclass = false", fillcolor="#e58139"] ;
454 -> 455 ;
456 [label="gini = 0.0\nsamples = 2\nvalue = [0, 4]\nclass = true", fillcolor="#399de5"] ;
454 -> 456 ;
457 [label="gini = 0.0\nsamples = 4\nvalue = [6, 0]\nclass = false", fillcolor="#e58139"] ;
453 -> 457 ;
458 [label="hemoglobin <= 4.854\ngini = 0.455\nsamples = 512\nvalue = [281, 520]\nclass = true", fillcolor="#a4d2f3"] ;
452 -> 458 ;
459 [label="hematokrit <= 7.826\ngini = 0.42\nsamples = 26\nvalue = [28, 12]\nclass = false", fillcolor="#f0b78e"] ;
458 -> 459 ;
460 [label="gini = 0.0\nsamples = 19\nvalue = [28, 0]\nclass = false", fillcolor="#e58139"] ;
459 -> 460 ;
461 [label="gini = 0.0\nsamples = 7\nvalue = [0, 12]\nclass = true", fillcolor="#399de5"] ;
459 -> 461 ;
462 [label="leukocyty <= 7.711\ngini = 0.444\nsamples = 486\nvalue = [253, 508]\nclass = true", fillcolor="#9ccef2"] ;
458 -> 462 ;
463 [label="erytrocyty <= 7.087\ngini = 0.116\nsamples = 73\nvalue = [7, 106]\nclass = true", fillcolor="#46a3e7"] ;
462 -> 463 ;
464 [label="gini = 0.0\nsamples = 1\nvalue = [1, 0]\nclass = false", fillcolor="#e58139"] ;
463 -> 464 ;
465 [label="leukocyty <= 7.396\ngini = 0.101\nsamples = 72\nvalue = [6, 106]\nclass = true", fillcolor="#44a3e6"] ;
463 -> 465 ;
466 [label="gini = 0.0\nsamples = 51\nvalue = [0, 78]\nclass = true", fillcolor="#399de5"] ;
465 -> 466 ;
467 [label="etytr <= 5.074\ngini = 0.291\nsamples = 21\nvalue = [6, 28]\nclass = true", fillcolor="#63b2eb"] ;
465 -> 467 ;
468 [label="relationship <= 2.5\ngini = 0.32\nsamples = 3\nvalue = [4, 1]\nclass = false", fillcolor="#eca06a"] ;
467 -> 468 ;
469 [label="gini = 0.0\nsamples = 1\nvalue = [0, 1]\nclass = true", fillcolor="#399de5"] ;
468 -> 469 ;
470 [label="gini = 0.0\nsamples = 2\nvalue = [4, 0]\nclass = false", fillcolor="#e58139"] ;
468 -> 470 ;
471 [label="hemoglobin <= 9.457\ngini = 0.128\nsamples = 18\nvalue = [2, 27]\nclass = true", fillcolor="#48a4e7"] ;
467 -> 471 ;
472 [label="etytr <= 6.692\ngini = 0.069\nsamples = 17\nvalue = [1, 27]\nclass = true", fillcolor="#40a1e6"] ;
471 -> 472 ;
473 [label="gini = 0.0\nsamples = 10\nvalue = [0, 19]\nclass = true", fillcolor="#399de5"] ;
472 -> 473 ;
474 [label="etytr <= 6.739\ngini = 0.198\nsamples = 7\nvalue = [1, 8]\nclass = true", fillcolor="#52a9e8"] ;
472 -> 474 ;
475 [label="gini = 0.0\nsamples = 1\nvalue = [1, 0]\nclass = false", fillcolor="#e58139"] ;
474 -> 475 ;
476 [label="gini = 0.0\nsamples = 6\nvalue = [0, 8]\nclass = true", fillcolor="#399de5"] ;
474 -> 476 ;
477 [label="gini = 0.0\nsamples = 1\nvalue = [1, 0]\nclass = false", fillcolor="#e58139"] ;
471 -> 477 ;
478 [label="etytr <= 3.773\ngini = 0.471\nsamples = 413\nvalue = [246, 402]\nclass = true", fillcolor="#b2d9f5"] ;
462 -> 478 ;
479 [label="alp <= 69.642\ngini = 0.463\nsamples = 13\nvalue = [14, 8]\nclass = false", fillcolor="#f4c9aa"] ;
478 -> 479 ;
480 [label="hemoglobin <= 6.229\ngini = 0.198\nsamples = 7\nvalue = [1, 8]\nclass = true", fillcolor="#52a9e8"] ;
479 -> 480 ;
481 [label="gini = 0.0\nsamples = 1\nvalue = [1, 0]\nclass = false", fillcolor="#e58139"] ;
480 -> 481 ;
482 [label="gini = 0.0\nsamples = 6\nvalue = [0, 8]\nclass = true", fillcolor="#399de5"] ;
480 -> 482 ;
483 [label="gini = 0.0\nsamples = 6\nvalue = [13, 0]\nclass = false", fillcolor="#e58139"] ;
479 -> 483 ;
484 [label="hematokrit <= 6.713\ngini = 0.467\nsamples = 400\nvalue = [232, 394]\nclass = true", fillcolor="#aed7f4"] ;
478 -> 484 ;
485 [label="alp <= 63.508\ngini = 0.075\nsamples = 68\nvalue = [99, 4]\nclass = false", fillcolor="#e68641"] ;
484 -> 485 ;
486 [label="alp <= 60.693\ngini = 0.337\nsamples = 10\nvalue = [11, 3]\nclass = false", fillcolor="#eca36f"] ;
485 -> 486 ;
487 [label="gini = 0.0\nsamples = 8\nvalue = [11, 0]\nclass = false", fillcolor="#e58139"] ;
486 -> 487 ;
488 [label="gini = 0.0\nsamples = 2\nvalue = [0, 3]\nclass = true", fillcolor="#399de5"] ;
486 -> 488 ;
489 [label="er-cv <= 71.757\ngini = 0.022\nsamples = 58\nvalue = [88, 1]\nclass = false", fillcolor="#e5823b"] ;
485 -> 489 ;
490 [label="gini = 0.0\nsamples = 52\nvalue = [80, 0]\nclass = false", fillcolor="#e58139"] ;
489 -> 490 ;
491 [label="hematokrit <= 4.808\ngini = 0.198\nsamples = 6\nvalue = [8, 1]\nclass = false", fillcolor="#e89152"] ;
489 -> 491 ;
492 [label="gini = 0.0\nsamples = 1\nvalue = [0, 1]\nclass = true", fillcolor="#399de5"] ;
491 -> 492 ;
493 [label="gini = 0.0\nsamples = 5\nvalue = [8, 0]\nclass = false", fillcolor="#e58139"] ;
491 -> 493 ;
494 [label="hemoglobin <= 7.187\ngini = 0.379\nsamples = 332\nvalue = [133, 390]\nclass = true", fillcolor="#7dbeee"] ;
484 -> 494 ;
495 [label="er-cv <= 24.254\ngini = 0.29\nsamples = 219\nvalue = [61, 285]\nclass = true", fillcolor="#63b2eb"] ;
494 -> 495 ;
496 [label="erytrocyty <= 7.584\ngini = 0.408\nsamples = 5\nvalue = [5, 2]\nclass = false", fillcolor="#efb388"] ;
495 -> 496 ;
497 [label="gini = 0.0\nsamples = 1\nvalue = [0, 1]\nclass = true", fillcolor="#399de5"] ;
496 -> 497 ;
498 [label="blood_group <= 5.5\ngini = 0.278\nsamples = 4\nvalue = [5, 1]\nclass = false", fillcolor="#ea9a61"] ;
496 -> 498 ;
499 [label="gini = 0.0\nsamples = 3\nvalue = [5, 0]\nclass = false", fillcolor="#e58139"] ;
498 -> 499 ;
500 [label="gini = 0.0\nsamples = 1\nvalue = [0, 1]\nclass = true", fillcolor="#399de5"] ;
498 -> 500 ;
501 [label="er-cv <= 81.377\ngini = 0.276\nsamples = 214\nvalue = [56, 283]\nclass = true", fillcolor="#60b0ea"] ;
495 -> 501 ;
502 [label="hematokrit <= 7.174\ngini = 0.269\nsamples = 213\nvalue = [54, 283]\nclass = true", fillcolor="#5fb0ea"] ;
501 -> 502 ;
503 [label="er-cv <= 50.37\ngini = 0.469\nsamples = 21\nvalue = [20, 12]\nclass = false", fillcolor="#f5cdb0"] ;
502 -> 503 ;
504 [label="state <= 31.5\ngini = 0.444\nsamples = 8\nvalue = [4, 8]\nclass = true", fillcolor="#9ccef2"] ;
503 -> 504 ;
505 [label="gini = 0.0\nsamples = 5\nvalue = [0, 8]\nclass = true", fillcolor="#399de5"] ;
504 -> 505 ;
506 [label="gini = 0.0\nsamples = 3\nvalue = [4, 0]\nclass = false", fillcolor="#e58139"] ;
504 -> 506 ;
507 [label="age <= 76.5\ngini = 0.32\nsamples = 13\nvalue = [16, 4]\nclass = false", fillcolor="#eca06a"] ;
503 -> 507 ;
508 [label="hematokrit <= 6.95\ngini = 0.219\nsamples = 10\nvalue = [14, 2]\nclass = false", fillcolor="#e99355"] ;
507 -> 508 ;
509 [label="gini = 0.0\nsamples = 5\nvalue = [9, 0]\nclass = false", fillcolor="#e58139"] ;
508 -> 509 ;
510 [label="erytrocyty <= 7.069\ngini = 0.408\nsamples = 5\nvalue = [5, 2]\nclass = false", fillcolor="#efb388"] ;
508 -> 510 ;
511 [label="gini = 0.0\nsamples = 1\nvalue = [0, 2]\nclass = true", fillcolor="#399de5"] ;
510 -> 511 ;
512 [label="gini = 0.0\nsamples = 4\nvalue = [5, 0]\nclass = false", fillcolor="#e58139"] ;
510 -> 512 ;
513 [label="alt <= 6.175\ngini = 0.5\nsamples = 3\nvalue = [2, 2]\nclass = false", fillcolor="#ffffff"] ;
507 -> 513 ;
514 [label="gini = 0.0\nsamples = 2\nvalue = [2, 0]\nclass = false", fillcolor="#e58139"] ;
513 -> 514 ;
515 [label="gini = 0.0\nsamples = 1\nvalue = [0, 2]\nclass = true", fillcolor="#399de5"] ;
513 -> 515 ;
516 [label="erytrocyty <= 9.99\ngini = 0.198\nsamples = 192\nvalue = [34, 271]\nclass = true", fillcolor="#52a9e8"] ;
502 -> 516 ;
517 [label="ast <= 91.779\ngini = 0.185\nsamples = 188\nvalue = [31, 269]\nclass = true", fillcolor="#50a8e8"] ;
516 -> 517 ;
518 [label="hematokrit <= 11.52\ngini = 0.181\nsamples = 187\nvalue = [30, 269]\nclass = true", fillcolor="#4fa8e8"] ;
517 -> 518 ;
519 [label="leukocyty <= 8.913\ngini = 0.121\nsamples = 175\nvalue = [18, 260]\nclass = true", fillcolor="#47a4e7"] ;
518 -> 519 ;
520 [label="trombocyty <= 7.772\ngini = 0.259\nsamples = 75\nvalue = [18, 100]\nclass = true", fillcolor="#5dafea"] ;
519 -> 520 ;
521 [label="state <= 38.5\ngini = 0.104\nsamples = 44\nvalue = [4, 69]\nclass = true", fillcolor="#44a3e7"] ;
520 -> 521 ;
522 [label="state <= 22.5\ngini = 0.037\nsamples = 31\nvalue = [1, 52]\nclass = true", fillcolor="#3d9fe6"] ;
521 -> 522 ;
523 [label="hematokrit <= 7.952\ngini = 0.08\nsamples = 15\nvalue = [1, 23]\nclass = true", fillcolor="#42a1e6"] ;
522 -> 523 ;
524 [label="gini = 0.0\nsamples = 1\nvalue = [1, 0]\nclass = false", fillcolor="#e58139"] ;
523 -> 524 ;
525 [label="gini = 0.0\nsamples = 14\nvalue = [0, 23]\nclass = true", fillcolor="#399de5"] ;
523 -> 525 ;
526 [label="gini = 0.0\nsamples = 16\nvalue = [0, 29]\nclass = true", fillcolor="#399de5"] ;
522 -> 526 ;
527 [label="hemoglobin <= 6.372\ngini = 0.255\nsamples = 13\nvalue = [3, 17]\nclass = true", fillcolor="#5caeea"] ;
521 -> 527 ;
528 [label="gini = 0.0\nsamples = 5\nvalue = [0, 9]\nclass = true", fillcolor="#399de5"] ;
527 -> 528 ;
529 [label="hemoglobin <= 6.556\ngini = 0.397\nsamples = 8\nvalue = [3, 8]\nclass = true", fillcolor="#83c2ef"] ;
527 -> 529 ;
530 [label="gini = 0.0\nsamples = 1\nvalue = [2, 0]\nclass = false", fillcolor="#e58139"] ;
529 -> 530 ;
531 [label="alt <= 4.982\ngini = 0.198\nsamples = 7\nvalue = [1, 8]\nclass = true", fillcolor="#52a9e8"] ;
529 -> 531 ;
532 [label="gini = 0.0\nsamples = 4\nvalue = [0, 5]\nclass = true", fillcolor="#399de5"] ;
531 -> 532 ;
533 [label="erytrocyty <= 8.178\ngini = 0.375\nsamples = 3\nvalue = [1, 3]\nclass = true", fillcolor="#7bbeee"] ;
531 -> 533 ;
534 [label="gini = 0.0\nsamples = 1\nvalue = [1, 0]\nclass = false", fillcolor="#e58139"] ;
533 -> 534 ;
535 [label="gini = 0.0\nsamples = 2\nvalue = [0, 3]\nclass = true", fillcolor="#399de5"] ;
533 -> 535 ;
536 [label="alp <= 81.871\ngini = 0.429\nsamples = 31\nvalue = [14, 31]\nclass = true", fillcolor="#92c9f1"] ;
520 -> 536 ;
537 [label="gini = 0.0\nsamples = 14\nvalue = [0, 21]\nclass = true", fillcolor="#399de5"] ;
536 -> 537 ;
538 [label="age <= 19.0\ngini = 0.486\nsamples = 17\nvalue = [14, 10]\nclass = false", fillcolor="#f8dbc6"] ;
536 -> 538 ;
539 [label="gini = 0.0\nsamples = 2\nvalue = [4, 0]\nclass = false", fillcolor="#e58139"] ;
538 -> 539 ;
540 [label="state <= 15.5\ngini = 0.5\nsamples = 15\nvalue = [10, 10]\nclass = false", fillcolor="#ffffff"] ;
538 -> 540 ;
541 [label="gini = 0.0\nsamples = 5\nvalue = [0, 5]\nclass = true", fillcolor="#399de5"] ;
540 -> 541 ;
542 [label="etytr <= 7.258\ngini = 0.444\nsamples = 10\nvalue = [10, 5]\nclass = false", fillcolor="#f2c09c"] ;
540 -> 542 ;
543 [label="hemoglobin <= 5.682\ngini = 0.278\nsamples = 8\nvalue = [10, 2]\nclass = false", fillcolor="#ea9a61"] ;
542 -> 543 ;
544 [label="gini = 0.0\nsamples = 1\nvalue = [0, 2]\nclass = true", fillcolor="#399de5"] ;
543 -> 544 ;
545 [label="gini = 0.0\nsamples = 7\nvalue = [10, 0]\nclass = false", fillcolor="#e58139"] ;
543 -> 545 ;
546 [label="gini = 0.0\nsamples = 2\nvalue = [0, 3]\nclass = true", fillcolor="#399de5"] ;
542 -> 546 ;
547 [label="gini = 0.0\nsamples = 100\nvalue = [0, 160]\nclass = true", fillcolor="#399de5"] ;
519 -> 547 ;
548 [label="hematokrit <= 12.218\ngini = 0.49\nsamples = 12\nvalue = [12, 9]\nclass = false", fillcolor="#f8e0ce"] ;
518 -> 548 ;
549 [label="state <= 31.5\ngini = 0.219\nsamples = 5\nvalue = [7, 1]\nclass = false", fillcolor="#e99355"] ;
548 -> 549 ;
550 [label="gini = 0.0\nsamples = 4\nvalue = [7, 0]\nclass = false", fillcolor="#e58139"] ;
549 -> 550 ;
551 [label="gini = 0.0\nsamples = 1\nvalue = [0, 1]\nclass = true", fillcolor="#399de5"] ;
549 -> 551 ;
552 [label="alp <= 85.818\ngini = 0.473\nsamples = 7\nvalue = [5, 8]\nclass = true", fillcolor="#b5daf5"] ;
548 -> 552 ;
553 [label="state <= 45.0\ngini = 0.198\nsamples = 5\nvalue = [1, 8]\nclass = true", fillcolor="#52a9e8"] ;
552 -> 553 ;
554 [label="gini = 0.0\nsamples = 4\nvalue = [0, 8]\nclass = true", fillcolor="#399de5"] ;
553 -> 554 ;
555 [label="gini = 0.0\nsamples = 1\nvalue = [1, 0]\nclass = false", fillcolor="#e58139"] ;
553 -> 555 ;
556 [label="gini = 0.0\nsamples = 2\nvalue = [4, 0]\nclass = false", fillcolor="#e58139"] ;
552 -> 556 ;
557 [label="gini = 0.0\nsamples = 1\nvalue = [1, 0]\nclass = false", fillcolor="#e58139"] ;
517 -> 557 ;
558 [label="alp <= 79.537\ngini = 0.48\nsamples = 4\nvalue = [3, 2]\nclass = false", fillcolor="#f6d5bd"] ;
516 -> 558 ;
559 [label="gini = 0.0\nsamples = 1\nvalue = [0, 1]\nclass = true", fillcolor="#399de5"] ;
558 -> 559 ;
560 [label="hematokrit <= 10.175\ngini = 0.375\nsamples = 3\nvalue = [3, 1]\nclass = false", fillcolor="#eeab7b"] ;
558 -> 560 ;
561 [label="gini = 0.0\nsamples = 1\nvalue = [0, 1]\nclass = true", fillcolor="#399de5"] ;
560 -> 561 ;
562 [label="gini = 0.0\nsamples = 2\nvalue = [3, 0]\nclass = false", fillcolor="#e58139"] ;
560 -> 562 ;
563 [label="gini = 0.0\nsamples = 1\nvalue = [2, 0]\nclass = false", fillcolor="#e58139"] ;
501 -> 563 ;
564 [label="hematokrit <= 9.999\ngini = 0.483\nsamples = 113\nvalue = [72, 105]\nclass = true", fillcolor="#c1e0f7"] ;
494 -> 564 ;
565 [label="age <= 7.5\ngini = 0.384\nsamples = 86\nvalue = [35, 100]\nclass = true", fillcolor="#7ebfee"] ;
564 -> 565 ;
566 [label="relationship <= 2.5\ngini = 0.32\nsamples = 3\nvalue = [4, 1]\nclass = false", fillcolor="#eca06a"] ;
565 -> 566 ;
567 [label="gini = 0.0\nsamples = 1\nvalue = [0, 1]\nclass = true", fillcolor="#399de5"] ;
566 -> 567 ;
568 [label="gini = 0.0\nsamples = 2\nvalue = [4, 0]\nclass = false", fillcolor="#e58139"] ;
566 -> 568 ;
569 [label="state <= 53.5\ngini = 0.363\nsamples = 83\nvalue = [31, 99]\nclass = true", fillcolor="#77bced"] ;
565 -> 569 ;
570 [label="weight <= 44.107\ngini = 0.346\nsamples = 80\nvalue = [28, 98]\nclass = true", fillcolor="#72b9ec"] ;
569 -> 570 ;
571 [label="leukocyty <= 8.825\ngini = 0.476\nsamples = 15\nvalue = [9, 14]\nclass = true", fillcolor="#b8dcf6"] ;
570 -> 571 ;
572 [label="leukocyty <= 8.471\ngini = 0.375\nsamples = 9\nvalue = [9, 3]\nclass = false", fillcolor="#eeab7b"] ;
571 -> 572 ;
573 [label="state <= 29.5\ngini = 0.48\nsamples = 5\nvalue = [2, 3]\nclass = true", fillcolor="#bddef6"] ;
572 -> 573 ;
574 [label="gini = 0.0\nsamples = 2\nvalue = [2, 0]\nclass = false", fillcolor="#e58139"] ;
573 -> 574 ;
575 [label="gini = 0.0\nsamples = 3\nvalue = [0, 3]\nclass = true", fillcolor="#399de5"] ;
573 -> 575 ;
576 [label="gini = 0.0\nsamples = 4\nvalue = [7, 0]\nclass = false", fillcolor="#e58139"] ;
572 -> 576 ;
577 [label="gini = 0.0\nsamples = 6\nvalue = [0, 11]\nclass = true", fillcolor="#399de5"] ;
571 -> 577 ;
578 [label="hematokrit <= 9.323\ngini = 0.301\nsamples = 65\nvalue = [19, 84]\nclass = true", fillcolor="#66b3eb"] ;
570 -> 578 ;
579 [label="etytr <= 6.52\ngini = 0.167\nsamples = 46\nvalue = [7, 69]\nclass = true", fillcolor="#4da7e8"] ;
578 -> 579 ;
580 [label="hbver <= 9.572\ngini = 0.029\nsamples = 39\nvalue = [1, 66]\nclass = true", fillcolor="#3c9ee5"] ;
579 -> 580 ;
581 [label="gini = 0.0\nsamples = 38\nvalue = [0, 66]\nclass = true", fillcolor="#399de5"] ;
580 -> 581 ;
582 [label="gini = 0.0\nsamples = 1\nvalue = [1, 0]\nclass = false", fillcolor="#e58139"] ;
580 -> 582 ;
583 [label="er-cv <= 57.602\ngini = 0.444\nsamples = 7\nvalue = [6, 3]\nclass = false", fillcolor="#f2c09c"] ;
579 -> 583 ;
584 [label="etytr <= 6.851\ngini = 0.375\nsamples = 4\nvalue = [1, 3]\nclass = true", fillcolor="#7bbeee"] ;
583 -> 584 ;
585 [label="relationship <= 3.5\ngini = 0.5\nsamples = 2\nvalue = [1, 1]\nclass = false", fillcolor="#ffffff"] ;
584 -> 585 ;
586 [label="gini = 0.0\nsamples = 1\nvalue = [1, 0]\nclass = false", fillcolor="#e58139"] ;
585 -> 586 ;
587 [label="gini = 0.0\nsamples = 1\nvalue = [0, 1]\nclass = true", fillcolor="#399de5"] ;
585 -> 587 ;
588 [label="gini = 0.0\nsamples = 2\nvalue = [0, 2]\nclass = true", fillcolor="#399de5"] ;
584 -> 588 ;
589 [label="gini = 0.0\nsamples = 3\nvalue = [5, 0]\nclass = false", fillcolor="#e58139"] ;
583 -> 589 ;
590 [label="state <= 25.0\ngini = 0.494\nsamples = 19\nvalue = [12, 15]\nclass = true", fillcolor="#d7ebfa"] ;
578 -> 590 ;
591 [label="hbver <= 7.121\ngini = 0.355\nsamples = 10\nvalue = [10, 3]\nclass = false", fillcolor="#eda774"] ;
590 -> 591 ;
592 [label="weight <= 84.243\ngini = 0.375\nsamples = 3\nvalue = [1, 3]\nclass = true", fillcolor="#7bbeee"] ;
591 -> 592 ;
593 [label="gini = 0.0\nsamples = 2\nvalue = [0, 3]\nclass = true", fillcolor="#399de5"] ;
592 -> 593 ;
594 [label="gini = 0.0\nsamples = 1\nvalue = [1, 0]\nclass = false", fillcolor="#e58139"] ;
592 -> 594 ;
595 [label="gini = 0.0\nsamples = 7\nvalue = [9, 0]\nclass = false", fillcolor="#e58139"] ;
591 -> 595 ;
596 [label="hbver <= 5.731\ngini = 0.245\nsamples = 9\nvalue = [2, 12]\nclass = true", fillcolor="#5aade9"] ;
590 -> 596 ;
597 [label="gini = 0.0\nsamples = 1\nvalue = [1, 0]\nclass = false", fillcolor="#e58139"] ;
596 -> 597 ;
598 [label="alt <= 7.164\ngini = 0.142\nsamples = 8\nvalue = [1, 12]\nclass = true", fillcolor="#49a5e7"] ;
596 -> 598 ;
599 [label="gini = 0.0\nsamples = 6\nvalue = [0, 11]\nclass = true", fillcolor="#399de5"] ;
598 -> 599 ;
600 [label="age <= 78.5\ngini = 0.5\nsamples = 2\nvalue = [1, 1]\nclass = false", fillcolor="#ffffff"] ;
598 -> 600 ;
601 [label="gini = 0.0\nsamples = 1\nvalue = [0, 1]\nclass = true", fillcolor="#399de5"] ;
600 -> 601 ;
602 [label="gini = 0.0\nsamples = 1\nvalue = [1, 0]\nclass = false", fillcolor="#e58139"] ;
600 -> 602 ;
603 [label="hbver <= 7.592\ngini = 0.375\nsamples = 3\nvalue = [3, 1]\nclass = false", fillcolor="#eeab7b"] ;
569 -> 603 ;
604 [label="gini = 0.0\nsamples = 1\nvalue = [0, 1]\nclass = true", fillcolor="#399de5"] ;
603 -> 604 ;
605 [label="gini = 0.0\nsamples = 2\nvalue = [3, 0]\nclass = false", fillcolor="#e58139"] ;
603 -> 605 ;
606 [label="hbver <= 6.226\ngini = 0.21\nsamples = 27\nvalue = [37, 5]\nclass = false", fillcolor="#e99254"] ;
564 -> 606 ;
607 [label="gini = 0.0\nsamples = 3\nvalue = [0, 3]\nclass = true", fillcolor="#399de5"] ;
606 -> 607 ;
608 [label="etytr <= 5.086\ngini = 0.097\nsamples = 24\nvalue = [37, 2]\nclass = false", fillcolor="#e68844"] ;
606 -> 608 ;
609 [label="leukocyty <= 8.977\ngini = 0.375\nsamples = 4\nvalue = [6, 2]\nclass = false", fillcolor="#eeab7b"] ;
608 -> 609 ;
610 [label="gini = 0.0\nsamples = 2\nvalue = [6, 0]\nclass = false", fillcolor="#e58139"] ;
609 -> 610 ;
611 [label="gini = 0.0\nsamples = 2\nvalue = [0, 2]\nclass = true", fillcolor="#399de5"] ;
609 -> 611 ;
612 [label="gini = 0.0\nsamples = 20\nvalue = [31, 0]\nclass = false", fillcolor="#e58139"] ;
608 -> 612 ;
613 [label="hematokrit <= 6.764\ngini = 0.498\nsamples = 750\nvalue = [569, 647]\nclass = true", fillcolor="#e7f3fc"] ;
361 -> 613 ;
614 [label="hbver <= 7.869\ngini = 0.273\nsamples = 156\nvalue = [205, 40]\nclass = false", fillcolor="#ea9a60"] ;
613 -> 614 ;
615 [label="state <= 52.0\ngini = 0.185\nsamples = 104\nvalue = [148, 17]\nclass = false", fillcolor="#e88f50"] ;
614 -> 615 ;
616 [label="er-cv <= 19.655\ngini = 0.176\nsamples = 103\nvalue = [148, 16]\nclass = false", fillcolor="#e88f4e"] ;
615 -> 616 ;
617 [label="gini = 0.0\nsamples = 1\nvalue = [0, 2]\nclass = true", fillcolor="#399de5"] ;
616 -> 617 ;
618 [label="weight <= 99.641\ngini = 0.158\nsamples = 102\nvalue = [148, 14]\nclass = false", fillcolor="#e78d4c"] ;
616 -> 618 ;
619 [label="leukocyty <= 6.704\ngini = 0.071\nsamples = 82\nvalue = [130, 5]\nclass = false", fillcolor="#e68641"] ;
618 -> 619 ;
620 [label="etytr <= 6.032\ngini = 0.32\nsamples = 4\nvalue = [1, 4]\nclass = true", fillcolor="#6ab6ec"] ;
619 -> 620 ;
621 [label="gini = 0.0\nsamples = 1\nvalue = [1, 0]\nclass = false", fillcolor="#e58139"] ;
620 -> 621 ;
622 [label="gini = 0.0\nsamples = 3\nvalue = [0, 4]\nclass = true", fillcolor="#399de5"] ;
620 -> 622 ;
623 [label="alp <= 13.752\ngini = 0.015\nsamples = 78\nvalue = [129, 1]\nclass = false", fillcolor="#e5823b"] ;
619 -> 623 ;
624 [label="age <= 32.0\ngini = 0.444\nsamples = 3\nvalue = [2, 1]\nclass = false", fillcolor="#f2c09c"] ;
623 -> 624 ;
625 [label="gini = 0.0\nsamples = 2\nvalue = [2, 0]\nclass = false", fillcolor="#e58139"] ;
624 -> 625 ;
626 [label="gini = 0.0\nsamples = 1\nvalue = [0, 1]\nclass = true", fillcolor="#399de5"] ;
624 -> 626 ;
627 [label="gini = 0.0\nsamples = 75\nvalue = [127, 0]\nclass = false", fillcolor="#e58139"] ;
623 -> 627 ;
628 [label="hematokrit <= 5.951\ngini = 0.444\nsamples = 20\nvalue = [18, 9]\nclass = false", fillcolor="#f2c09c"] ;
618 -> 628 ;
629 [label="hbver <= 6.628\ngini = 0.308\nsamples = 14\nvalue = [17, 4]\nclass = false", fillcolor="#eb9f68"] ;
628 -> 629 ;
630 [label="er-cv <= 36.869\ngini = 0.48\nsamples = 4\nvalue = [2, 3]\nclass = true", fillcolor="#bddef6"] ;
629 -> 630 ;
631 [label="gini = 0.0\nsamples = 1\nvalue = [0, 2]\nclass = true", fillcolor="#399de5"] ;
630 -> 631 ;
632 [label="age <= 10.5\ngini = 0.444\nsamples = 3\nvalue = [2, 1]\nclass = false", fillcolor="#f2c09c"] ;
630 -> 632 ;
633 [label="gini = 0.0\nsamples = 1\nvalue = [0, 1]\nclass = true", fillcolor="#399de5"] ;
632 -> 633 ;
634 [label="gini = 0.0\nsamples = 2\nvalue = [2, 0]\nclass = false", fillcolor="#e58139"] ;
632 -> 634 ;
635 [label="leukocyty <= 7.416\ngini = 0.117\nsamples = 10\nvalue = [15, 1]\nclass = false", fillcolor="#e78946"] ;
629 -> 635 ;
636 [label="gini = 0.0\nsamples = 1\nvalue = [0, 1]\nclass = true", fillcolor="#399de5"] ;
635 -> 636 ;
637 [label="gini = 0.0\nsamples = 9\nvalue = [15, 0]\nclass = false", fillcolor="#e58139"] ;
635 -> 637 ;
638 [label="trombocyty <= 7.71\ngini = 0.278\nsamples = 6\nvalue = [1, 5]\nclass = true", fillcolor="#61b1ea"] ;
628 -> 638 ;
639 [label="state <= 13.5\ngini = 0.5\nsamples = 2\nvalue = [1, 1]\nclass = false", fillcolor="#ffffff"] ;
638 -> 639 ;
640 [label="gini = 0.0\nsamples = 1\nvalue = [0, 1]\nclass = true", fillcolor="#399de5"] ;
639 -> 640 ;
641 [label="gini = 0.0\nsamples = 1\nvalue = [1, 0]\nclass = false", fillcolor="#e58139"] ;
639 -> 641 ;
642 [label="gini = 0.0\nsamples = 4\nvalue = [0, 4]\nclass = true", fillcolor="#399de5"] ;
638 -> 642 ;
643 [label="gini = 0.0\nsamples = 1\nvalue = [0, 1]\nclass = true", fillcolor="#399de5"] ;
615 -> 643 ;
644 [label="etytr <= 6.651\ngini = 0.41\nsamples = 52\nvalue = [57, 23]\nclass = false", fillcolor="#efb489"] ;
614 -> 644 ;
645 [label="etytr <= 5.546\ngini = 0.222\nsamples = 36\nvalue = [48, 7]\nclass = false", fillcolor="#e99356"] ;
644 -> 645 ;
646 [label="er-cv <= 72.288\ngini = 0.35\nsamples = 21\nvalue = [24, 7]\nclass = false", fillcolor="#eda673"] ;
645 -> 646 ;
647 [label="race <= 3.5\ngini = 0.285\nsamples = 20\nvalue = [24, 5]\nclass = false", fillcolor="#ea9b62"] ;
646 -> 647 ;
648 [label="gini = 0.0\nsamples = 10\nvalue = [15, 0]\nclass = false", fillcolor="#e58139"] ;
647 -> 648 ;
649 [label="ast <= 51.873\ngini = 0.459\nsamples = 10\nvalue = [9, 5]\nclass = false", fillcolor="#f3c7a7"] ;
647 -> 649 ;
650 [label="hemoglobin <= 7.726\ngini = 0.198\nsamples = 6\nvalue = [8, 1]\nclass = false", fillcolor="#e89152"] ;
649 -> 650 ;
651 [label="gini = 0.0\nsamples = 5\nvalue = [8, 0]\nclass = false", fillcolor="#e58139"] ;
650 -> 651 ;
652 [label="gini = 0.0\nsamples = 1\nvalue = [0, 1]\nclass = true", fillcolor="#399de5"] ;
650 -> 652 ;
653 [label="ast <= 76.981\ngini = 0.32\nsamples = 4\nvalue = [1, 4]\nclass = true", fillcolor="#6ab6ec"] ;
649 -> 653 ;
654 [label="gini = 0.0\nsamples = 3\nvalue = [0, 4]\nclass = true", fillcolor="#399de5"] ;
653 -> 654 ;
655 [label="gini = 0.0\nsamples = 1\nvalue = [1, 0]\nclass = false", fillcolor="#e58139"] ;
653 -> 655 ;
656 [label="gini = 0.0\nsamples = 1\nvalue = [0, 2]\nclass = true", fillcolor="#399de5"] ;
646 -> 656 ;
657 [label="gini = 0.0\nsamples = 15\nvalue = [24, 0]\nclass = false", fillcolor="#e58139"] ;
645 -> 657 ;
658 [label="alp <= 38.805\ngini = 0.461\nsamples = 16\nvalue = [9, 16]\nclass = true", fillcolor="#a8d4f4"] ;
644 -> 658 ;
659 [label="gini = 0.0\nsamples = 4\nvalue = [0, 8]\nclass = true", fillcolor="#399de5"] ;
658 -> 659 ;
660 [label="alp <= 80.006\ngini = 0.498\nsamples = 12\nvalue = [9, 8]\nclass = false", fillcolor="#fcf1e9"] ;
658 -> 660 ;
661 [label="blood_group <= 2.5\ngini = 0.219\nsamples = 6\nvalue = [7, 1]\nclass = false", fillcolor="#e99355"] ;
660 -> 661 ;
662 [label="gini = 0.0\nsamples = 1\nvalue = [0, 1]\nclass = true", fillcolor="#399de5"] ;
661 -> 662 ;
663 [label="gini = 0.0\nsamples = 5\nvalue = [7, 0]\nclass = false", fillcolor="#e58139"] ;
661 -> 663 ;
664 [label="hemoglobin <= 6.699\ngini = 0.346\nsamples = 6\nvalue = [2, 7]\nclass = true", fillcolor="#72b9ec"] ;
660 -> 664 ;
665 [label="etytr <= 7.121\ngini = 0.5\nsamples = 4\nvalue = [2, 2]\nclass = false", fillcolor="#ffffff"] ;
664 -> 665 ;
666 [label="gini = 0.0\nsamples = 2\nvalue = [0, 2]\nclass = true", fillcolor="#399de5"] ;
665 -> 666 ;
667 [label="gini = 0.0\nsamples = 2\nvalue = [2, 0]\nclass = false", fillcolor="#e58139"] ;
665 -> 667 ;
668 [label="gini = 0.0\nsamples = 2\nvalue = [0, 5]\nclass = true", fillcolor="#399de5"] ;
664 -> 668 ;
669 [label="hemoglobin <= 7.52\ngini = 0.469\nsamples = 594\nvalue = [364, 607]\nclass = true", fillcolor="#b0d8f5"] ;
613 -> 669 ;
670 [label="etytr <= 6.388\ngini = 0.344\nsamples = 312\nvalue = [111, 391]\nclass = true", fillcolor="#71b9ec"] ;
669 -> 670 ;
671 [label="age <= 7.5\ngini = 0.42\nsamples = 167\nvalue = [82, 191]\nclass = true", fillcolor="#8ec7f0"] ;
670 -> 671 ;
672 [label="weight <= 59.673\ngini = 0.499\nsamples = 16\nvalue = [14, 13]\nclass = false", fillcolor="#fdf6f1"] ;
671 -> 672 ;
673 [label="hbver <= 8.788\ngini = 0.337\nsamples = 8\nvalue = [3, 11]\nclass = true", fillcolor="#6fb8ec"] ;
672 -> 673 ;
674 [label="er-cv <= 54.126\ngini = 0.153\nsamples = 7\nvalue = [1, 11]\nclass = true", fillcolor="#4ba6e7"] ;
673 -> 674 ;
675 [label="leukocyty <= 7.993\ngini = 0.444\nsamples = 2\nvalue = [1, 2]\nclass = true", fillcolor="#9ccef2"] ;
674 -> 675 ;
676 [label="gini = 0.0\nsamples = 1\nvalue = [0, 2]\nclass = true", fillcolor="#399de5"] ;
675 -> 676 ;
677 [label="gini = 0.0\nsamples = 1\nvalue = [1, 0]\nclass = false", fillcolor="#e58139"] ;
675 -> 677 ;
678 [label="gini = 0.0\nsamples = 5\nvalue = [0, 9]\nclass = true", fillcolor="#399de5"] ;
674 -> 678 ;
679 [label="gini = 0.0\nsamples = 1\nvalue = [2, 0]\nclass = false", fillcolor="#e58139"] ;
673 -> 679 ;
680 [label="alp <= 85.37\ngini = 0.26\nsamples = 8\nvalue = [11, 2]\nclass = false", fillcolor="#ea985d"] ;
672 -> 680 ;
681 [label="ast <= 59.343\ngini = 0.153\nsamples = 7\nvalue = [11, 1]\nclass = false", fillcolor="#e78c4b"] ;
680 -> 681 ;
682 [label="gini = 0.0\nsamples = 6\nvalue = [11, 0]\nclass = false", fillcolor="#e58139"] ;
681 -> 682 ;
683 [label="gini = 0.0\nsamples = 1\nvalue = [0, 1]\nclass = true", fillcolor="#399de5"] ;
681 -> 683 ;
684 [label="gini = 0.0\nsamples = 1\nvalue = [0, 1]\nclass = true", fillcolor="#399de5"] ;
680 -> 684 ;
685 [label="hematokrit <= 7.658\ngini = 0.4\nsamples = 151\nvalue = [68, 178]\nclass = true", fillcolor="#85c2ef"] ;
671 -> 685 ;
686 [label="relationship <= 1.5\ngini = 0.36\nsamples = 32\nvalue = [39, 12]\nclass = false", fillcolor="#eda876"] ;
685 -> 686 ;
687 [label="state <= 14.5\ngini = 0.5\nsamples = 8\nvalue = [5, 5]\nclass = false", fillcolor="#ffffff"] ;
686 -> 687 ;
688 [label="gini = 0.0\nsamples = 2\nvalue = [0, 4]\nclass = true", fillcolor="#399de5"] ;
687 -> 688 ;
689 [label="ast <= 32.264\ngini = 0.278\nsamples = 6\nvalue = [5, 1]\nclass = false", fillcolor="#ea9a61"] ;
687 -> 689 ;
690 [label="gini = 0.0\nsamples = 1\nvalue = [0, 1]\nclass = true", fillcolor="#399de5"] ;
689 -> 690 ;
691 [label="gini = 0.0\nsamples = 5\nvalue = [5, 0]\nclass = false", fillcolor="#e58139"] ;
689 -> 691 ;
692 [label="blood_group <= 6.5\ngini = 0.283\nsamples = 24\nvalue = [34, 7]\nclass = false", fillcolor="#ea9b62"] ;
686 -> 692 ;
693 [label="erytrocyty <= 10.255\ngini = 0.202\nsamples = 20\nvalue = [31, 4]\nclass = false", fillcolor="#e89153"] ;
692 -> 693 ;
694 [label="trombocyty <= 6.98\ngini = 0.161\nsamples = 19\nvalue = [31, 3]\nclass = false", fillcolor="#e88d4c"] ;
693 -> 694 ;
695 [label="age <= 38.0\ngini = 0.444\nsamples = 3\nvalue = [1, 2]\nclass = true", fillcolor="#9ccef2"] ;
694 -> 695 ;
696 [label="gini = 0.0\nsamples = 1\nvalue = [1, 0]\nclass = false", fillcolor="#e58139"] ;
695 -> 696 ;
697 [label="gini = 0.0\nsamples = 2\nvalue = [0, 2]\nclass = true", fillcolor="#399de5"] ;
695 -> 697 ;
698 [label="hbver <= 9.201\ngini = 0.062\nsamples = 16\nvalue = [30, 1]\nclass = false", fillcolor="#e68540"] ;
694 -> 698 ;
699 [label="gini = 0.0\nsamples = 14\nvalue = [29, 0]\nclass = false", fillcolor="#e58139"] ;
698 -> 699 ;
700 [label="weight <= 53.672\ngini = 0.5\nsamples = 2\nvalue = [1, 1]\nclass = false", fillcolor="#ffffff"] ;
698 -> 700 ;
701 [label="gini = 0.0\nsamples = 1\nvalue = [0, 1]\nclass = true", fillcolor="#399de5"] ;
700 -> 701 ;
702 [label="gini = 0.0\nsamples = 1\nvalue = [1, 0]\nclass = false", fillcolor="#e58139"] ;
700 -> 702 ;
703 [label="gini = 0.0\nsamples = 1\nvalue = [0, 1]\nclass = true", fillcolor="#399de5"] ;
693 -> 703 ;
704 [label="er-cv <= 52.324\ngini = 0.5\nsamples = 4\nvalue = [3, 3]\nclass = false", fillcolor="#ffffff"] ;
692 -> 704 ;
705 [label="gini = 0.0\nsamples = 2\nvalue = [0, 3]\nclass = true", fillcolor="#399de5"] ;
704 -> 705 ;
706 [label="gini = 0.0\nsamples = 2\nvalue = [3, 0]\nclass = false", fillcolor="#e58139"] ;
704 -> 706 ;
707 [label="er-cv <= 85.762\ngini = 0.253\nsamples = 119\nvalue = [29, 166]\nclass = true", fillcolor="#5caeea"] ;
685 -> 707 ;
708 [label="weight <= 54.79\ngini = 0.241\nsamples = 118\nvalue = [27, 166]\nclass = true", fillcolor="#59ade9"] ;
707 -> 708 ;
709 [label="alt <= 19.375\ngini = 0.403\nsamples = 42\nvalue = [19, 49]\nclass = true", fillcolor="#86c3ef"] ;
708 -> 709 ;
710 [label="alp <= 73.897\ngini = 0.363\nsamples = 39\nvalue = [15, 48]\nclass = true", fillcolor="#77bced"] ;
709 -> 710 ;
711 [label="age <= 32.5\ngini = 0.083\nsamples = 15\nvalue = [1, 22]\nclass = true", fillcolor="#42a1e6"] ;
710 -> 711 ;
712 [label="blood_group <= 3.0\ngini = 0.245\nsamples = 5\nvalue = [1, 6]\nclass = true", fillcolor="#5aade9"] ;
711 -> 712 ;
713 [label="gini = 0.0\nsamples = 1\nvalue = [1, 0]\nclass = false", fillcolor="#e58139"] ;
712 -> 713 ;
714 [label="gini = 0.0\nsamples = 4\nvalue = [0, 6]\nclass = true", fillcolor="#399de5"] ;
712 -> 714 ;
715 [label="gini = 0.0\nsamples = 10\nvalue = [0, 16]\nclass = true", fillcolor="#399de5"] ;
711 -> 715 ;
716 [label="hematokrit <= 10.23\ngini = 0.455\nsamples = 24\nvalue = [14, 26]\nclass = true", fillcolor="#a4d2f3"] ;
710 -> 716 ;
717 [label="blood_group <= 2.0\ngini = 0.185\nsamples = 17\nvalue = [3, 26]\nclass = true", fillcolor="#50a8e8"] ;
716 -> 717 ;
718 [label="gini = 0.0\nsamples = 1\nvalue = [3, 0]\nclass = false", fillcolor="#e58139"] ;
717 -> 718 ;
719 [label="gini = 0.0\nsamples = 16\nvalue = [0, 26]\nclass = true", fillcolor="#399de5"] ;
717 -> 719 ;
720 [label="gini = 0.0\nsamples = 7\nvalue = [11, 0]\nclass = false", fillcolor="#e58139"] ;
716 -> 720 ;
721 [label="etytr <= 6.117\ngini = 0.32\nsamples = 3\nvalue = [4, 1]\nclass = false", fillcolor="#eca06a"] ;
709 -> 721 ;
722 [label="gini = 0.0\nsamples = 2\nvalue = [4, 0]\nclass = false", fillcolor="#e58139"] ;
721 -> 722 ;
723 [label="gini = 0.0\nsamples = 1\nvalue = [0, 1]\nclass = true", fillcolor="#399de5"] ;
721 -> 723 ;
724 [label="alp <= 58.146\ngini = 0.12\nsamples = 76\nvalue = [8, 117]\nclass = true", fillcolor="#47a4e7"] ;
708 -> 724 ;
725 [label="gini = 0.0\nsamples = 1\nvalue = [1, 0]\nclass = false", fillcolor="#e58139"] ;
724 -> 725 ;
726 [label="hemoglobin <= 5.668\ngini = 0.107\nsamples = 75\nvalue = [7, 117]\nclass = true", fillcolor="#45a3e7"] ;
724 -> 726 ;
727 [label="ast <= 38.901\ngini = 0.5\nsamples = 2\nvalue = [1, 1]\nclass = false", fillcolor="#ffffff"] ;
726 -> 727 ;
728 [label="gini = 0.0\nsamples = 1\nvalue = [1, 0]\nclass = false", fillcolor="#e58139"] ;
727 -> 728 ;
729 [label="gini = 0.0\nsamples = 1\nvalue = [0, 1]\nclass = true", fillcolor="#399de5"] ;
727 -> 729 ;
730 [label="state <= 2.0\ngini = 0.094\nsamples = 73\nvalue = [6, 116]\nclass = true", fillcolor="#43a2e6"] ;
726 -> 730 ;
731 [label="gini = 0.0\nsamples = 1\nvalue = [1, 0]\nclass = false", fillcolor="#e58139"] ;
730 -> 731 ;
732 [label="hematokrit <= 11.217\ngini = 0.079\nsamples = 72\nvalue = [5, 116]\nclass = true", fillcolor="#42a1e6"] ;
730 -> 732 ;
733 [label="hematokrit <= 7.883\ngini = 0.033\nsamples = 69\nvalue = [2, 116]\nclass = true", fillcolor="#3c9fe5"] ;
732 -> 733 ;
734 [label="hematokrit <= 7.746\ngini = 0.278\nsamples = 4\nvalue = [1, 5]\nclass = true", fillcolor="#61b1ea"] ;
733 -> 734 ;
735 [label="gini = 0.0\nsamples = 3\nvalue = [0, 5]\nclass = true", fillcolor="#399de5"] ;
734 -> 735 ;
736 [label="gini = 0.0\nsamples = 1\nvalue = [1, 0]\nclass = false", fillcolor="#e58139"] ;
734 -> 736 ;
737 [label="hemoglobin <= 7.441\ngini = 0.018\nsamples = 65\nvalue = [1, 111]\nclass = true", fillcolor="#3b9ee5"] ;
733 -> 737 ;
738 [label="gini = 0.0\nsamples = 63\nvalue = [0, 107]\nclass = true", fillcolor="#399de5"] ;
737 -> 738 ;
739 [label="alt <= 6.36\ngini = 0.32\nsamples = 2\nvalue = [1, 4]\nclass = true", fillcolor="#6ab6ec"] ;
737 -> 739 ;
740 [label="gini = 0.0\nsamples = 1\nvalue = [0, 4]\nclass = true", fillcolor="#399de5"] ;
739 -> 740 ;
741 [label="gini = 0.0\nsamples = 1\nvalue = [1, 0]\nclass = false", fillcolor="#e58139"] ;
739 -> 741 ;
742 [label="gini = 0.0\nsamples = 3\nvalue = [3, 0]\nclass = false", fillcolor="#e58139"] ;
732 -> 742 ;
743 [label="gini = 0.0\nsamples = 1\nvalue = [2, 0]\nclass = false", fillcolor="#e58139"] ;
707 -> 743 ;
744 [label="hematokrit <= 7.62\ngini = 0.221\nsamples = 145\nvalue = [29, 200]\nclass = true", fillcolor="#56abe9"] ;
670 -> 744 ;
745 [label="alp <= 72.968\ngini = 0.48\nsamples = 23\nvalue = [14, 21]\nclass = true", fillcolor="#bddef6"] ;
744 -> 745 ;
746 [label="gini = 0.0\nsamples = 2\nvalue = [6, 0]\nclass = false", fillcolor="#e58139"] ;
745 -> 746 ;
747 [label="blood_group <= 2.5\ngini = 0.4\nsamples = 21\nvalue = [8, 21]\nclass = true", fillcolor="#84c2ef"] ;
745 -> 747 ;
748 [label="trombocyty <= 7.889\ngini = 0.496\nsamples = 9\nvalue = [6, 5]\nclass = false", fillcolor="#fbeade"] ;
747 -> 748 ;
749 [label="weight <= 79.0\ngini = 0.444\nsamples = 7\nvalue = [6, 3]\nclass = false", fillcolor="#f2c09c"] ;
748 -> 749 ;
750 [label="leukocyty <= 8.134\ngini = 0.245\nsamples = 5\nvalue = [6, 1]\nclass = false", fillcolor="#e9965a"] ;
749 -> 750 ;
751 [label="gini = 0.0\nsamples = 1\nvalue = [0, 1]\nclass = true", fillcolor="#399de5"] ;
750 -> 751 ;
752 [label="gini = 0.0\nsamples = 4\nvalue = [6, 0]\nclass = false", fillcolor="#e58139"] ;
750 -> 752 ;
753 [label="gini = 0.0\nsamples = 2\nvalue = [0, 2]\nclass = true", fillcolor="#399de5"] ;
749 -> 753 ;
754 [label="gini = 0.0\nsamples = 2\nvalue = [0, 2]\nclass = true", fillcolor="#399de5"] ;
748 -> 754 ;
755 [label="hbver <= 6.051\ngini = 0.198\nsamples = 12\nvalue = [2, 16]\nclass = true", fillcolor="#52a9e8"] ;
747 -> 755 ;
756 [label="gini = 0.0\nsamples = 1\nvalue = [1, 0]\nclass = false", fillcolor="#e58139"] ;
755 -> 756 ;
757 [label="etytr <= 7.519\ngini = 0.111\nsamples = 11\nvalue = [1, 16]\nclass = true", fillcolor="#45a3e7"] ;
755 -> 757 ;
758 [label="gini = 0.0\nsamples = 10\nvalue = [0, 16]\nclass = true", fillcolor="#399de5"] ;
757 -> 758 ;
759 [label="gini = 0.0\nsamples = 1\nvalue = [1, 0]\nclass = false", fillcolor="#e58139"] ;
757 -> 759 ;
760 [label="hematokrit <= 11.752\ngini = 0.143\nsamples = 122\nvalue = [15, 179]\nclass = true", fillcolor="#4aa5e7"] ;
744 -> 760 ;
761 [label="alt <= 3.023\ngini = 0.126\nsamples = 120\nvalue = [13, 179]\nclass = true", fillcolor="#47a4e7"] ;
760 -> 761 ;
762 [label="gini = 0.0\nsamples = 1\nvalue = [1, 0]\nclass = false", fillcolor="#e58139"] ;
761 -> 762 ;
763 [label="hemoglobin <= 6.832\ngini = 0.118\nsamples = 119\nvalue = [12, 179]\nclass = true", fillcolor="#46a4e7"] ;
761 -> 763 ;
764 [label="age <= 104.0\ngini = 0.012\nsamples = 98\nvalue = [1, 162]\nclass = true", fillcolor="#3a9ee5"] ;
763 -> 764 ;
765 [label="gini = 0.0\nsamples = 89\nvalue = [0, 147]\nclass = true", fillcolor="#399de5"] ;
764 -> 765 ;
766 [label="blood_group <= 5.5\ngini = 0.117\nsamples = 9\nvalue = [1, 15]\nclass = true", fillcolor="#46a4e7"] ;
764 -> 766 ;
767 [label="gini = 0.0\nsamples = 6\nvalue = [0, 11]\nclass = true", fillcolor="#399de5"] ;
766 -> 767 ;
768 [label="erytrocyty <= 8.524\ngini = 0.32\nsamples = 3\nvalue = [1, 4]\nclass = true", fillcolor="#6ab6ec"] ;
766 -> 768 ;
769 [label="gini = 0.0\nsamples = 2\nvalue = [0, 4]\nclass = true", fillcolor="#399de5"] ;
768 -> 769 ;
770 [label="gini = 0.0\nsamples = 1\nvalue = [1, 0]\nclass = false", fillcolor="#e58139"] ;
768 -> 770 ;
771 [label="ast <= 46.962\ngini = 0.477\nsamples = 21\nvalue = [11, 17]\nclass = true", fillcolor="#b9dcf6"] ;
763 -> 771 ;
772 [label="erytrocyty <= 9.071\ngini = 0.426\nsamples = 10\nvalue = [9, 4]\nclass = false", fillcolor="#f1b991"] ;
771 -> 772 ;
773 [label="hbver <= 7.59\ngini = 0.298\nsamples = 9\nvalue = [9, 2]\nclass = false", fillcolor="#eb9d65"] ;
772 -> 773 ;
774 [label="weight <= 84.212\ngini = 0.48\nsamples = 5\nvalue = [3, 2]\nclass = false", fillcolor="#f6d5bd"] ;
773 -> 774 ;
775 [label="etytr <= 6.575\ngini = 0.444\nsamples = 3\nvalue = [1, 2]\nclass = true", fillcolor="#9ccef2"] ;
774 -> 775 ;
776 [label="gini = 0.0\nsamples = 1\nvalue = [1, 0]\nclass = false", fillcolor="#e58139"] ;
775 -> 776 ;
777 [label="gini = 0.0\nsamples = 2\nvalue = [0, 2]\nclass = true", fillcolor="#399de5"] ;
775 -> 777 ;
778 [label="gini = 0.0\nsamples = 2\nvalue = [2, 0]\nclass = false", fillcolor="#e58139"] ;
774 -> 778 ;
779 [label="gini = 0.0\nsamples = 4\nvalue = [6, 0]\nclass = false", fillcolor="#e58139"] ;
773 -> 779 ;
780 [label="gini = 0.0\nsamples = 1\nvalue = [0, 2]\nclass = true", fillcolor="#399de5"] ;
772 -> 780 ;
781 [label="hematokrit <= 10.18\ngini = 0.231\nsamples = 11\nvalue = [2, 13]\nclass = true", fillcolor="#57ace9"] ;
771 -> 781 ;
782 [label="alp <= 80.747\ngini = 0.133\nsamples = 10\nvalue = [1, 13]\nclass = true", fillcolor="#48a5e7"] ;
781 -> 782 ;
783 [label="gini = 0.0\nsamples = 7\nvalue = [0, 11]\nclass = true", fillcolor="#399de5"] ;
782 -> 783 ;
784 [label="smoker <= 0.5\ngini = 0.444\nsamples = 3\nvalue = [1, 2]\nclass = true", fillcolor="#9ccef2"] ;
782 -> 784 ;
785 [label="gini = 0.0\nsamples = 1\nvalue = [1, 0]\nclass = false", fillcolor="#e58139"] ;
784 -> 785 ;
786 [label="gini = 0.0\nsamples = 2\nvalue = [0, 2]\nclass = true", fillcolor="#399de5"] ;
784 -> 786 ;
787 [label="gini = 0.0\nsamples = 1\nvalue = [1, 0]\nclass = false", fillcolor="#e58139"] ;
781 -> 787 ;
788 [label="gini = 0.0\nsamples = 2\nvalue = [2, 0]\nclass = false", fillcolor="#e58139"] ;
760 -> 788 ;
789 [label="alp <= 19.887\ngini = 0.497\nsamples = 282\nvalue = [253, 216]\nclass = false", fillcolor="#fbede2"] ;
669 -> 789 ;
790 [label="weight <= 25.081\ngini = 0.377\nsamples = 85\nvalue = [89, 30]\nclass = false", fillcolor="#eeab7c"] ;
789 -> 790 ;
791 [label="leukocyty <= 6.595\ngini = 0.444\nsamples = 11\nvalue = [5, 10]\nclass = true", fillcolor="#9ccef2"] ;
790 -> 791 ;
792 [label="gini = 0.0\nsamples = 5\nvalue = [0, 8]\nclass = true", fillcolor="#399de5"] ;
791 -> 792 ;
793 [label="etytr <= 5.123\ngini = 0.408\nsamples = 6\nvalue = [5, 2]\nclass = false", fillcolor="#efb388"] ;
791 -> 793 ;
794 [label="gini = 0.0\nsamples = 1\nvalue = [0, 2]\nclass = true", fillcolor="#399de5"] ;
793 -> 794 ;
795 [label="gini = 0.0\nsamples = 5\nvalue = [5, 0]\nclass = false", fillcolor="#e58139"] ;
793 -> 795 ;
796 [label="weight <= 131.583\ngini = 0.311\nsamples = 74\nvalue = [84, 20]\nclass = false", fillcolor="#eb9f68"] ;
790 -> 796 ;
797 [label="alp <= 12.145\ngini = 0.28\nsamples = 72\nvalue = [84, 17]\nclass = false", fillcolor="#ea9a61"] ;
796 -> 797 ;
798 [label="gini = 0.0\nsamples = 14\nvalue = [22, 0]\nclass = false", fillcolor="#e58139"] ;
797 -> 798 ;
799 [label="leukocyty <= 6.967\ngini = 0.338\nsamples = 58\nvalue = [62, 17]\nclass = false", fillcolor="#eca46f"] ;
797 -> 799 ;
800 [label="gini = 0.0\nsamples = 9\nvalue = [0, 10]\nclass = true", fillcolor="#399de5"] ;
799 -> 800 ;
801 [label="etytr <= 5.159\ngini = 0.182\nsamples = 49\nvalue = [62, 7]\nclass = false", fillcolor="#e88f4f"] ;
799 -> 801 ;
802 [label="leukocyty <= 7.928\ngini = 0.496\nsamples = 9\nvalue = [5, 6]\nclass = true", fillcolor="#deeffb"] ;
801 -> 802 ;
803 [label="gini = 0.0\nsamples = 4\nvalue = [5, 0]\nclass = false", fillcolor="#e58139"] ;
802 -> 803 ;
804 [label="gini = 0.0\nsamples = 5\nvalue = [0, 6]\nclass = true", fillcolor="#399de5"] ;
802 -> 804 ;
805 [label="blood_group <= 3.5\ngini = 0.034\nsamples = 40\nvalue = [57, 1]\nclass = false", fillcolor="#e5833c"] ;
801 -> 805 ;
806 [label="state <= 26.0\ngini = 0.095\nsamples = 16\nvalue = [19, 1]\nclass = false", fillcolor="#e68843"] ;
805 -> 806 ;
807 [label="etytr <= 5.56\ngini = 0.32\nsamples = 4\nvalue = [4, 1]\nclass = false", fillcolor="#eca06a"] ;
806 -> 807 ;
808 [label="gini = 0.0\nsamples = 1\nvalue = [0, 1]\nclass = true", fillcolor="#399de5"] ;
807 -> 808 ;
809 [label="gini = 0.0\nsamples = 3\nvalue = [4, 0]\nclass = false", fillcolor="#e58139"] ;
807 -> 809 ;
810 [label="gini = 0.0\nsamples = 12\nvalue = [15, 0]\nclass = false", fillcolor="#e58139"] ;
806 -> 810 ;
811 [label="gini = 0.0\nsamples = 24\nvalue = [38, 0]\nclass = false", fillcolor="#e58139"] ;
805 -> 811 ;
812 [label="gini = 0.0\nsamples = 2\nvalue = [0, 3]\nclass = true", fillcolor="#399de5"] ;
796 -> 812 ;
813 [label="hematokrit <= 8.946\ngini = 0.498\nsamples = 197\nvalue = [164, 186]\nclass = true", fillcolor="#e8f3fc"] ;
789 -> 813 ;
814 [label="alp <= 30.231\ngini = 0.402\nsamples = 95\nvalue = [48, 124]\nclass = true", fillcolor="#86c3ef"] ;
813 -> 814 ;
815 [label="alt <= 4.773\ngini = 0.492\nsamples = 38\nvalue = [31, 40]\nclass = true", fillcolor="#d2e9f9"] ;
814 -> 815 ;
816 [label="alt <= 3.43\ngini = 0.382\nsamples = 20\nvalue = [9, 26]\nclass = true", fillcolor="#7ebfee"] ;
815 -> 816 ;
817 [label="alp <= 28.443\ngini = 0.496\nsamples = 10\nvalue = [6, 5]\nclass = false", fillcolor="#fbeade"] ;
816 -> 817 ;
818 [label="erytrocyty <= 6.95\ngini = 0.245\nsamples = 7\nvalue = [6, 1]\nclass = false", fillcolor="#e9965a"] ;
817 -> 818 ;
819 [label="gini = 0.0\nsamples = 1\nvalue = [0, 1]\nclass = true", fillcolor="#399de5"] ;
818 -> 819 ;
820 [label="gini = 0.0\nsamples = 6\nvalue = [6, 0]\nclass = false", fillcolor="#e58139"] ;
818 -> 820 ;
821 [label="gini = 0.0\nsamples = 3\nvalue = [0, 4]\nclass = true", fillcolor="#399de5"] ;
817 -> 821 ;
822 [label="etytr <= 7.231\ngini = 0.219\nsamples = 10\nvalue = [3, 21]\nclass = true", fillcolor="#55abe9"] ;
816 -> 822 ;
823 [label="gini = 0.0\nsamples = 7\nvalue = [0, 18]\nclass = true", fillcolor="#399de5"] ;
822 -> 823 ;
824 [label="er-cv <= 54.412\ngini = 0.5\nsamples = 3\nvalue = [3, 3]\nclass = false", fillcolor="#ffffff"] ;
822 -> 824 ;
825 [label="gini = 0.0\nsamples = 2\nvalue = [3, 0]\nclass = false", fillcolor="#e58139"] ;
824 -> 825 ;
826 [label="gini = 0.0\nsamples = 1\nvalue = [0, 3]\nclass = true", fillcolor="#399de5"] ;
824 -> 826 ;
827 [label="erytrocyty <= 9.061\ngini = 0.475\nsamples = 18\nvalue = [22, 14]\nclass = false", fillcolor="#f6d1b7"] ;
815 -> 827 ;
828 [label="state <= 38.0\ngini = 0.391\nsamples = 15\nvalue = [22, 8]\nclass = false", fillcolor="#eeaf81"] ;
827 -> 828 ;
829 [label="weight <= 128.2\ngini = 0.227\nsamples = 12\nvalue = [20, 3]\nclass = false", fillcolor="#e99457"] ;
828 -> 829 ;
830 [label="etytr <= 3.924\ngini = 0.165\nsamples = 11\nvalue = [20, 2]\nclass = false", fillcolor="#e88e4d"] ;
829 -> 830 ;
831 [label="gini = 0.0\nsamples = 1\nvalue = [0, 1]\nclass = true", fillcolor="#399de5"] ;
830 -> 831 ;
832 [label="relationship <= 4.5\ngini = 0.091\nsamples = 10\nvalue = [20, 1]\nclass = false", fillcolor="#e68743"] ;
830 -> 832 ;
833 [label="gini = 0.0\nsamples = 7\nvalue = [17, 0]\nclass = false", fillcolor="#e58139"] ;
832 -> 833 ;
834 [label="hematokrit <= 8.487\ngini = 0.375\nsamples = 3\nvalue = [3, 1]\nclass = false", fillcolor="#eeab7b"] ;
832 -> 834 ;
835 [label="gini = 0.0\nsamples = 1\nvalue = [0, 1]\nclass = true", fillcolor="#399de5"] ;
834 -> 835 ;
836 [label="gini = 0.0\nsamples = 2\nvalue = [3, 0]\nclass = false", fillcolor="#e58139"] ;
834 -> 836 ;
837 [label="gini = 0.0\nsamples = 1\nvalue = [0, 1]\nclass = true", fillcolor="#399de5"] ;
829 -> 837 ;
838 [label="hematokrit <= 8.394\ngini = 0.408\nsamples = 3\nvalue = [2, 5]\nclass = true", fillcolor="#88c4ef"] ;
828 -> 838 ;
839 [label="gini = 0.0\nsamples = 2\nvalue = [0, 5]\nclass = true", fillcolor="#399de5"] ;
838 -> 839 ;
840 [label="gini = 0.0\nsamples = 1\nvalue = [2, 0]\nclass = false", fillcolor="#e58139"] ;
838 -> 840 ;
841 [label="gini = 0.0\nsamples = 3\nvalue = [0, 6]\nclass = true", fillcolor="#399de5"] ;
827 -> 841 ;
842 [label="age <= 111.0\ngini = 0.28\nsamples = 57\nvalue = [17, 84]\nclass = true", fillcolor="#61b1ea"] ;
814 -> 842 ;
843 [label="alp <= 44.725\ngini = 0.225\nsamples = 54\nvalue = [12, 81]\nclass = true", fillcolor="#56ace9"] ;
842 -> 843 ;
844 [label="gini = 0.0\nsamples = 22\nvalue = [0, 42]\nclass = true", fillcolor="#399de5"] ;
843 -> 844 ;
845 [label="alp <= 53.326\ngini = 0.36\nsamples = 32\nvalue = [12, 39]\nclass = true", fillcolor="#76bbed"] ;
843 -> 845 ;
846 [label="alp <= 50.648\ngini = 0.451\nsamples = 19\nvalue = [11, 21]\nclass = true", fillcolor="#a1d0f3"] ;
845 -> 846 ;
847 [label="age <= 3.5\ngini = 0.34\nsamples = 12\nvalue = [5, 18]\nclass = true", fillcolor="#70b8ec"] ;
846 -> 847 ;
848 [label="gini = 0.0\nsamples = 1\nvalue = [2, 0]\nclass = false", fillcolor="#e58139"] ;
847 -> 848 ;
849 [label="erytrocyty <= 8.186\ngini = 0.245\nsamples = 11\nvalue = [3, 18]\nclass = true", fillcolor="#5aade9"] ;
847 -> 849 ;
850 [label="alt <= 3.405\ngini = 0.42\nsamples = 7\nvalue = [3, 7]\nclass = true", fillcolor="#8ec7f0"] ;
849 -> 850 ;
851 [label="gini = 0.0\nsamples = 4\nvalue = [0, 7]\nclass = true", fillcolor="#399de5"] ;
850 -> 851 ;
852 [label="gini = 0.0\nsamples = 3\nvalue = [3, 0]\nclass = false", fillcolor="#e58139"] ;
850 -> 852 ;
853 [label="gini = 0.0\nsamples = 4\nvalue = [0, 11]\nclass = true", fillcolor="#399de5"] ;
849 -> 853 ;
854 [label="leukocyty <= 8.669\ngini = 0.444\nsamples = 7\nvalue = [6, 3]\nclass = false", fillcolor="#f2c09c"] ;
846 -> 854 ;
855 [label="age <= 42.5\ngini = 0.245\nsamples = 5\nvalue = [6, 1]\nclass = false", fillcolor="#e9965a"] ;
854 -> 855 ;
856 [label="gini = 0.0\nsamples = 1\nvalue = [0, 1]\nclass = true", fillcolor="#399de5"] ;
855 -> 856 ;
857 [label="gini = 0.0\nsamples = 4\nvalue = [6, 0]\nclass = false", fillcolor="#e58139"] ;
855 -> 857 ;
858 [label="gini = 0.0\nsamples = 2\nvalue = [0, 2]\nclass = true", fillcolor="#399de5"] ;
854 -> 858 ;
859 [label="state <= 44.5\ngini = 0.1\nsamples = 13\nvalue = [1, 18]\nclass = true", fillcolor="#44a2e6"] ;
845 -> 859 ;
860 [label="gini = 0.0\nsamples = 10\nvalue = [0, 16]\nclass = true", fillcolor="#399de5"] ;
859 -> 860 ;
861 [label="hematokrit <= 8.173\ngini = 0.444\nsamples = 3\nvalue = [1, 2]\nclass = true", fillcolor="#9ccef2"] ;
859 -> 861 ;
862 [label="gini = 0.0\nsamples = 2\nvalue = [0, 2]\nclass = true", fillcolor="#399de5"] ;
861 -> 862 ;
863 [label="gini = 0.0\nsamples = 1\nvalue = [1, 0]\nclass = false", fillcolor="#e58139"] ;
861 -> 863 ;
864 [label="race <= 2.5\ngini = 0.469\nsamples = 3\nvalue = [5, 3]\nclass = false", fillcolor="#f5cdb0"] ;
842 -> 864 ;
865 [label="gini = 0.0\nsamples = 2\nvalue = [5, 0]\nclass = false", fillcolor="#e58139"] ;
864 -> 865 ;
866 [label="gini = 0.0\nsamples = 1\nvalue = [0, 3]\nclass = true", fillcolor="#399de5"] ;
864 -> 866 ;
867 [label="race <= 1.5\ngini = 0.454\nsamples = 102\nvalue = [116, 62]\nclass = false", fillcolor="#f3c4a3"] ;
813 -> 867 ;
868 [label="er-cv <= 51.887\ngini = 0.497\nsamples = 54\nvalue = [53, 45]\nclass = false", fillcolor="#fbece1"] ;
867 -> 868 ;
